{"type":"NeuralNetwork","sizes":[784,80,10,10],"layers":[{"weights":[],"biases":[]},{"weights":[[-0.037409283220767975,0.10336608439683914,0.02886577695608139,0.12628266215324402,-0.07013935595750809,-0.00545082101598382,0.16256965696811676,0.08711076527833939,-0.14978325366973877,-0.06584407389163971,-0.11041367799043655,0.18853476643562317,-0.01817738078534603,-0.09378507733345032,0.11791955679655075,-0.0217696912586689,-0.10949113219976425,0.16383102536201477,0.13987255096435547,0.08429496735334396,-0.17968232929706573,-0.0733187273144722,0.10854361206293106,-0.1532505303621292,0.1553279459476471,-0.05886170268058777,0.005665742326527834,0.11647358536720276,-0.13321760296821594,-0.025194521993398666,0.08970222622156143,0.16428934037685394,0.19075043499469757,0.06408814340829849,-0.04346054792404175,-0.14983147382736206,-0.11723577976226807,-0.17722712457180023,0.08715246617794037,0.16423577070236206,0.17592963576316833,0.015054367482662201,-0.07754015922546387,0.17743505537509918,0.22380965948104858,0.1985684633255005,0.021579375490546227,-0.0073858583346009254,0.14203503727912903,-0.1755146086215973,-0.13415727019309998,0.08128278702497482,-0.0889679491519928,0.08822628110647202,-0.038223713636398315,-0.17854180932044983,-0.13611067831516266,-0.007805854547768831,-0.16212871670722961,0.07803572714328766,-0.17088209092617035,-0.09852924942970276,0.1555497944355011,0.012646014802157879,0.14625708758831024,0.19594129920005798,0.17900198698043823,0.18843364715576172,0.12089160829782486,-0.03095093183219433,-0.05668044462800026,-0.017046811059117317,0.10517521947622299,0.10045686364173889,-0.0743291899561882,-0.057402338832616806,0.10796535015106201,-0.09315044432878494,-0.0145065076649189,-0.03293116018176079,0.15297789871692657,0.1394919604063034,-0.05878680199384689,0.022247031331062317,0.08802807331085205,-0.08296053111553192,-0.06114808842539787,0.16532230377197266,-0.029583079740405083,-0.1151122972369194,-0.04954864829778671,-0.03759630024433136,0.12220414727926254,0.21017657220363617,0.2462124079465866,-0.16701926290988922,-0.016237355768680573,0.002463349374011159,0.0743541345000267,-0.22109082341194153,0.2800639867782593,0.09649643301963806,0.3174574077129364,0.04553835839033127,0.3142569661140442,-0.0015947883948683739,0.06983504444360733,-0.022822514176368713,-0.10683077573776245,0.1746692657470703,-0.049525316804647446,0.05913129821419716,0.15206195414066315,-0.1759650707244873,0.1584118902683258,-0.09111186861991882,-0.051912449300289154,0.11374537646770477,0.14740875363349915,0.13210994005203247,-0.1529846489429474,-0.28029051423072815,-0.024857178330421448,0.22862711548805237,-0.2741953134536743,-0.15755632519721985,-0.16554543375968933,0.07919414341449738,0.3402971625328064,0.6771903038024902,0.14757166802883148,0.19242636859416962,0.18036741018295288,0.04984652251005173,-0.290214478969574,-0.006754804868251085,-0.02001459151506424,-0.0055501097813248634,-0.14357247948646545,-0.016724344342947006,0.1496615707874298,0.009767063893377781,-0.044317808002233505,-0.04362490400671959,-0.21353955566883087,-0.0646706372499466,-0.17774175107479095,-0.10684782266616821,-0.20745350420475006,0.23214749991893768,-0.1855863332748413,0.15157270431518555,0.07629884779453278,0.16644051671028137,0.617728054523468,0.382685124874115,1.1300116777420044,0.11064013093709946,-0.05274492874741554,-0.03132890537381172,-0.401059627532959,-0.38217973709106445,-0.39335328340530396,-0.08146492391824722,0.028303666040301323,0.23772817850112915,0.24474120140075684,0.11224569380283356,0.09267923980951309,0.04217686131596565,-0.12380070239305496,0.07556351274251938,-0.021488355472683907,-0.22175362706184387,-0.269035279750824,0.11739982664585114,0.46064358949661255,0.07911162078380585,-0.10373548418283463,0.3800627887248993,0.17695675790309906,-0.08374958485364914,0.40606048703193665,-0.2643260657787323,0.34718620777130127,0.24792185425758362,-0.5889302492141724,-0.8668680191040039,-0.9551131129264832,-0.7450158596038818,-0.6510745882987976,-0.09528318792581558,-0.0037107423413544893,-0.026632262393832207,-0.21936659514904022,0.014061790890991688,-0.05159345269203186,-0.16151176393032074,-0.13460083305835724,-0.21541953086853027,0.0402722992002964,-0.22951683402061462,0.21715307235717773,0.41951999068260193,0.4391748905181885,-0.16281981766223907,0.017024677246809006,-0.28663405776023865,-0.2707987129688263,0.5731891989707947,-0.0800434872508049,-0.6887595653533936,-0.5398604869842529,-0.3994060158729553,-0.48975059390068054,-0.6466391086578369,-0.7056560516357422,-0.7828089594841003,-0.6333092451095581,-0.25526919960975647,-0.2849014699459076,-0.035567499697208405,-0.09293778985738754,-0.18880194425582886,0.018948113545775414,0.040285512804985046,-0.15906362235546112,0.08397254347801208,-0.06369701772928238,0.20605577528476715,0.24579837918281555,-0.04691215977072716,0.10040499269962311,0.038077402859926224,-0.11029006540775299,0.37716764211654663,0.1272447258234024,-0.08841672539710999,-0.04344969987869263,-0.6609531044960022,-0.7359148263931274,-0.4599034786224365,-0.7745345234870911,-0.3274412751197815,-0.6635423302650452,-0.3184286057949066,-0.4253534972667694,-0.18564164638519287,-0.14077827334403992,0.12276069074869156,-0.12625713646411896,-0.0579470619559288,0.04733626917004585,-0.03873887285590172,0.11246494948863983,0.08277763426303864,-0.2064664363861084,0.05309964716434479,0.3575688600540161,-0.4899939298629761,-0.24677491188049316,-0.21043740212917328,0.08240660279989243,0.10329768806695938,0.03564877063035965,0.09371127188205719,-0.3184654414653778,-0.727780282497406,-0.665716290473938,-0.08477289229631424,0.16326676309108734,0.6211507320404053,-0.3573201596736908,-0.08622977137565613,-0.16862888634204865,-0.047157615423202515,-0.04357437044382095,-0.16506338119506836,0.062337927520275116,0.10623519867658615,0.014296785928308964,0.0059340032748878,-0.06907229870557785,0.007806158624589443,0.04511202126741409,0.18152721226215363,0.048302825540304184,0.06788250058889389,0.24797175824642181,-0.02367578074336052,-0.010124914348125458,0.1384574919939041,0.0490851029753685,-0.36625218391418457,0.1367240846157074,-0.5177828073501587,-0.062359437346458435,0.026099793612957,-0.15680895745754242,0.26977086067199707,-0.0457126684486866,0.046200208365917206,-0.10414636135101318,0.3847641348838806,-0.12646722793579102,-0.24436333775520325,0.14955230057239532,-0.1931125372648239,0.0515393503010273,0.06073853000998497,-0.013045321218669415,0.039156440645456314,-0.04638698697090149,-0.3217707574367523,-0.18671248853206635,0.03346732258796692,-0.20012052357196808,0.20176930725574493,-0.23437345027923584,0.3386632800102234,-0.1768987625837326,-0.19216810166835785,-0.1251910775899887,-0.336957186460495,0.12622426450252533,0.2789284288883209,-0.17480090260505676,0.18986019492149353,0.5705410242080688,0.4348028898239136,-0.0861816555261612,0.3412478268146515,0.30903956294059753,-0.10743613541126251,-0.02371949329972267,-0.15709790587425232,-0.1443018764257431,-0.07217802107334137,-0.15246562659740448,-0.10791805386543274,-0.015491867437958717,0.14701347053050995,0.30455079674720764,0.3374488055706024,0.39560604095458984,-0.26166829466819763,-0.2718937397003174,-0.26238933205604553,0.08121785521507263,-0.10678566992282867,-0.28889766335487366,-0.16080011427402496,-0.32540860772132874,-0.11813578754663467,0.04490404576063156,0.26172274351119995,0.9427616596221924,0.7746519446372986,0.5401688814163208,0.21048903465270996,0.31939610838890076,0.033867839723825455,0.011330441571772099,-0.14063042402267456,-0.18825772404670715,0.032743871212005615,0.11546670645475388,-0.14686235785484314,-0.1982160359621048,0.05045238882303238,0.22328880429267883,-0.01017407514154911,-0.017894679680466652,-0.31059399247169495,-0.24384602904319763,-0.23041479289531708,-0.0651499330997467,-0.41414302587509155,-0.43237918615341187,-0.28678685426712036,-0.2411697953939438,-0.6198369860649109,-0.14669902622699738,0.38937994837760925,0.6811078190803528,0.27264463901519775,0.38433465361595154,0.08661708980798721,0.1173485741019249,0.22862085700035095,0.01810069940984249,-0.21658430993556976,0.047214359045028687,0.06323453038930893,-0.11327268183231354,0.1617923080921173,-0.10861904174089432,0.37331250309944153,0.38702717423439026,0.18320922553539276,-0.026694994419813156,-0.0402347594499588,-0.17497572302818298,0.33638569712638855,0.4342247247695923,-0.19131939113140106,-0.5126322507858276,-0.2813907265663147,-0.5772632956504822,0.11430983990430832,0.18274882435798645,-0.16498790681362152,0.558360755443573,0.2055675983428955,0.05345531553030014,0.40173423290252686,-0.03249068185687065,0.06738384813070297,0.17967502772808075,-0.12710779905319214,-0.12193141132593155,0.1360422670841217,-0.10981422662734985,0.08416890352964401,0.012812195345759392,0.2795863449573517,0.3438991606235504,0.006807459983974695,0.23098953068256378,-0.03927028924226761,-0.23988144099712372,0.3737766146659851,-0.0603313110768795,-1.0069111585617065,-0.3213653564453125,-0.28920361399650574,-0.18457449972629547,-0.21973682940006256,0.09806225448846817,0.049230437725782394,0.08559892326593399,0.2246028184890747,0.09558670222759247,0.3526054918766022,0.09409426152706146,0.1327822059392929,-0.014502599835395813,-0.10890372097492218,0.037021454423666,-0.1470128297805786,0.01828085631132126,-0.20351845026016235,-0.17649811506271362,0.331081360578537,0.4471103250980377,0.30618494749069214,0.4453217387199402,0.07056368887424469,0.7353548407554626,0.4696887731552124,0.33109158277511597,-0.40588492155075073,-0.3613434433937073,-0.15197637677192688,-0.33484384417533875,0.11087503284215927,-0.021157218143343925,-0.037867944687604904,-0.3120761513710022,-0.22119155526161194,-0.04425531253218651,-0.10735070705413818,-0.07685846835374832,0.07909324020147324,0.10487973690032959,-0.07039076834917068,0.08985606580972672,-0.1490786224603653,-0.04953044280409813,-0.07935836911201477,-0.12872475385665894,0.28494560718536377,-0.016070744022727013,0.5129207372665405,0.12866505980491638,0.2469855695962906,0.8827658295631409,1.2236212491989136,0.17122116684913635,-0.4342063367366791,-0.35712528228759766,0.023113973438739777,0.32792535424232483,-0.2600531280040741,0.08383435010910034,-0.3405335247516632,-0.012261033058166504,-0.2924962639808655,-0.2053881287574768,0.11443892866373062,0.062293022871017456,0.06639642268419266,-0.012459059245884418,0.1102997213602066,-0.10656411200761795,0.18388405442237854,-0.15859770774841309,-0.20763789117336273,0.09099888801574707,0.006531425751745701,-0.023888492956757545,-0.08158357441425323,0.027405401691794395,0.24697870016098022,0.5015600323677063,0.7838197350502014,0.38856711983680725,-0.0668087750673294,-0.3838249146938324,0.27180957794189453,-0.12121395766735077,-0.27906328439712524,-0.47521862387657166,-0.15922749042510986,0.008483786135911942,-0.18785707652568817,-0.22714482247829437,-0.07027888298034668,-0.24143989384174347,-0.036838263273239136,0.10125759989023209,-0.15262185037136078,0.06430461257696152,-0.14507687091827393,0.14774616062641144,-0.043829962611198425,0.09996730834245682,-0.2705692946910858,-0.19095809757709503,0.103846974670887,0.1864320933818817,-0.12484829872846603,0.7597721815109253,0.6414311528205872,-0.030780214816331863,-0.1419849842786789,-0.4465593993663788,-0.246949702501297,0.023458894342184067,-0.013938825577497482,-0.32900023460388184,-0.3733058273792267,-0.298341304063797,0.10810551047325134,-0.07934907078742981,-0.2082565873861313,0.055702582001686096,-0.2415761798620224,0.01917327381670475,-0.059387873858213425,-0.094333715736866,-0.17855140566825867,-0.054492268711328506,0.061575453728437424,-0.2293034940958023,0.12250500172376633,-0.020866313949227333,-0.299351304769516,-0.28786608576774597,0.373260498046875,0.7359344959259033,0.7883802652359009,-0.124531589448452,-0.501976728439331,0.16101938486099243,0.3005586862564087,-0.45132169127464294,-0.1848907172679901,-0.7671654224395752,-0.3268280327320099,0.06685065478086472,0.4229922890663147,0.24070751667022705,-0.17708690464496613,0.04514758288860321,-0.05876559019088745,0.17077602446079254,-0.0588439516723156,-0.14528986811637878,0.06849931925535202,-0.18350927531719208,-0.13125456869602203,0.11641530692577362,-0.16024214029312134,-0.01653321273624897,-0.3862728178501129,-0.5805531740188599,0.5703945755958557,0.7825056910514832,1.113541603088379,-0.3396300971508026,-0.2945983111858368,0.35940223932266235,0.17714034020900726,-0.01920384168624878,-0.13399170339107513,-0.4968758821487427,-0.4198509156703949,0.11414255201816559,0.19206596910953522,0.038310058414936066,-0.18841040134429932,0.15961602330207825,-0.00006250787555472925,-0.09623412787914276,-0.01308438926935196,-0.10803379863500595,-0.0019055269658565521,-0.1691090166568756,0.17656680941581726,-0.16671958565711975,-0.17505206167697906,-0.03661615028977394,-0.44950950145721436,-0.09134304523468018,-0.4055272340774536,0.4778132736682892,0.9639091491699219,0.48454999923706055,-0.06294770538806915,-0.13578569889068604,0.411822646856308,0.17702576518058777,0.4592980146408081,-0.43702998757362366,-0.42909643054008484,0.024174844846129417,0.03400944918394089,-0.11548072099685669,0.12257327139377594,0.12927500903606415,0.061692364513874054,0.17548465728759766,0.1978917419910431,0.020316768437623978,-0.15481947362422943,0.0558645986020565,0.02314075641334057,-0.3042599558830261,-0.10439669340848923,-0.23878958821296692,-0.5399099588394165,-0.8605926632881165,-0.22348354756832123,-0.09550587087869644,0.04370211064815521,0.10774830728769302,0.7055655121803284,0.1285744458436966,-0.40052032470703125,-0.391762375831604,-0.7722447514533997,-0.13821838796138763,0.3220936954021454,-0.09661887586116791,0.3045019507408142,-0.1068599745631218,0.034855231642723083,0.16142235696315765,0.08826921880245209,0.01030902098864317,-0.12318363040685654,-0.16802732646465302,0.15241464972496033,0.031368549913167953,-0.022919217124581337,-0.19795724749565125,-0.36235135793685913,-0.3552793264389038,-0.5334660410881042,-0.44139739871025085,-0.6775974631309509,-0.35790136456489563,-0.24082307517528534,0.04801495000720024,-0.08070165663957596,-0.14526420831680298,-0.2765285074710846,-0.20566943287849426,-0.12219521403312683,-0.020505666732788086,0.03718074783682823,0.022066185250878334,-0.026300635188817978,0.07065106928348541,-0.05686033144593239,-0.14633363485336304,-0.12870265543460846,-0.11184348911046982,0.08295648545026779,-0.02520189806818962,-0.09211070090532303,0.004615576472133398,-0.19021567702293396,-0.10205211490392685,0.017158253118395805,-0.3138817548751831,-0.06421447545289993,-0.27026647329330444,-0.33395299315452576,-0.3063383102416992,-0.3810585141181946,-0.5404971837997437,-0.05968331918120384,-0.41279593110084534,-0.2822009027004242,0.025799695402383804,-0.010771636851131916,0.024920012801885605,-0.09126438945531845,-0.049288779497146606,0.09936501085758209,0.0739775002002716,-0.16914820671081543,-0.017082836478948593,0.10514906048774719,0.11502178013324738,-0.02201988734304905,0.13462497293949127,0.025642167776823044,0.06638321280479431,0.18172596395015717,0.09779120981693268,0.019902415573596954,-0.07315145432949066,-0.12348487228155136,0.07906018942594528,-0.25975120067596436,-0.23699763417243958,0.07480357587337494,-0.06496766209602356,0.035781219601631165,-0.01470023300498724,-0.12382307648658752,-0.12663224339485168,0.1175626814365387,-0.032063376158475876,0.1603803038597107,0.10413140058517456,-0.20184481143951416,0.12380733340978622,0.1620282679796219,0.04450755566358566,-0.08619895577430725,-0.15142475068569183,0.018174737691879272,0.042749933898448944,-0.055619701743125916,-0.1744278520345688,-0.11901523917913437,-0.06280839443206787,0.1828043907880783,0.08323851972818375,0.08364361524581909,-0.13523957133293152,-0.1147349551320076,-0.07653634250164032,-0.09769751131534576,-0.1660962700843811,-0.04046092554926872,-0.10159321874380112,0.09844473749399185,-0.04310215637087822,0.042895615100860596,0.03581177443265915,-0.1693471521139145,-0.09010404348373413,-0.14897137880325317,-0.09655379503965378,-0.04978585243225098,-0.17216543853282928,-0.1657664179801941,-0.007237267680466175,-0.05736798420548439],[0.046592939645051956,-0.028040233999490738,0.05655190348625183,0.14028368890285492,0.019289014860987663,-0.032556045800447464,-0.006341142114251852,-0.06906475126743317,0.17149852216243744,-0.08180427551269531,-0.12351881712675095,0.17739097774028778,0.014367165043950081,0.010425432585179806,0.07066480815410614,0.12909173965454102,-0.19345399737358093,0.1863725781440735,-0.03312322497367859,0.1442565619945526,0.07047519832849503,-0.0011642429744824767,-0.171257883310318,-0.06405963003635406,0.1793004423379898,-0.08123860508203506,-0.012111435644328594,-0.09879720211029053,0.1591721922159195,0.17303143441677094,0.1482033133506775,0.08419106155633926,0.006744932848960161,0.14316843450069427,0.11465061455965042,0.027294674888253212,-0.10571660101413727,0.08285769820213318,-0.19131086766719818,-0.07550188899040222,0.13883236050605774,-0.12159299105405807,-0.14822298288345337,-0.00531556224450469,0.00981500931084156,0.18278662860393524,-0.17502041161060333,0.015445897355675697,-0.16568422317504883,-0.17804664373397827,-0.020556621253490448,-0.10445226728916168,-0.17555354535579681,-0.09274947643280029,0.16990411281585693,-0.023643262684345245,-0.08056879788637161,-0.0782240629196167,-0.05517423897981644,0.05868786200881004,-0.179578498005867,-0.0815977156162262,0.09590394049882889,0.035103145986795425,0.12433541566133499,-0.10326645523309708,-0.02589377760887146,-0.12192632257938385,-0.09106463938951492,-0.18404939770698547,-0.12295451015233994,-0.24198882281780243,-0.13714897632598877,0.03871084377169609,-0.19633542001247406,0.12717390060424805,0.1328650414943695,-0.08756976574659348,-0.15718699991703033,-0.08915303647518158,-0.1550668329000473,-0.19654768705368042,0.0022947131656110287,0.007521535269916058,0.1098567396402359,-0.18899711966514587,0.01070338673889637,0.00022516287572216243,-0.1631637066602707,-0.1227264478802681,-0.11268867552280426,-0.19057679176330566,-0.11268095672130585,-0.14100492000579834,0.029186110943555832,-0.2008482962846756,-0.1410747617483139,-0.13107042014598846,-0.24126474559307098,-0.4857581555843353,-0.1404593139886856,-0.2693599462509155,0.034348905086517334,-0.035392507910728455,-0.16366362571716309,0.14677950739860535,0.16812469065189362,0.08496245741844177,-0.09845508635044098,0.10727473348379135,0.01621251367032528,0.1689084768295288,0.08292636275291443,0.07301897555589676,0.17354412376880646,0.07486152648925781,0.010206248611211777,0.09097674489021301,0.06480055302381516,-0.059611495584249496,-0.09383979439735413,-0.1649319976568222,-0.32154080271720886,0.027087407186627388,-0.040658991783857346,0.21734628081321716,0.13666333258152008,0.5924804210662842,-0.3556143343448639,-0.08533153682947159,-0.3842935264110565,-0.015183523297309875,-0.12834972143173218,0.08643592149019241,-0.2786799371242523,-0.14468909800052643,0.1550637036561966,-0.09286326169967651,-0.14251993596553802,0.019418856129050255,0.11566783487796783,0.12901842594146729,-0.03537733852863312,-0.010107703506946564,0.09671762585639954,-0.15391436219215393,0.03596891835331917,-0.1367185115814209,-0.37135595083236694,0.401455819606781,0.2042500525712967,0.07526417821645737,-0.5614528059959412,-0.0500606894493103,-0.08193269371986389,0.19397889077663422,0.09563904255628586,-0.4081512689590454,-0.31883296370506287,0.08925429731607437,-0.06465006619691849,-0.1583128422498703,-0.060614876449108124,0.21766187250614166,-0.034821730107069016,-0.14353671669960022,-0.1543196588754654,-0.06620052456855774,-0.06054643914103508,-0.020396638661623,0.0314645953476429,-0.10202120989561081,0.08239612728357315,0.414008766412735,-0.11954022943973541,0.16772519052028656,0.17127901315689087,-0.02969634160399437,0.4820399284362793,-0.17294584214687347,0.16697312891483307,0.009963436052203178,-0.06264114379882812,-0.7162862420082092,0.19032853841781616,0.7450236082077026,0.46676042675971985,0.26921120285987854,0.24499772489070892,-0.1417723298072815,0.21893921494483948,0.18991389870643616,-0.0184002835303545,-0.17487527430057526,0.06602981686592102,0.050960320979356766,-0.18764713406562805,0.10208752006292343,0.057978324592113495,-0.015554788522422314,0.14025190472602844,0.1942218542098999,0.3285265862941742,-0.19809910655021667,-0.25731414556503296,0.22780710458755493,-0.06578712910413742,-0.4172167479991913,-0.2017803192138672,-0.8599756360054016,-0.3412918448448181,-0.7402675151824951,-1.0123674869537354,-0.1096939891576767,0.3819098472595215,-0.3518669605255127,0.37222564220428467,-0.4496717154979706,-0.1262340545654297,-0.3274247646331787,-0.016978450119495392,-0.09834511578083038,-0.11096546798944473,-0.02122115157544613,0.08633887022733688,-0.12936200201511383,-0.08619409799575806,-0.05534416809678078,0.17984743416309357,0.4466297924518585,0.4919789433479309,-0.06574418395757675,0.38855406641960144,0.2788732647895813,-0.14876091480255127,-0.3438606858253479,-0.043411411345005035,0.29386287927627563,-0.049259960651397705,0.9398514032363892,0.5042389631271362,0.05087323486804962,0.08432630449533463,-0.16209712624549866,-0.0779758170247078,-0.173866868019104,-0.24920101463794708,0.0680898055434227,-0.11788446456193924,-0.0912020280957222,0.05708969011902809,-0.12271875888109207,-0.1680132895708084,-0.12555523216724396,-0.04549745097756386,-0.1882435828447342,0.08389914780855179,0.48627710342407227,0.3293873965740204,0.10798967629671097,0.09692470729351044,0.747893214225769,0.47307994961738586,-0.18376082181930542,-0.21665512025356293,0.7767249941825867,0.24323159456253052,0.5146114826202393,0.028105007484555244,0.3662000000476837,0.4589395523071289,-0.2938101887702942,-0.17295274138450623,-0.33197614550590515,-0.44195741415023804,-0.5429986715316772,0.021154575049877167,-0.16618536412715912,0.17475458979606628,0.11234855651855469,0.05624054744839668,0.11931069940328598,-0.09711460024118423,0.062179889529943466,0.2646767497062683,-0.1919018030166626,-0.6035040616989136,-0.17131473124027252,0.07813207805156708,0.2794283628463745,0.1521908938884735,-0.28099456429481506,0.8063361644744873,-0.10536719113588333,-0.22675667703151703,-0.8043444752693176,-0.6659624576568604,0.034588951617479324,-0.19147202372550964,-0.5904927849769592,-0.04850757122039795,-0.44314348697662354,-0.27331864833831787,-0.40532004833221436,-0.03724681958556175,0.2591150999069214,-0.0045979865826666355,-0.11448737978935242,0.11062057316303253,0.05345909669995308,-0.042379118502140045,-0.04898292198777199,0.17630396783351898,-0.19160358607769012,-0.5983397364616394,-0.2648375928401947,0.033601514995098114,-0.5476258993148804,-0.1704731434583664,-0.8506553769111633,-0.5449034571647644,-0.9289078712463379,-0.1424172818660736,0.037438079714775085,-0.31695544719696045,-0.6596293449401855,-0.2292950600385666,-0.19092658162117004,0.18035532534122467,-0.06531286239624023,0.1237577497959137,-0.4656282067298889,-0.019886847585439682,0.028705161064863205,-0.0942138060927391,-0.15300489962100983,-0.18822753429412842,0.18031738698482513,-0.00174410839099437,0.1106763556599617,0.0064674243330955505,-0.12722277641296387,-0.4114268720149994,-0.25797295570373535,-0.0826740711927414,-0.25468647480010986,-0.314853310585022,0.0727606788277626,0.28944629430770874,0.03606182709336281,0.032706957310438156,0.03670531511306763,-0.6331573724746704,-0.457461416721344,-0.9342911839485168,0.13445627689361572,-0.3959934711456299,-0.3146079480648041,-0.19423505663871765,-0.09192275255918503,-0.1926121860742569,-0.01630355790257454,0.03289448097348213,-0.011335545219480991,-0.14695578813552856,0.13302356004714966,0.16323572397232056,0.0007002383354119956,0.22154876589775085,-0.3472155034542084,0.0026790497358888388,-0.15515941381454468,-0.3815501630306244,-0.15313401818275452,1.085020661354065,0.24773147702217102,-0.10491301864385605,0.10580527037382126,-0.2812478542327881,-0.36978912353515625,-0.3630002439022064,0.08698644489049911,-0.5749661326408386,-0.26916784048080444,0.1560925841331482,0.014648616313934326,0.07025037705898285,-0.13826397061347961,-0.038274265825748444,-0.22355493903160095,-0.11613959819078445,0.11596360057592392,-0.07970310747623444,-0.01002645492553711,-0.10011161118745804,0.16871292889118195,-0.09843452274799347,0.20370087027549744,-0.147065207362175,-0.18327292799949646,0.41642287373542786,0.645319402217865,0.7680891156196594,0.5605947971343994,0.16354453563690186,0.2748781740665436,0.461995929479599,0.40437111258506775,0.25143611431121826,0.23131346702575684,0.11495036631822586,0.040387485176324844,0.23979251086711884,0.07446688413619995,0.09544490277767181,0.05132679641246796,-0.27183419466018677,-0.09943767637014389,0.021266905590891838,0.1983204334974289,0.19498685002326965,0.022126536816358566,0.12226401269435883,-0.04188985750079155,0.04152793809771538,-0.17639581859111786,0.11093983799219131,0.21483731269836426,0.5171065926551819,-0.062214821577072144,0.8699435591697693,1.1125186681747437,0.772739589214325,0.5163253545761108,0.3807952404022217,-0.18178312480449677,0.5305923819541931,0.6288405060768127,0.07475597411394119,1.119810938835144,0.4901309907436371,0.275070458650589,0.1495283544063568,0.20482949912548065,0.16290803253650665,-0.17568868398666382,-0.12202322483062744,0.0040001836605370045,-0.10730347782373428,0.17074014246463776,-0.09249146282672882,0.03289385512471199,0.0576627291738987,-0.0763373002409935,-0.7076242566108704,0.018244894221425056,-0.15435244143009186,0.5181442499160767,0.9242947697639465,1.040859341621399,1.26869797706604,0.7700684070587158,-0.4969322979450226,-0.010904940776526928,0.35570165514945984,-0.060204919427633286,0.3296643793582916,0.5359259843826294,-0.12827454507350922,0.0007322499877773225,0.3560827970504761,-0.011738013476133347,0.2153616100549698,-0.04360802099108696,-0.07630446553230286,0.17622016370296478,0.1714145839214325,-0.04690072685480118,0.24707375466823578,-0.07455738633871078,-0.04888378083705902,-0.42775285243988037,-0.720816969871521,-1.1350971460342407,-1.5375518798828125,-1.2532521486282349,-0.7537768483161926,0.09038219600915909,0.1325886845588684,0.40489888191223145,-0.049520790576934814,-0.14717580378055573,0.3682270348072052,0.3385045528411865,-0.2113768309354782,-0.021992186084389687,-0.3818517029285431,-0.2433924376964569,-0.026404106989502907,-0.17680701613426208,-0.12433455139398575,-0.18493497371673584,-0.01943560503423214,0.19453954696655273,-0.11586228758096695,-0.012492862530052662,0.20220129191875458,-0.05570770800113678,0.006530954036861658,-0.649010956287384,-1.2096922397613525,-1.381523847579956,-2.2998552322387695,-2.503298759460449,-2.3580734729766846,-2.0282461643218994,-1.5000542402267456,-0.7811622619628906,-0.2846177816390991,-0.7744775414466858,-0.23328588902950287,-0.29179900884628296,-0.36610081791877747,-0.09965500235557556,-0.5050885081291199,-0.12792246043682098,-0.5209230780601501,0.06801167875528336,-0.20722255110740662,-0.16346310079097748,0.18095390498638153,-0.013354173861443996,-0.016437865793704987,-0.10659483820199966,-0.006112840957939625,-0.12444116175174713,0.04180988669395447,-0.20257307589054108,-0.9010628461837769,-0.9703853726387024,-2.0135371685028076,-2.1994690895080566,-2.4056344032287598,-2.0382516384124756,-1.231343388557434,-1.3520171642303467,-0.5712220072746277,-0.04343422129750252,0.003338516689836979,-0.199835866689682,-0.1065896525979042,-0.17985635995864868,-0.19733308255672455,0.01922030933201313,-0.5672211647033691,-0.06817083060741425,0.1917663961648941,-0.07203302532434464,0.01438057515770197,-0.12389063835144043,0.02809695526957512,0.014498432166874409,-0.027914831414818764,-0.09630509465932846,0.025389965623617172,-0.14591346681118011,-0.3368566334247589,-0.12322185188531876,-0.38821136951446533,-1.2142432928085327,-1.1121739149093628,-0.7213314771652222,-0.4546571671962738,-0.4805128276348114,-0.07236433774232864,-0.5043655037879944,-0.06449102610349655,-0.06579461693763733,-0.1922072172164917,-0.3792433440685272,-0.3348750174045563,-0.1940472573041916,-0.18006576597690582,-0.049944110214710236,0.198214590549469,-0.19561761617660522,0.011681490577757359,0.07926660776138306,0.007434067316353321,0.06019633263349533,0.025900986045598984,-0.12366129457950592,0.23630090057849884,-0.022142861038446426,-0.07655755430459976,0.09826897829771042,0.20142528414726257,1.1005131006240845,0.5239813923835754,0.30442196130752563,-0.00015220275963656604,0.07945477962493896,0.011537162587046623,0.17559076845645905,0.15539175271987915,0.01894751377403736,0.05843599513173103,-0.16417714953422546,-0.30926865339279175,-0.4749879240989685,0.3043105900287628,0.08469527214765549,-0.0783887580037117,0.16256707906723022,0.09354522824287415,0.19076217710971832,0.03367742523550987,0.0037852730602025986,-0.115488201379776,-0.022309724241495132,0.024200569838285446,0.10007584095001221,-0.21950508654117584,0.4569266438484192,0.438517689704895,0.8031530380249023,0.9112660884857178,0.9879531264305115,0.6779542565345764,-0.05062665045261383,-0.0315108485519886,-0.24643126130104065,-0.47668832540512085,-0.538792610168457,-0.7109667062759399,-0.857856810092926,-0.4088900685310364,-0.17203818261623383,-0.08255916088819504,-0.13071879744529724,-0.21051526069641113,-0.0599093958735466,-0.013508783653378487,-0.013172370381653309,-0.008121658116579056,0.04028909653425217,-0.02254827320575714,-0.15020060539245605,0.10668662190437317,0.3745775520801544,0.31056299805641174,0.5533987879753113,0.5262019634246826,0.540276288986206,0.4465572237968445,0.8440307974815369,0.2877432703971863,0.9030296206474304,0.6670233011245728,-0.11390235275030136,-0.22357073426246643,-0.4879133999347687,-0.6078238487243652,-0.5409140586853027,-0.4462316334247589,-0.2646453380584717,0.08825056254863739,-0.058037955313920975,-0.164735347032547,-0.012227022089064121,0.07206138223409653,0.19999466836452484,-0.1957188844680786,-0.06779515743255615,-0.06896166503429413,-0.0421503446996212,0.2246779501438141,0.14051981270313263,0.45522642135620117,0.37569209933280945,0.09170790761709213,0.3367908000946045,0.29834234714508057,0.029833056032657623,-0.1817229986190796,0.20655658841133118,-0.0726422369480133,-0.040730271488428116,0.20577922463417053,-0.014827330596745014,-0.2615108788013458,-0.595658540725708,-0.43006327748298645,-0.008439241908490658,-0.06684446334838867,0.24091780185699463,-0.02869451977312565,0.15710146725177765,-0.06694345921278,-0.0013798348372802138,0.1372181475162506,-0.0029788571409881115,-0.16602526605129242,0.16386328637599945,-0.016594190150499344,0.24852271378040314,0.11504887044429779,0.1592542678117752,0.5132920145988464,0.6038976311683655,0.47279444336891174,0.6058875918388367,-0.008206099271774292,0.3608892261981964,0.554961621761322,0.178423672914505,0.4063883423805237,-0.04482366517186165,0.4999006390571594,0.29728183150291443,-0.08456636220216751,0.0033456655219197273,0.0470593124628067,-0.11285316944122314,0.2026471346616745,0.07645665854215622,0.15528801083564758,-0.1118825227022171,-0.16138336062431335,0.17547625303268433,0.15559998154640198,-0.1798345446586609,0.20255827903747559,-0.18633143603801727,0.18355846405029297,0.10469624400138855,-0.03932126611471176,0.311139851808548,0.3537496328353882,0.31161776185035706,-0.011623688973486423,0.04495661333203316,0.15798841416835785,-0.09274951368570328,0.35941195487976074,0.04176166653633118,-0.013069690205156803,0.11660148203372955,-0.1864592730998993,0.08463849127292633,-0.10971586406230927,0.1867588758468628,0.03624965250492096,0.06425007432699203,0.1460336595773697,0.13148759305477142,0.12765030562877655,-0.13046763837337494,-0.04373170807957649,-0.12721532583236694,0.05458659678697586,-0.16306275129318237,-0.06984979659318924,0.10909467935562134,0.18490128219127655,0.09135612845420837,0.09706342220306396,0.06746750324964523,0.04628458619117737,0.10124965757131577,-0.045546602457761765,0.06822522729635239,-0.1301051527261734,-0.16234171390533447,0.05062055215239525,0.037797316908836365,0.04373539984226227,0.08821344375610352,0.08016572892665863,0.17199186980724335,-0.10369594395160675,-0.11586857587099075,0.03196309134364128,0.01772356778383255],[0.11393565684556961,-0.04317554831504822,-0.02121158316731453,0.05314401164650917,0.18310780823230743,-0.012294617481529713,0.1244339570403099,-0.05879097431898117,-0.1835605800151825,0.013653556816279888,-0.03887639567255974,-0.17863202095031738,0.037229012697935104,-0.07397440820932388,-0.00799110159277916,-0.1421063393354416,0.12964178621768951,-0.008881604298949242,-0.18625085055828094,-0.023943806067109108,0.13529056310653687,0.1613391935825348,-0.009590755216777325,0.05109931156039238,-0.013618389144539833,0.19023390114307404,-0.16919685900211334,-0.020615167915821075,0.12097738683223724,0.07469864189624786,-0.18369796872138977,0.0992836058139801,0.1189262643456459,-0.0020865893457084894,-0.15078522264957428,-0.09205048531293869,-0.07057380676269531,-0.01698414795100689,-0.2124965339899063,0.006799418479204178,-0.12144245952367783,0.041030824184417725,-0.009997140616178513,0.013640105724334717,-0.13989517092704773,0.03184894844889641,0.07939478754997253,-0.036946263164281845,0.06728909909725189,-0.22643767297267914,0.04791632667183876,-0.027741050347685814,-0.02673160471022129,0.06587017327547073,-0.08753812313079834,0.04505793750286102,-0.0021106889471411705,-0.12831617891788483,0.07540477812290192,0.01581159047782421,0.10281028598546982,-0.07487630099058151,0.11631086468696594,-0.018066048622131348,-0.2825559973716736,-0.12341409921646118,-0.2319602072238922,0.07064241170883179,-0.37171638011932373,-0.02031504549086094,-0.06338383257389069,-0.2305515706539154,-0.18085625767707825,0.13163526356220245,-0.0752817913889885,-0.03617953136563301,-0.21107646822929382,-0.1425473690032959,-0.09579204767942429,0.16930465400218964,-0.06799676269292831,-0.12806478142738342,-0.11667869985103607,0.11089491099119186,-0.07698021829128265,-0.15910708904266357,-0.13180549442768097,-0.16959810256958008,0.09935782104730606,-0.0596163384616375,0.10924307256937027,-0.24328379333019257,-0.07845102995634079,-0.18556244671344757,-0.3420650064945221,-0.16131141781806946,-0.1456291228532791,-0.2746720314025879,-0.3078785538673401,0.14140985906124115,0.14387142658233643,0.257646381855011,0.3034840226173401,-0.06802087277173996,-0.12527069449424744,-0.1562219113111496,-0.2053290158510208,-0.22010503709316254,-0.14982929825782776,-0.030748888850212097,-0.028062431141734123,-0.06151340529322624,-0.12423090636730194,-0.039475105702877045,-0.18851430714130402,-0.06273335218429565,0.20464780926704407,-0.22333574295043945,-0.17856957018375397,-0.19200152158737183,-0.2501036524772644,-0.5654601454734802,-0.28086400032043457,-0.13657261431217194,0.25681427121162415,0.35405561327934265,0.13037581741809845,-0.12108901143074036,-0.3731730282306671,-0.38456991314888,-0.05766497179865837,0.25917163491249084,-0.07869730144739151,-0.03991987556219101,-0.1183343157172203,0.0652046725153923,-0.0750182643532753,-0.03713217005133629,-0.06108832359313965,0.02731536142528057,-0.03743917495012283,0.10410529375076294,-0.034018624573946,0.17076432704925537,-0.18752966821193695,-0.04860961064696312,0.15921273827552795,-0.019521726295351982,-0.3101579546928406,-0.2450261414051056,-0.1597050130367279,0.06914807111024857,-0.14840808510780334,-0.310445636510849,-0.29674720764160156,-0.3376169800758362,0.5795465707778931,0.039634186774492264,-0.4782455563545227,-0.2667804956436157,0.11352867633104324,0.039108630269765854,-0.19157283008098602,-0.07276730984449387,-0.12666825950145721,-0.21139173209667206,-0.1669742465019226,-0.10570558905601501,-0.05754707008600235,-0.17147596180438995,-0.12859123945236206,-0.006195415742695332,-0.15969106554985046,0.3291164040565491,-0.07282628864049911,0.09479203075170517,0.0362718440592289,0.11357475817203522,0.03846227005124092,-0.052871040999889374,-0.1956651210784912,0.12207502126693726,-0.3526856005191803,0.17457565665245056,0.259198397397995,-0.029176220297813416,-0.01201283186674118,0.07270067930221558,-0.06552547961473465,0.08552542328834534,0.080197274684906,0.3598249852657318,0.05210573598742485,0.16351747512817383,-0.18688911199569702,-0.09328138828277588,0.19493339955806732,0.02385788969695568,0.017583079636096954,-0.13565443456172943,-0.003651779145002365,0.2749147415161133,0.3077360689640045,0.1509936898946762,-0.16524457931518555,-0.10033199936151505,0.02509857527911663,0.0007007848471403122,0.07161562889814377,0.1177661120891571,0.07492014765739441,-0.2969774901866913,-0.09116227924823761,-0.12946151196956635,0.33174824714660645,-0.08619309961795807,0.09632998704910278,-0.15184009075164795,-0.007909989915788174,0.0057813189923763275,0.12513335049152374,-0.2573602795600891,-0.0897911787033081,-0.040503907948732376,-0.1764858216047287,-0.1291189342737198,-0.19726167619228363,0.03746035322546959,0.12635652720928192,0.0635753646492958,-0.09294424951076508,-0.10358698666095734,-0.8733127117156982,-0.34224769473075867,-0.28625860810279846,-0.6422896385192871,0.005867491010576487,0.09191768616437912,-0.7743543982505798,0.25165578722953796,0.33845698833465576,0.6961080431938171,0.42939329147338867,-0.07407236099243164,0.29322293400764465,-0.27873507142066956,0.05726149305701256,0.12585856020450592,-0.07737540453672409,0.07627438008785248,0.1028161346912384,-0.19970618188381195,-0.19635631144046783,-0.05973866581916809,0.17603011429309845,0.08740373700857162,0.07630026340484619,-0.07902881503105164,-0.31883883476257324,-0.7374469041824341,-0.6206105351448059,-0.2010027915239334,-0.4348233640193939,-0.47066208720207214,0.08686443418264389,-0.6393645405769348,-0.5697187185287476,-0.18039514124393463,0.3505130410194397,0.31177818775177,0.2203279733657837,-0.19165627658367157,-0.017197445034980774,-0.06279069930315018,-0.07057151943445206,-0.16482499241828918,-0.07768770307302475,0.0015540043823421001,-0.17589353024959564,0.14020191133022308,-0.1955026537179947,0.0837256908416748,-0.08817218244075775,-0.18496054410934448,-0.1727372407913208,-0.6122840046882629,-0.8755846619606018,-0.7253429293632507,-0.8897345662117004,-0.30398789048194885,-0.5252258777618408,-0.12493710964918137,-0.37669670581817627,-0.38821402192115784,-0.5216348171234131,-0.2568973898887634,-0.26946380734443665,-0.2408461570739746,0.4374423623085022,-0.42505815625190735,-0.006901342887431383,0.09495168179273605,-0.126829594373703,-0.16667458415031433,-0.08484137058258057,-0.004306396935135126,0.14320416748523712,0.19354943931102753,-0.08874733746051788,0.10999741405248642,-0.16418494284152985,-0.23915165662765503,-0.07992244511842728,-0.47898805141448975,-0.5718604922294617,-0.7858923673629761,-0.779699981212616,-1.1983904838562012,-0.9292693734169006,-1.1892110109329224,-1.4950991868972778,-0.7733255624771118,-1.0031124353408813,-0.5734317302703857,-0.4374833106994629,0.2039782702922821,0.56601881980896,0.18417949974536896,0.09731586277484894,-0.07954694330692291,0.14520105719566345,-0.061360519379377365,0.08056826144456863,0.12297169864177704,-0.13289350271224976,0.02976708486676216,-0.0763154998421669,0.07542593032121658,-0.10013242810964584,0.02156839519739151,-0.3842144012451172,-0.5411106944084167,-0.49679023027420044,-0.45818713307380676,-1.0270311832427979,-1.0735218524932861,-1.2820971012115479,-0.592216432094574,-0.13394629955291748,0.025785688310861588,-0.28498876094818115,0.17562463879585266,-0.4036443531513214,-0.6064096689224243,0.2800028622150421,0.6150370836257935,-0.28466659784317017,-0.06899163872003555,-0.049320563673973083,-0.22343872487545013,-0.2644699513912201,0.03992009162902832,-0.004178971517831087,0.07284165173768997,-0.17481933534145355,-0.08460624516010284,-0.05269130691885948,-0.18159601092338562,-0.0692933052778244,-0.3436407744884491,0.02245355397462845,-0.45194363594055176,-0.1687621921300888,-0.3727625906467438,-0.28301963210105896,0.08302108198404312,0.37427639961242676,0.13510383665561676,-0.4084986448287964,-0.7063041925430298,-0.6121509075164795,-0.5630178451538086,0.39703911542892456,0.07950811088085175,-0.5837535262107849,-0.05663325637578964,-0.1346408873796463,-0.37030354142189026,-0.2727830410003662,0.03208601102232933,-0.036328624933958054,0.05593353137373924,0.1235390231013298,-0.13710463047027588,0.1579868197441101,-0.048120517283678055,0.012097622267901897,0.29136982560157776,0.35586053133010864,0.47853025794029236,0.07837650924921036,-0.3686641752719879,-0.0734914168715477,-0.34291380643844604,0.2654758095741272,-0.0019504273077473044,0.09597660601139069,-0.6143413186073303,-0.45357847213745117,-0.6105387806892395,-0.4223516881465912,-0.4685293138027191,-0.3185124695301056,-0.07423912733793259,-0.2947908937931061,-0.32400810718536377,0.11522706598043442,-0.12010542303323746,0.003106481861323118,-0.00881183985620737,-0.12378577142953873,-0.006594913080334663,-0.03559889271855354,-0.04904130473732948,0.27442386746406555,0.6001801490783691,0.7969223260879517,0.6559129357337952,0.6660121083259583,0.48253363370895386,0.23944631218910217,-0.6749709844589233,0.09853649139404297,0.006951857358217239,0.05508984252810478,-0.6667801737785339,0.1985510140657425,0.030744478106498718,-0.19889943301677704,-0.09206655621528625,-0.009140955284237862,-0.14630740880966187,0.18715403974056244,0.003549466375261545,0.20752425491809845,-0.0522882342338562,-0.12259411066770554,-0.18385224044322968,0.11489666998386383,-0.13093037903308868,0.1850626915693283,0.03278878331184387,0.2491026371717453,0.33005136251449585,0.43778911232948303,1.0113950967788696,1.1072323322296143,0.8145284056663513,0.4973762333393097,0.3071102201938629,0.2804030179977417,0.20352792739868164,0.08752771466970444,0.30266430974006653,0.4233386814594269,0.4913320541381836,0.39123839139938354,0.45273423194885254,0.3689848780632019,0.5220504403114319,0.20993904769420624,0.1625405251979828,-0.13379360735416412,-0.12455343455076218,-0.08613396435976028,-0.026943236589431763,0.006520741153508425,0.069019615650177,0.029619278386235237,0.40007105469703674,0.7364649772644043,0.46081656217575073,0.3586425483226776,1.4336822032928467,0.8614162802696228,0.46484866738319397,0.49087509512901306,0.9568716287612915,0.6814963221549988,0.6692555546760559,0.6211647987365723,0.8136124610900879,0.6199384927749634,0.8444138765335083,0.9559465646743774,0.47365543246269226,0.030977541580796242,-0.14208121597766876,-0.12582360208034515,-0.2744678854942322,0.056019239127635956,-0.10968596488237381,-0.03120296448469162,-0.019916903227567673,0.17543086409568787,0.13282577693462372,-0.13340365886688232,0.15054824948310852,0.6234819889068604,0.4910910129547119,-0.07139113545417786,0.7793774008750916,0.27417996525764465,0.5152714252471924,0.09179262071847916,-0.31102344393730164,-0.8850187063217163,-0.35537439584732056,0.4467921853065491,0.36911967396736145,0.29424920678138733,0.26763400435447693,0.3964158296585083,-0.09549044072628021,-0.5375943183898926,-0.2270011305809021,-0.3807082772254944,-0.18488286435604095,-0.2821492850780487,-0.138555645942688,0.07988430559635162,-0.16649052500724792,-0.0862673819065094,-0.08216223120689392,0.1351412981748581,0.21899400651454926,0.44836512207984924,0.048570647835731506,0.08029232174158096,0.08880960196256638,-0.4910927414894104,-0.09838473051786423,-0.4403391480445862,-1.133567452430725,-1.3110928535461426,-1.173017978668213,-0.043091949075460434,-0.03856158256530762,0.4166029691696167,0.6017147898674011,0.41028428077697754,-0.01853831112384796,-0.08519209176301956,-0.04342684522271156,-0.6313121318817139,-0.07522924989461899,-0.1272101104259491,0.15065304934978485,0.009831493720412254,0.11383149772882462,0.1709686517715454,0.1163303330540657,0.17011235654354095,0.1112445518374443,0.3352832496166229,0.4994470775127411,-0.07035575062036514,-0.07278194278478622,-0.9770287275314331,-0.9533249139785767,-0.9869986176490784,-1.0699318647384644,-1.0914791822433472,-0.6143333911895752,0.2138274610042572,0.474327951669693,0.22485364973545074,0.5609445571899414,0.4373272955417633,0.05429253727197647,0.13362087309360504,0.1634647399187088,-0.34344279766082764,-0.18238453567028046,-0.10151314735412598,-0.18418163061141968,-0.005731037352234125,-0.0007081983494572341,-0.11396431177854538,-0.017143143340945244,0.1591929942369461,0.20499518513679504,0.1573268175125122,-0.20335647463798523,-0.30798760056495667,-0.09511996060609818,-0.30675435066223145,-1.140154480934143,-1.141562581062317,-0.7324503064155579,-0.7855839133262634,-0.09059019386768341,-0.22411778569221497,0.32902294397354126,0.5276167988777161,0.2986108660697937,-0.11549797654151917,-0.11185961961746216,-0.0384531244635582,0.1614173948764801,0.20771563053131104,0.19087743759155273,0.05801857262849808,-0.05834081023931503,-0.005242280196398497,0.14428938925266266,-0.13923533260822296,-0.14239627122879028,0.0005590292275883257,0.17589150369167328,0.25828394293785095,-0.12666277587413788,-0.34926751255989075,-0.5976176857948303,-0.23764356970787048,-0.4416861832141876,-0.5580634474754333,-0.514517068862915,-0.0011268341913819313,-0.44640210270881653,-0.08334297686815262,0.13854816555976868,0.3557690382003784,-0.14557550847530365,-0.11374572664499283,-0.5250637531280518,-0.3248806893825531,0.02158564142882824,-0.17459388077259064,0.08185239881277084,0.23907332122325897,0.015707043930888176,-0.18941909074783325,0.10845376551151276,-0.1545858383178711,-0.09951870143413544,0.08718529343605042,-0.03581691160798073,-0.0646200180053711,-0.2570834755897522,0.1049266904592514,0.005935893394052982,-0.13467282056808472,-0.6688544154167175,-0.712626039981842,0.06379596889019012,-0.4628308117389679,-0.1372443437576294,-0.36961859464645386,0.3950663208961487,-0.05173880234360695,-0.37755224108695984,-0.07896335422992706,-0.3168204128742218,-0.13648128509521484,-0.23318713903427124,-0.0937696173787117,0.10284112393856049,0.02160865254700184,-0.09308254718780518,-0.17094965279102325,0.13603976368904114,0.06216194108128548,0.1997697651386261,-0.07082130014896393,-0.09961026161909103,-0.05102050304412842,-0.1171012595295906,0.03402821347117424,-0.09846442192792892,-0.2774185538291931,0.15579165518283844,-0.10999132692813873,0.6836718916893005,0.09803343564271927,0.2183734029531479,-0.13783317804336548,-0.07884582132101059,-0.4197743833065033,-0.2802961766719818,0.022668492048978806,0.17465214431285858,-0.1583544909954071,0.0029540567193180323,-0.06903085857629776,0.07966112345457077,0.10164254158735275,-0.07501121610403061,0.11995287984609604,0.1594313383102417,-0.06511719524860382,0.04985061660408974,-0.14205527305603027,-0.04966283217072487,-0.19580119848251343,0.043933719396591187,0.08995746821165085,-0.09625320136547089,0.2062188684940338,0.23177553713321686,0.22478659451007843,0.054180365055799484,0.28556641936302185,-0.11781293898820877,-0.09254417568445206,-0.010990212671458721,-0.2898251712322235,-0.26969796419143677,0.04650166630744934,0.0035481590311974287,-0.14958783984184265,0.05116640776395798,0.042346712201833725,-0.15896449983119965,-0.10983725637197495,0.18057389557361603,0.16294308006763458,0.1813175231218338,0.10400180518627167,-0.18227313458919525,0.18020358681678772,0.041374560445547104,-0.059719864279031754,0.027676144614815712,0.015524783171713352,0.1602938324213028,0.04152144864201546,0.14910057187080383,-0.14556998014450073,-0.2242383360862732,-0.13491225242614746,-0.1643034666776657,0.08102735877037048,-0.47313109040260315,-0.30833491683006287,-0.25232580304145813,-0.0492950938642025,-0.290378600358963,-0.20027104020118713,0.0898643359541893,-0.10682100802659988,-0.10299484431743622,-0.14010575413703918,-0.08455175161361694,-0.15669767558574677,-0.08911576122045517,-0.1306277960538864,-0.04291147738695145,0.0045112986117601395,-0.0861387848854065,0.08112151175737381,0.09444638341665268,0.027802731841802597,-0.023464825004339218,-0.05783665552735329,0.1465611755847931,-0.05546007677912712,-0.10857431590557098,0.16128386557102203,-0.20512604713439941,0.15803910791873932,-0.09811604022979736,0.04430842027068138,0.10399341583251953,0.12883375585079193,0.16395610570907593,-0.08660911023616791,0.04603317379951477,-0.037207771092653275,-0.09698665887117386,0.07053010165691376,-0.03917562589049339,-0.08817780017852783,-0.1229357197880745],[0.03883343189954758,0.03578966483473778,0.15317392349243164,0.07947219908237457,0.1902419477701187,0.16713231801986694,-0.10355815291404724,-0.14346753060817719,0.06764253228902817,-0.17581775784492493,-0.17812186479568481,0.01630547270178795,0.18151943385601044,0.04391271248459816,-0.010826698504388332,0.023483244702219963,0.1683131754398346,0.05469554662704468,0.18104074895381927,0.17691834270954132,0.02853401005268097,-0.1487649381160736,0.07345838844776154,-0.09608589112758636,0.12741819024085999,-0.04589248076081276,0.12280509620904922,-0.08617573231458664,0.16922004520893097,0.06534543633460999,0.12127454578876495,0.18902404606342316,-0.019079385325312614,-0.107224240899086,0.1903781294822693,0.03182581812143326,0.003435558872297406,0.13037127256393433,0.03750937804579735,0.12133041024208069,-0.10150540620088577,0.09336486458778381,0.08669672906398773,-0.19141614437103271,-0.05733560398221016,-0.15968208014965057,-0.18995726108551025,-0.055709127336740494,0.060286376625299454,-0.19014018774032593,-0.0592988021671772,-0.00933336466550827,-0.0774863064289093,-0.18710850179195404,-0.05843586474657059,0.15190933644771576,0.18384157121181488,0.02833082713186741,0.08315151929855347,-0.009480602107942104,-0.1328820288181305,0.1452314704656601,0.09801843762397766,-0.11398963630199432,-0.12930414080619812,-0.07262033969163895,0.013913149945437908,0.03568805009126663,-0.14390625059604645,0.044081076979637146,0.019099855795502663,-0.21187464892864227,-0.310623437166214,-0.1871049553155899,0.028762608766555786,0.050377048552036285,0.014270894229412079,-0.050648484379053116,0.14202997088432312,0.013430707156658173,0.10866878926753998,-0.1862136721611023,-0.0002649453526828438,0.12854646146297455,0.17458412051200867,0.023945793509483337,-0.19463828206062317,-0.11282797902822495,0.11505560576915741,-0.020924856886267662,0.06748996675014496,0.07164546847343445,-0.06652461737394333,-0.1444622427225113,-0.22711335122585297,0.08525636047124863,-0.21600815653800964,-0.23602581024169922,-0.3565778434276581,-0.7409155964851379,-0.23369212448596954,-0.3362172842025757,-0.0832672119140625,0.13621075451374054,0.022190619260072708,0.02301185019314289,0.05187017470598221,-0.2523367702960968,-0.18483470380306244,0.0993371456861496,-0.14654141664505005,0.09336376935243607,0.08941160142421722,0.09260519593954086,-0.15433740615844727,0.11013762652873993,0.07831025868654251,-0.12490643560886383,-0.10795129835605621,0.1708194613456726,0.08882992714643478,-0.03260073810815811,-0.17845049500465393,-0.3159635663032532,-0.09717556834220886,-0.37085628509521484,-0.6154957413673401,-0.9651920199394226,-0.5907301902770996,-0.46483761072158813,-0.19408060610294342,0.20641076564788818,0.03704631328582764,0.004315072204917669,-0.041707828640937805,0.02896842546761036,0.1963178664445877,-0.0823139175772667,0.11301467567682266,-0.03934064880013466,0.19155822694301605,0.08232880383729935,-0.09808191657066345,0.02809358388185501,0.038341302424669266,-0.06371293216943741,0.22539004683494568,0.12309323251247406,-0.16465874016284943,-0.2191883772611618,-0.05571020394563675,0.16380393505096436,-0.22817841172218323,0.11905217915773392,-0.44535452127456665,-0.7078830599784851,-1.0537000894546509,-1.297074794769287,-0.5461813807487488,-0.37475860118865967,-0.25349077582359314,0.08999260514974594,0.2171388864517212,0.3477556109428406,0.2319013923406601,0.1334291398525238,-0.021559977903962135,0.09650825709104538,0.037847504019737244,-0.019337018951773643,-0.06013796478509903,-0.03748456761240959,-0.10319758951663971,0.0678100511431694,-0.2550998628139496,0.19727414846420288,0.21301360428333282,0.1502174437046051,0.10740938782691956,0.30553892254829407,0.3359634578227997,0.09173046052455902,-0.2984369993209839,-0.6608873009681702,-2.084552049636841,-2.0630431175231934,-1.6198309659957886,-0.5076770782470703,-0.6011768579483032,0.310342937707901,0.8428524136543274,0.6581597924232483,0.10309157520532608,0.2894675135612488,0.24833571910858154,0.17523370683193207,0.00768860150128603,-0.11680325120687485,0.19621913135051727,0.07557932287454605,0.1374729871749878,0.07257132232189178,-0.08482848107814789,-0.036697354167699814,-0.19194138050079346,0.1174260750412941,0.006351633463054895,0.38040903210639954,0.28051134943962097,0.5977870225906372,-0.016895830631256104,-1.5793249607086182,-1.9734172821044922,-1.7745107412338257,-1.2486742734909058,-0.8402504324913025,-0.7308424711227417,0.6313105225563049,0.7810465693473816,0.7470617890357971,0.32092776894569397,0.25312352180480957,-0.05643508955836296,-0.14364919066429138,-0.13783444464206696,0.08217763900756836,0.13536697626113892,0.07125165313482285,0.332326203584671,-0.11367788910865784,-0.14635637402534485,0.08484060317277908,-0.08403254300355911,-0.08474612236022949,-0.20688515901565552,0.08325174450874329,0.5786628723144531,0.6667816638946533,-0.2441864013671875,-1.0084164142608643,-2.818559169769287,-1.6859983205795288,-0.4993816316127777,-0.1417352855205536,0.10824088007211685,0.5861875414848328,0.5838894248008728,0.5854129195213318,0.4819768965244293,0.295043021440506,0.2486696094274521,-0.13931810855865479,0.1141490489244461,-0.1764787882566452,0.1361919790506363,0.15747663378715515,-0.04929167777299881,0.020209262147545815,-0.06291324645280838,-0.3631477355957031,-0.36459270119667053,0.24899475276470184,-0.4058381915092468,0.6425225138664246,0.5206054449081421,0.7705035209655762,0.22178027033805847,-1.773918867111206,-1.0967121124267578,-0.17803838849067688,1.0454779863357544,0.5324157476425171,0.7158661484718323,0.7378352880477905,0.758091926574707,0.6556658744812012,0.13067090511322021,0.3634837865829468,0.0038253837265074253,0.12628746032714844,-0.17981795966625214,-0.06548555940389633,-0.15731918811798096,0.22550110518932343,-0.13510584831237793,-0.4052726924419403,-0.41035890579223633,-0.3657749891281128,-0.5184761881828308,-0.6309085488319397,-0.4103887677192688,1.2069016695022583,0.7181004285812378,1.1404398679733276,-0.7279841303825378,-0.7049334645271301,-0.7747418284416199,0.5628232955932617,1.526845097541809,0.6254022121429443,0.34684261679649353,0.5832123160362244,0.4954608976840973,0.23263797163963318,-0.16070356965065002,0.28027981519699097,0.20687024295330048,-0.05160342901945114,-0.05647311732172966,0.12415854632854462,0.03585964813828468,-0.15803645551204681,0.026295194402337074,-0.427756667137146,-0.2580203711986542,-0.09359737485647202,-0.09000939875841141,-0.6160578727722168,0.19583189487457275,-0.2715652585029602,0.5783700346946716,0.7065696120262146,-1.0473506450653076,-1.4040071964263916,-0.926979124546051,-0.3905606269836426,0.5373871326446533,-0.011667335405945778,-0.2382223904132843,0.04168778657913208,-0.23009812831878662,-0.2439396232366562,0.12959370017051697,0.015385673381388187,-0.21916869282722473,-0.04247914254665375,0.036256738007068634,0.00044282045564614236,-0.1371215283870697,-0.25898298621177673,-0.10667457431554794,-0.370886892080307,-0.1988898366689682,0.23209136724472046,-0.20083051919937134,-0.30508047342300415,-0.16277728974819183,1.341739296913147,1.5560822486877441,0.11438994854688644,-0.5350881814956665,-1.6505398750305176,-1.0923858880996704,0.20077933371067047,-0.37779271602630615,-0.7535842061042786,-0.47685399651527405,-0.6168410778045654,-0.8251367211341858,-0.7123795747756958,-0.2293279618024826,0.0211569145321846,-0.12827280163764954,-0.1202511340379715,-0.15454968810081482,0.12067575007677078,0.10896910727024078,0.013190525583922863,-0.16532552242279053,-0.27128204703330994,0.22922705113887787,0.366586297750473,0.6592908501625061,0.043622296303510666,0.30060145258903503,0.6666892766952515,0.4820559322834015,-0.11080833524465561,-0.5227315425872803,-0.8212403059005737,-0.3100171983242035,0.003318183124065399,-0.2647242546081543,-0.5754280090332031,-0.5721873044967651,-0.5135067701339722,-0.506693422794342,-0.7115331292152405,-0.30778786540031433,0.1424647569656372,0.1418253630399704,0.10050960630178452,0.02235572785139084,-0.16602148115634918,-0.17559491097927094,0.1087666004896164,0.09072764217853546,0.09899307042360306,0.7707872986793518,0.23810535669326782,0.5138239860534668,0.6545217633247375,0.47040703892707825,0.39627060294151306,0.6464192867279053,0.12054024636745453,-0.938188910484314,-0.5748650431632996,-1.0646967887878418,0.9409780502319336,0.03934374451637268,0.11850246042013168,-0.08510924130678177,-0.40313926339149475,-0.316217303276062,-0.18573372066020966,-0.17639656364917755,-0.050635602325201035,0.10035670548677444,-0.19324681162834167,0.12059927731752396,0.2030731439590454,-0.1028706431388855,-0.11572781205177307,0.10182233899831772,-0.010849333368241787,0.15753109753131866,0.812435507774353,0.9098986387252808,0.2551667094230652,0.23909465968608856,-0.23923537135124207,-0.1713995784521103,-0.0077291070483624935,-0.30068153142929077,0.09646553546190262,0.09841576963663101,0.9136473536491394,-0.11988215893507004,-0.716049075126648,-0.8749252557754517,-0.14042790234088898,-0.3561426103115082,-0.2057521641254425,-0.2559071481227875,-0.20323745906352997,0.08188235014677048,-0.11403614282608032,0.18680688738822937,0.03441590815782547,-0.16294975578784943,0.012420508079230785,0.2276972532272339,-0.2248128056526184,-0.1237650215625763,0.7576846480369568,0.8848851919174194,-0.11639097332954407,-0.6910462975502014,-0.35983628034591675,-0.026754014194011688,-0.1655709445476532,0.16882506012916565,-0.3844197392463684,0.08533450216054916,0.06865096092224121,-0.19760268926620483,-0.3571835160255432,0.24180154502391815,0.11648718267679214,-0.27683842182159424,-0.3049205541610718,-0.3302471935749054,-0.23269307613372803,-0.1983347088098526,-0.1478855013847351,-0.13260644674301147,0.061619408428668976,0.06533104926347733,0.0938178300857544,-0.13450290262699127,-0.014557602815330029,0.3374307155609131,0.43209776282310486,0.4721529185771942,-0.1813841462135315,-0.6079455018043518,-0.5089684128761292,-0.28115221858024597,0.866827130317688,0.7170698642730713,0.49294570088386536,0.5807538628578186,0.30819499492645264,0.0004911840078420937,-0.2857300341129303,0.08695878088474274,0.012947844341397285,-0.5722761154174805,-0.08599499613046646,-0.05892208591103554,0.10514303296804428,0.07507824897766113,0.1800428330898285,-0.0956990048289299,0.10310237109661102,-0.020835112780332565,0.13279284536838531,-0.059763871133327484,-0.46490252017974854,-0.2890457212924957,0.37766188383102417,0.25595366954803467,0.11205761134624481,0.14435535669326782,0.23638267815113068,0.20543253421783447,0.05671115964651108,-0.19761160016059875,0.48721879720687866,-0.20920102298259735,-0.30524885654449463,0.03526327386498451,0.16377957165241241,-0.26447731256484985,-0.3838728368282318,-0.29703599214553833,-0.024954969063401222,-0.26592645049095154,-0.09853742271661758,-0.1736091673374176,-0.08185537904500961,-0.07489494979381561,0.03368833288550377,0.016623398289084435,0.2556304633617401,0.1860761195421219,-0.3804084360599518,-0.6626616716384888,-0.3941861391067505,-0.24358363449573517,-0.1615121066570282,0.09282543510198593,-0.6147797107696533,-0.5954011678695679,0.3259323835372925,0.019886916503310204,-0.0023437393829226494,-0.17857591807842255,-0.1741136610507965,-0.5433810949325562,-0.1607150137424469,-0.11770936846733093,-0.3375617563724518,-0.07124201953411102,0.01624350994825363,-0.11849011480808258,0.18937811255455017,0.09280814230442047,0.06372923403978348,-0.15018168091773987,0.018364345654845238,0.14956305921077728,-0.1311279535293579,-0.2738382816314697,-0.46307888627052307,-0.5376490950584412,-0.4219234585762024,-0.550307035446167,-0.25965964794158936,-0.5457223653793335,-0.33892276883125305,0.21931666135787964,0.17336590588092804,-0.5670944452285767,-0.14679259061813354,-0.027923598885536194,-0.13949744403362274,-0.21500487625598907,-0.28914380073547363,0.03846204653382301,0.1582055538892746,-0.26042285561561584,-0.3319084048271179,0.11611194163560867,0.04733538627624512,0.19045697152614594,-0.1496439278125763,-0.1599542796611786,-0.15797433257102966,-0.12570463120937347,-0.19584721326828003,0.09318406879901886,-0.14071321487426758,-0.5658902525901794,-0.4912712275981903,-0.29481157660484314,-0.6419687867164612,-1.106077790260315,-0.8830517530441284,-0.12110702693462372,0.14213478565216064,-0.5365171432495117,-0.21673569083213806,-0.43998709321022034,-0.7036146521568298,-0.15725719928741455,0.1549101620912552,-0.014661964029073715,-0.1730172485113144,-0.06330814212560654,0.1733858585357666,0.031731244176626205,-0.012034288607537746,0.09918518364429474,0.14676308631896973,0.03140978515148163,-0.09048118442296982,-0.015390354208648205,0.14031679928302765,0.04697062820196152,-0.11224161088466644,-0.22139540314674377,-0.4704243838787079,0.1778111755847931,-0.21953803300857544,-0.04867793992161751,0.5442937612533569,0.537290096282959,-0.11717506498098373,-0.10431817919015884,-0.3064204752445221,-0.42508310079574585,-0.44639772176742554,0.11217547953128815,0.36882081627845764,0.07065500319004059,-0.03367886319756508,-0.16509707272052765,-0.019289612770080566,0.060033779591321945,-0.13336148858070374,-0.15499208867549896,0.19976486265659332,-0.032455943524837494,0.02836017683148384,-0.12882977724075317,0.029040919616818428,0.14360809326171875,0.12170805037021637,0.1642541140317917,-0.07782109081745148,0.10945095121860504,0.4019545912742615,0.01276625506579876,0.4652285873889923,0.5377967357635498,0.20435087382793427,0.053990479558706284,-0.1359657347202301,-0.4270285665988922,-0.12655098736286163,-0.12345997989177704,0.1497601419687271,0.22077985107898712,-0.28714248538017273,-0.09290394932031631,0.09885264188051224,0.11064152419567108,0.107408307492733,0.12146447598934174,-0.031200818717479706,-0.081317238509655,0.08691290020942688,-0.09581673890352249,0.17722727358341217,-0.05853930115699768,0.009649818763136864,-0.0033452531788498163,-0.31516239047050476,0.07633478194475174,-0.0718269795179367,-0.22714953124523163,0.28576481342315674,0.2945949137210846,0.31966283917427063,-0.04863531142473221,-0.3399760127067566,-0.9015379548072815,-0.23728090524673462,-0.5141807198524475,-0.023660218343138695,-0.3060202896595001,0.13559849560260773,0.10909871757030487,-0.05729999020695686,0.18366900086402893,0.13736040890216827,-0.16113632917404175,0.10574221611022949,0.0057283565402030945,-0.16344541311264038,-0.1511787623167038,0.19042915105819702,-0.028486689552664757,-0.10905677080154419,0.1176687553524971,-0.5202652215957642,-0.6309120059013367,-0.5186486840248108,-0.5444990992546082,-0.07298847287893295,-0.29725179076194763,0.2368466705083847,-0.4143523573875427,-0.34239462018013,-0.49406471848487854,-0.3661467730998993,-0.630512535572052,-0.5359484553337097,-0.25582170486450195,-0.2420673966407776,-0.0013403566554188728,-0.1162213459610939,-0.10859163105487823,0.11268071085214615,0.18607015907764435,0.12635411322116852,-0.06381943821907043,0.16287080943584442,-0.10054104030132294,0.08384554088115692,-0.12640134990215302,0.0663725882768631,-0.04343315586447716,-0.018810583278536797,-0.3048759400844574,-0.21908321976661682,-0.34288251399993896,-0.1971408724784851,-0.4122201204299927,-0.20826373994350433,-0.06853310763835907,-0.1494211107492447,-0.18677879869937897,-0.21171121299266815,-0.24587512016296387,-0.4603245258331299,-0.3143973648548126,-0.11856735497713089,-0.07886922359466553,0.014185073785483837,0.1454247534275055,-0.03298576921224594,-0.12205831706523895,-0.10308940708637238,-0.009784914553165436,-0.14426644146442413,0.17283357679843903,-0.16209565103054047,0.15405593812465668,0.029949545860290527,0.16616077721118927,-0.22208024561405182,-0.0340665839612484,0.1923040747642517,-0.1655576080083847,0.04428263008594513,0.12769924104213715,-0.1500934213399887,-0.13182437419891357,0.008587995544075966,0.0644085630774498,0.08035508543252945,0.14553938806056976,-0.11410769075155258,0.10409518331289291,-0.02309466525912285,-0.1315796673297882,0.07008098810911179,-0.057887423783540726,0.18221063911914825,0.15840516984462738,0.0840722844004631],[0.1546551138162613,0.06517329066991806,0.11427590996026993,-0.049074698239564896,-0.026997242122888565,-0.1236252635717392,0.10209114849567413,-0.012052558362483978,-0.1067652478814125,-0.0902801975607872,0.01988339237868786,-0.10960769653320312,0.16785699129104614,-0.10133571922779083,0.03624717891216278,0.06762866675853729,-0.06324370205402374,-0.1263420134782791,0.16463874280452728,-0.00393306091427803,-0.0024475138634443283,-0.12679295241832733,0.18011334538459778,-0.03714520111680031,-0.034966472536325455,0.15988196432590485,0.11510630697011948,0.17694544792175293,0.04954131320118904,0.02368740551173687,-0.08348634839057922,0.0983569398522377,-0.18103714287281036,0.0712859183549881,-0.024720247834920883,-0.06758875399827957,0.09923795610666275,-0.15576869249343872,-0.12984409928321838,-0.09653474390506744,0.0016002191696316004,0.06446359306573868,0.010270618833601475,0.12148184329271317,0.13238830864429474,0.04626284912228584,-0.08856893330812454,-0.12147369235754013,0.1936243772506714,0.1907457560300827,-0.10776480287313461,0.03969113156199455,-0.13967064023017883,0.10327379405498505,-0.17719808220863342,0.05007755383849144,-0.11892510950565338,-0.18960106372833252,-0.15236352384090424,0.0033475211821496487,0.18240968883037567,-0.01214041467756033,0.15700380504131317,-0.056257035583257675,-0.07274675369262695,0.16453677415847778,0.0682319849729538,-0.042213987559080124,0.17747874557971954,-0.22098849713802338,-0.004658180754631758,0.07202383130788803,-0.11182954907417297,-0.07394677400588989,0.08406638354063034,-0.047078076750040054,-0.043316226452589035,-0.15856288373470306,-0.052027784287929535,-0.11939148604869843,0.08387874811887741,0.03355541452765465,0.11702832579612732,-0.06411661952733994,-0.17094995081424713,-0.14648497104644775,0.0544971264898777,0.17250855267047882,0.02679080329835415,0.08023729175329208,-0.16172201931476593,-0.04800522327423096,-0.07215635478496552,-0.21879345178604126,-0.24590006470680237,-0.49008139967918396,-0.437843918800354,-0.305325984954834,-0.10420805960893631,-0.209519624710083,0.1287681758403778,0.19508755207061768,-0.0021707022096961737,-0.21967720985412598,-0.2665358781814575,-0.29332205653190613,0.031123805791139603,-0.19566790759563446,-0.21125611662864685,-0.03859260678291321,-0.10489653050899506,-0.16782405972480774,0.05938699096441269,0.014319514855742455,-0.13656120002269745,-0.015680178999900818,-0.1303502470254898,-0.1276569664478302,0.1636660099029541,-0.15056516230106354,0.01604190655052662,-0.5130249857902527,-0.36780962347984314,-0.45663151144981384,-0.3470936715602875,-0.25774556398391724,-0.1646985113620758,-0.013054068200290203,-0.235488161444664,0.5327267050743103,0.27179989218711853,-0.009639193303883076,0.07490509748458862,-0.08758929371833801,-0.37324586510658264,-0.04711950570344925,-0.15960925817489624,-0.24713042378425598,0.17409060895442963,-0.005124829709529877,0.19441010057926178,-0.05835204944014549,0.09713626652956009,-0.03084254264831543,0.17174023389816284,-0.034459833055734634,-0.249977245926857,0.03428944572806358,-0.27669385075569153,-0.5670448541641235,-0.6977173686027527,-0.9682435989379883,-0.8010883331298828,-0.18875055015087128,-0.40867963433265686,-0.21016423404216766,0.0978122130036354,0.40407586097717285,-0.11443696171045303,0.24251903593540192,-0.11286140233278275,-0.14160460233688354,-0.04566071927547455,-0.4135473668575287,-0.3311416208744049,-0.21419517695903778,0.14231115579605103,-0.0033846888691186905,0.03501659259200096,0.04077031463384628,0.0037162310909479856,0.09548290818929672,0.22245731949806213,0.17647840082645416,-0.34806954860687256,-0.25783562660217285,-0.4615177512168884,-1.0240334272384644,-0.7713330984115601,-0.5523532032966614,-0.33864039182662964,-0.29014214873313904,-0.23054827749729156,-0.2592873275279999,-0.3600139915943146,-0.8467237949371338,-0.3000032901763916,-0.36162230372428894,-0.46136996150016785,-0.3052033483982086,-0.04877130687236786,-0.4442407190799713,-0.18594728410243988,-0.202041357755661,0.13811329007148743,0.016590667888522148,-0.026370275765657425,0.0906425192952156,-0.14821213483810425,0.18743759393692017,0.06126812845468521,0.2214023321866989,-0.12813948094844818,-0.07999556511640549,-0.7280057668685913,-0.7094096541404724,-0.28966277837753296,-0.6347804069519043,-0.33415329456329346,-0.3401894271373749,-0.6591119170188904,-0.7987720966339111,-0.3633621633052826,-0.5368733406066895,-0.3148721754550934,-0.42043060064315796,-0.29938873648643494,0.322844922542572,-0.5640100836753845,-0.6549268960952759,-0.03312898054718971,0.06639998406171799,-0.14833268523216248,0.08736037462949753,0.19312672317028046,-0.11421991884708405,-0.1696510910987854,-0.05995200201869011,0.36975693702697754,0.24940125644207,-0.026339013129472733,0.14956440031528473,-0.44111910462379456,-0.20475278794765472,-0.5820741653442383,-0.011348538100719452,-0.43070438504219055,-0.3261391222476959,-1.1779834032058716,-0.9024029970169067,-0.05931802839040756,0.2113245278596878,-0.23357228934764862,-0.4517934024333954,0.4022161662578583,0.46290871500968933,-0.1504577249288559,0.1854534149169922,-0.3464795649051666,-0.17600195109844208,-0.1308041661977768,-0.18790706992149353,0.09699782729148865,0.10117779672145844,0.2007768452167511,0.2782247066497803,0.25014397501945496,0.5428496599197388,0.07456517219543457,-0.0865677073597908,-0.579345703125,-0.20114290714263916,-0.1817123144865036,0.3326326012611389,0.03128524124622345,0.3290866017341614,-0.02242947369813919,0.06521879136562347,0.645168662071228,1.264615535736084,0.8091914057731628,1.2429513931274414,0.5011216998100281,0.277791827917099,0.48657652735710144,0.45340055227279663,0.3079380393028259,0.034714408218860626,-0.017114588990807533,-0.15897972881793976,-0.15933066606521606,0.10297814011573792,0.2086455225944519,0.1294877827167511,0.4236598014831543,0.33418986201286316,0.2878463864326477,-0.5207741260528564,0.1409962922334671,0.29599612951278687,1.6578112840652466,0.5784015655517578,0.42149534821510315,0.6339432001113892,0.7589062452316284,0.9384986162185669,0.908974826335907,1.9942282438278198,1.1375218629837036,1.0780655145645142,0.6587604284286499,1.1209168434143066,0.8494866490364075,0.7506553530693054,0.5591320395469666,0.4871973991394043,0.005582594778388739,-0.1472131907939911,-0.08891122788190842,-0.14839796721935272,0.2200370877981186,0.4918552041053772,0.621246337890625,-0.3076803684234619,0.25903820991516113,0.2825600504875183,-0.47585704922676086,0.6077139377593994,0.47897419333457947,0.9805032014846802,1.4406816959381104,0.25128820538520813,-0.06878882646560669,0.2435861974954605,0.02542251907289028,0.5895068049430847,1.2831279039382935,0.42354816198349,1.1329598426818848,0.5999087691307068,0.8564860224723816,-0.11977321654558182,0.4708053171634674,0.1667402982711792,-0.0072427657432854176,-0.016693180426955223,-0.09327347576618195,0.2034943699836731,-0.013786840252578259,0.37323370575904846,0.1689082831144333,-0.05081428959965706,0.8776015043258667,0.31452035903930664,-0.0741882175207138,-0.04365529119968414,0.5239696502685547,0.3062874972820282,-0.11227656155824661,-0.5198904871940613,-0.33399835228919983,-1.037861704826355,-0.251943975687027,-0.025465013459324837,0.27765169739723206,0.5586118698120117,-0.21676504611968994,0.05939546599984169,0.20047985017299652,0.19310402870178223,0.005184100940823555,-0.06394610553979874,-0.006959781516343355,-0.020897099748253822,0.029356515035033226,-0.0454833060503006,-0.13946865499019623,-0.1289035826921463,0.2963293492794037,-0.22399818897247314,0.08345319330692291,-0.6567217111587524,-0.9684606790542603,-0.13430821895599365,1.0705070495605469,1.1155016422271729,0.0580352246761322,-0.7583146691322327,-1.3901033401489258,-1.912546992301941,-1.6077438592910767,-0.7057433724403381,0.2788195013999939,-0.1824316680431366,0.11277598887681961,0.5794668197631836,-0.2282067835330963,0.009911265224218369,0.25056779384613037,-0.14478453993797302,-0.11710289865732193,0.03874063864350319,-0.15973521769046783,-0.16807429492473602,-0.15938423573970795,0.04554898291826248,-0.03184549883008003,-0.35591310262680054,-0.03836502879858017,-0.48508644104003906,-0.2925131022930145,-0.24892070889472961,0.557170569896698,0.14922116696834564,-0.7743507623672485,-0.8831045627593994,-1.455365777015686,-0.9341728687286377,-0.050825152546167374,-0.7374656796455383,-0.2216610461473465,0.4305920898914337,0.8668474555015564,0.30723369121551514,-0.39181873202323914,0.166409432888031,-0.2545499801635742,0.15838730335235596,-0.04951494559645653,-0.17215964198112488,-0.1855129599571228,-0.03217753395438194,0.04535606503486633,0.09609027951955795,-0.18813736736774445,0.05903234705328941,0.40463268756866455,-0.10499319434165955,-0.3643892705440521,-0.2635716199874878,0.14470843970775604,-0.37873151898384094,-0.664548933506012,-1.7692841291427612,-0.9713236093521118,-0.5292997360229492,-0.9662065505981445,-0.7008978724479675,0.2947506606578827,0.06666195392608643,0.15600766241550446,-0.2606818974018097,-0.5729178786277771,0.14801935851573944,0.2772858440876007,0.1184530109167099,-0.09959517419338226,-0.11277676373720169,-0.0733695849776268,-0.1916557103395462,0.04520213603973389,0.08258981257677078,-0.08675232529640198,0.08794549107551575,0.20452401041984558,0.23442266881465912,-0.18178066611289978,0.10126437246799469,-0.13841940462589264,0.013434483669698238,-1.4975306987762451,-1.4314615726470947,-0.9893139004707336,-1.3529115915298462,-0.7763304710388184,0.0019058294128626585,0.4098674952983856,0.034302353858947754,-0.23919999599456787,-0.42081865668296814,0.11010485142469406,0.271007776260376,-0.059273120015859604,-0.2142489105463028,0.04753738269209862,-0.018285633996129036,-0.16132155060768127,0.1276703178882599,0.12805914878845215,-0.15851616859436035,0.24312305450439453,0.04089174419641495,-0.3050422966480255,-0.180140420794487,0.20017555356025696,-0.45659205317497253,-0.25842148065567017,0.04909779876470566,-0.6002272367477417,-1.2098585367202759,-0.30234575271606445,-0.04769254848361015,-0.36366531252861023,-0.1800583302974701,-0.10344326496124268,0.007797450292855501,-0.58403480052948,-0.6950839161872864,-0.19165898859500885,-0.038634397089481354,-0.2616127133369446,0.14597125351428986,-0.015305900014936924,0.17032238841056824,-0.05799003690481186,-0.16369420289993286,-0.11876296252012253,-0.32126691937446594,-0.07016519457101822,0.09938181191682816,0.05318169668316841,-0.3369254171848297,-0.24971100687980652,-0.009932306595146656,-0.48361366987228394,-0.4027167856693268,-0.5279675722122192,-0.08468445390462875,-0.6403871178627014,-0.46104690432548523,-0.87489253282547,0.012304544448852539,0.28772494196891785,-0.7826538681983948,-0.7232369184494019,-0.1986692249774933,-0.06639525294303894,-0.27146369218826294,-0.005237193312495947,0.11061523109674454,-0.19970127940177917,0.13022013008594513,0.1803911328315735,-0.11310772597789764,-0.18622814118862152,-0.009119215421378613,0.17663967609405518,0.34699368476867676,0.17467103898525238,-0.16290299594402313,0.41115280985832214,-0.4241217076778412,-0.3105640411376953,-0.4120664596557617,-0.2772997319698334,0.19459103047847748,-0.6773359179496765,-0.4192238450050354,-0.12009919434785843,-0.18873076140880585,0.338445246219635,-0.9240161180496216,-0.4992959797382355,-0.6937214136123657,-0.04173934832215309,-0.30221399664878845,-0.043164342641830444,-0.15922020375728607,0.10540615022182465,0.17392827570438385,-0.19971875846385956,0.04925120994448662,-0.1786571443080902,0.02452104538679123,-0.20297811925411224,0.2141859382390976,0.7211070656776428,0.48457086086273193,-0.12814673781394958,-0.09375789761543274,0.0180214736610651,0.6791921854019165,0.07068826258182526,-0.2936936616897583,-0.21571923792362213,-0.10637453198432922,-0.4111802577972412,-0.6148261427879333,-0.9018003940582275,-1.0375422239303589,-1.008670687675476,-0.8355666995048523,-0.24366357922554016,-0.2922314703464508,0.10012798011302948,0.15278629958629608,-0.003716748207807541,0.003357176436111331,0.15678191184997559,-0.011456531472504139,-0.003438507439568639,0.15678714215755463,-0.04587310925126076,0.24204687774181366,0.06754347681999207,0.35657232999801636,0.11328951269388199,0.44372832775115967,0.360804945230484,0.6319680213928223,0.25618231296539307,-0.5438276529312134,0.1524055004119873,-0.49215611815452576,0.15167547762393951,-0.8423463106155396,-0.6460328102111816,-0.880890965461731,-0.7541522979736328,-0.5113463997840881,-0.19988013803958893,-0.10507944971323013,-0.26252779364585876,-0.0005989822093397379,-0.05804392695426941,0.03334595263004303,0.19990506768226624,0.03985576331615448,-0.044938523322343826,0.08466407656669617,-0.25289666652679443,-0.07178105413913727,0.16495780646800995,0.15364676713943481,0.37307009100914,0.4347149729728699,0.46971192955970764,0.03449567034840584,0.10720190405845642,0.44972434639930725,-0.31631502509117126,0.2484731376171112,-0.33783358335494995,-0.2682245969772339,-0.3014475703239441,-0.7360818386077881,-0.6114850640296936,-0.5746996998786926,-0.13366223871707916,0.3466279208660126,-0.08059506118297577,0.014096759259700775,-0.06381437182426453,-0.1057766005396843,0.09541482478380203,-0.032068733125925064,0.11637604236602783,-0.0949053093791008,-0.27735617756843567,0.102415531873703,-0.061153847724199295,-0.11166863888502121,0.35565054416656494,0.4074999988079071,-0.26768356561660767,-0.023826422169804573,0.4159420132637024,-0.11575360596179962,-0.08318739384412766,0.009078116156160831,-0.20447809994220734,0.13789407908916473,-0.020292915403842926,-0.26715296506881714,-0.16197672486305237,-0.20291870832443237,-0.3420811593532562,0.11087407916784286,0.113678477704525,0.10273011773824692,-0.030764035880565643,0.17248307168483734,0.15347635746002197,-0.19446071982383728,-0.12013208121061325,-0.18443021178245544,0.07662323862314224,0.010677734389901161,0.03479975089430809,0.04605129733681679,-0.11711503565311432,-0.20737427473068237,-0.42257949709892273,0.10216253995895386,0.31801122426986694,-0.5121694803237915,-0.13722389936447144,0.060681555420160294,-0.009653155691921711,0.22942259907722473,-0.05410065874457359,0.009149136021733284,-0.13711769878864288,-0.40673184394836426,0.07238434255123138,-0.011945430189371109,0.1257479190826416,0.13478444516658783,-0.16597998142242432,0.18888631463050842,-0.09119883924722672,-0.15558215975761414,-0.1625947803258896,-0.001243725186213851,-0.14027109742164612,-0.02583255060017109,-0.07549324631690979,0.10711237043142319,-0.17750109732151031,0.11817551404237747,-0.6491196155548096,-0.00010084977839142084,0.21735075116157532,0.08239040523767471,-0.15775883197784424,0.3652957081794739,-0.0018948288634419441,0.25543859601020813,-0.052565935999155045,0.32787367701530457,-0.13398204743862152,-0.07140042632818222,-0.0670236349105835,-0.2101561576128006,-0.018730783835053444,-0.09648631513118744,-0.11475615203380585,-0.054745618253946304,0.1968783140182495,0.02195483073592186,-0.1768113374710083,0.1814640760421753,0.1322830766439438,-0.0007913465378805995,-0.08603040874004364,-0.03992941230535507,0.033197205513715744,0.10401169955730438,-0.01033860258758068,-0.10278274863958359,0.11242988705635071,0.1401156783103943,0.20866592228412628,0.39621564745903015,0.169703409075737,-0.005209693219512701,-0.20005866885185242,0.31789642572402954,0.006714350543916225,0.10080226510763168,0.053706564009189606,0.020571447908878326,-0.14568620920181274,-0.12446833401918411,-0.15269255638122559,0.024144727736711502,0.11568018794059753,-0.03512710705399513,-0.19763338565826416,-0.004135556984692812,-0.17222507297992706,-0.06746330112218857,-0.03281312435865402,0.1853628158569336,-0.10162854939699173,0.0755283534526825,0.07914448529481888,0.0955074205994606,-0.13170292973518372,-0.019495533779263496,0.1063230112195015,-0.04480287432670593,0.1445593237876892,0.26569676399230957,-0.0440731905400753,0.10360687226057053,0.06614978611469269,0.07765749096870422,-0.13331466913223267,0.18841931223869324,-0.027618849650025368,0.003695158055052161,-0.14429564774036407,0.17564456164836884],[-0.01356846559792757,0.16584202647209167,-0.0181932020932436,-0.1754334717988968,0.13191479444503784,-0.04428178071975708,-0.08311633765697479,-0.06027653440833092,-0.17962102591991425,0.14377300441265106,-0.19029369950294495,-0.12963251769542694,-0.00023864117974881083,0.060434773564338684,0.009719617664813995,0.0832577496767044,0.08037245273590088,0.17583155632019043,-0.06930441409349442,-0.14988529682159424,-0.10157931596040726,0.004912167321890593,0.004745447542518377,-0.10387023538351059,0.020867500454187393,-0.02582760527729988,0.142909973859787,0.018130648881196976,0.06517309695482254,-0.10998343676328659,-0.19681914150714874,-0.11044158786535263,0.023954998701810837,-0.0763336643576622,-0.023625722154974937,-0.18709702789783478,-0.10697232186794281,0.022485172376036644,0.08928412944078445,0.06753217428922653,0.08833881467580795,0.008492285385727882,-0.07613267004489899,-0.006052764132618904,0.04607576131820679,0.03606497123837471,-0.19363431632518768,-0.10487668216228485,-0.018606314435601234,-0.053729355335235596,0.0155070461332798,0.10013356804847717,-0.17397081851959229,0.03060852363705635,0.02604980766773224,-0.0014134652446955442,0.09448782354593277,-0.1231752410531044,-0.19772441685199738,-0.16526460647583008,-0.09325870126485825,0.17725366353988647,-0.12501727044582367,0.009443315677344799,0.07987158000469208,-0.05760519206523895,0.12434093654155731,0.15742962062358856,-0.0035719454754143953,-0.12483502179384232,0.013365733437240124,-0.07065440714359283,-0.30059847235679626,-0.020006263628602028,-0.10236384719610214,-0.07578802108764648,-0.14773894846439362,-0.15256060659885406,-0.16120147705078125,0.17971032857894897,0.17492733895778656,-0.10425333678722382,-0.17055222392082214,-0.1374407708644867,0.17033590376377106,-0.032028116285800934,0.14496256411075592,-0.10098554939031601,-0.023235341534018517,0.21141448616981506,0.11565785109996796,0.22444979846477509,-0.20420774817466736,-0.251494824886322,-0.17356567084789276,-0.06542126089334488,-0.059929557144641876,-0.20453055202960968,-0.11555665731430054,-0.2936995327472687,0.007645299658179283,0.08365822583436966,-0.16342023015022278,-0.01690320484340191,0.19467298686504364,-0.16437722742557526,-0.19191548228263855,-0.15149588882923126,0.13140854239463806,-0.07311264425516129,-0.022968724370002747,-0.07605264335870743,-0.04719145968556404,-0.024033337831497192,-0.1510007381439209,-0.14716757833957672,0.06813400983810425,0.22084598243236542,0.21325527131557465,0.172057643532753,0.287143349647522,0.4465574324131012,0.037575043737888336,0.37244823575019836,0.5305420160293579,0.09130245447158813,0.48383209109306335,0.26061877608299255,-0.16085316240787506,0.18530946969985962,0.466259241104126,0.3799343705177307,-0.09070306271314621,-0.09616494178771973,-0.09991429001092911,0.09244013577699661,0.21263091266155243,-0.07899018377065659,-0.017274634912610054,0.0345444530248642,0.17252445220947266,-0.14390423893928528,-0.011972679756581783,-0.09300827234983444,0.11615104973316193,0.06985034048557281,0.16170227527618408,0.2752143442630768,0.10372572392225266,0.2791803777217865,0.41787683963775635,1.0518417358398438,0.41232749819755554,0.025600582361221313,0.5897469520568848,0.45528069138526917,0.9078711867332458,0.5847071409225464,0.5158671736717224,0.22346371412277222,0.4614461064338684,0.2370571792125702,0.15032358467578888,0.05619943141937256,0.2886330783367157,-0.15108072757720947,0.05072345957159996,-0.04486237093806267,-0.026756921783089638,0.13124212622642517,-0.035761408507823944,0.13499781489372253,0.07384255528450012,0.002314215525984764,0.22820068895816803,-0.10060098767280579,-0.014428358525037766,-0.1480710506439209,0.4814845621585846,0.3988214433193207,0.17216645181179047,0.12851256132125854,0.2595535218715668,0.21011973917484283,1.0841041803359985,0.6242180466651917,0.7257466316223145,-0.08743327856063843,0.11638911068439484,0.15355409681797028,0.1430945098400116,-0.07687153667211533,0.2584995627403259,0.04515976458787918,0.1591513305902481,0.14117629826068878,-0.110109843313694,0.09369756281375885,-0.06831274926662445,0.20531423389911652,0.2845013439655304,0.18461580574512482,-0.011517508886754513,-0.47379186749458313,-0.11814431101083755,0.35493582487106323,0.862864077091217,0.3967163562774658,0.752301037311554,-0.3482256233692169,-0.5859382748603821,0.20537790656089783,0.08420117199420929,-0.04566575959324837,-0.3259834945201874,-0.227415069937706,-0.37144801020622253,-0.4545135200023651,-0.4727676808834076,-0.1470290869474411,0.03259192407131195,0.16036872565746307,0.18656665086746216,0.14855335652828217,-0.18726064264774323,0.13261044025421143,0.062415800988674164,0.10684306919574738,0.2883658707141876,0.01709733158349991,0.07518727332353592,-0.1565215140581131,0.1901118904352188,0.434586763381958,0.5166295170783997,-0.10688120126724243,-0.209636852145195,0.015045428648591042,-0.9931145310401917,-0.5769228935241699,-0.9842143654823303,0.17253680527210236,-0.01684826985001564,0.10891886800527573,-0.4395570456981659,-0.2568527162075043,-0.27608248591423035,-0.23448973894119263,0.008987950161099434,0.06540427356958389,0.16828809678554535,-0.08341726660728455,0.03430410474538803,-0.15550066530704498,0.12393059581518173,-0.135243222117424,0.2093077003955841,0.3473781943321228,0.07489514350891113,-0.08777999877929688,0.20818765461444855,-0.08650718629360199,0.04964612424373627,-0.07138261198997498,-0.41591089963912964,-0.7238165736198425,-1.1438355445861816,-1.0018261671066284,-0.37103286385536194,-0.032317500561475754,0.11467532068490982,-0.058976128697395325,-0.03730270639061928,-0.14752277731895447,-0.33552712202072144,-0.04045215994119644,0.06270986795425415,0.17799392342567444,0.06134909391403198,-0.01249335240572691,-0.15162625908851624,-0.09630239754915237,-0.16949748992919922,0.2598434388637543,0.18041911721229553,-0.08312482386827469,-0.2553018629550934,0.25130215287208557,0.04495563730597496,-0.012113196775317192,-0.4547867178916931,-0.49305260181427,0.05867826193571091,0.06976234167814255,0.03634753078222275,-0.40355637669563293,-0.3339998424053192,0.17120367288589478,-0.14779533445835114,0.3114636242389679,0.41414886713027954,-0.14632216095924377,-0.05986591801047325,-0.0291704460978508,-0.1619284600019455,-0.14894042909145355,0.18707792460918427,0.05542837083339691,-0.0793907567858696,0.11610813438892365,-0.13172926008701324,0.1447114795446396,-0.05077150836586952,-0.08633537590503693,0.01013981644064188,0.14331822097301483,0.1363598108291626,-0.39272964000701904,-0.20622935891151428,-0.3818771243095398,0.7521145343780518,1.097707986831665,0.6848492622375488,0.4661836326122284,0.40007510781288147,-0.4027879238128662,0.5994517207145691,-0.19169506430625916,0.11707330495119095,0.21230538189411163,-0.24649600684642792,-0.20026570558547974,0.044029295444488525,0.02716575376689434,-0.0239487886428833,-0.1636430323123932,-0.1727127879858017,-0.07719571888446808,-0.14559179544448853,-0.10561206191778183,-0.05227259546518326,-0.3860923945903778,0.13263988494873047,-0.1483498066663742,-0.45252421498298645,-0.7336854338645935,-0.12950094044208527,0.18875397741794586,0.6563189625740051,1.011883020401001,0.7220024466514587,0.15745694935321808,0.11829831451177597,-0.19568628072738647,-0.30665045976638794,-0.2924968898296356,0.08436612784862518,-0.41865724325180054,-0.36341699957847595,-0.5287585258483887,-0.18803659081459045,0.078279510140419,-0.09658988565206528,-0.12627951800823212,0.08717083185911179,0.05795197933912277,0.13504256308078766,-0.011033253744244576,-0.19666869938373566,-0.2519669830799103,-0.15147390961647034,-0.11275289207696915,-0.8590841293334961,-0.2335590273141861,-0.07998966425657272,0.015071738511323929,-0.6692140102386475,0.31130707263946533,0.46598532795906067,0.06865334510803223,0.2710074484348297,0.06082773581147194,-0.05739608034491539,-0.07302241027355194,-0.08763819187879562,-0.4656049609184265,-0.44831547141075134,-0.2818526029586792,-0.06476520001888275,-0.19274452328681946,0.19662825763225555,0.1958046853542328,0.1363746076822281,-0.10284390300512314,0.05609247460961342,-0.11199158430099487,0.027570227161049843,-0.18787257373332977,-0.2939452528953552,-0.42476844787597656,-0.8300445079803467,-0.07231863588094711,-0.30108171701431274,-0.25891757011413574,-0.225676491856575,0.4415660798549652,0.42847174406051636,0.38405919075012207,-0.0007550508598797023,-0.264979749917984,0.17238204181194305,0.32712480425834656,0.3116205632686615,0.05667610466480255,-0.023334775120019913,-0.17373132705688477,-0.2722882628440857,-0.028671612963080406,0.049055345356464386,-0.017697317525744438,0.08226653933525085,0.09292030334472656,0.08176829665899277,-0.07786432653665543,0.039947763085365295,-0.33555349707603455,-0.2630365788936615,-0.5147698521614075,-0.5926352739334106,-0.5347974896430969,-0.21236053109169006,-0.7090905904769897,-0.4780852198600769,0.7725017070770264,0.2677353322505951,0.32500243186950684,-0.17829471826553345,-0.15886247158050537,0.3937510848045349,0.5637618899345398,0.4899585545063019,0.2648718059062958,0.04938851296901703,-0.07570654153823853,-0.25289130210876465,-0.03944956138730049,0.1543470323085785,-0.0736541822552681,-0.1207503005862236,-0.08001040667295456,0.09459146857261658,-0.08043279498815536,0.2555563747882843,-0.20777352154254913,-0.17635603249073029,-0.3221142292022705,-0.7823453545570374,-0.34140679240226746,-0.571259081363678,-0.7522648572921753,-0.5106601715087891,-0.487964391708374,-0.2238340973854065,0.07782646268606186,0.18499067425727844,-0.16635757684707642,0.3951818645000458,0.3853316605091095,0.4685951769351959,0.14290659129619598,0.11236943304538727,0.23352400958538055,-0.1609572321176529,-0.018252341076731682,0.0002038466918747872,-0.13887064158916473,0.10493705421686172,-0.19660186767578125,0.12773668766021729,0.2248329222202301,-0.049621064215898514,0.08716696500778198,0.19150668382644653,-0.47836312651634216,-0.22655180096626282,-0.6291041970252991,-0.5087649822235107,-1.0578689575195312,-0.8058277368545532,-1.0032200813293457,-0.865382969379425,-0.07068946957588196,0.5837880969047546,0.31599971652030945,0.2772923707962036,0.4800790548324585,0.7308083176612854,0.40644025802612305,-0.051298145204782486,0.23451510071754456,0.0035898759961128235,0.0573902428150177,-0.1124589815735817,0.08120423555374146,0.16513273119926453,0.05429782718420029,0.18311083316802979,0.25513485074043274,0.40734782814979553,-0.0945621207356453,0.05807695537805557,-0.09383247792720795,-0.2724250555038452,-0.2927283048629761,-0.7287127375602722,-0.6393540501594543,-0.5591816306114197,-1.1733630895614624,-0.9021106362342834,0.06041884049773216,0.27048152685165405,0.2628125548362732,0.3926215171813965,0.5132023096084595,0.6294649243354797,-0.012485010549426079,0.30958566069602966,0.2034197300672531,-0.034503377974033356,0.07526940852403641,-0.0726037546992302,0.045996829867362976,0.08162748068571091,-0.13007621467113495,0.1911076307296753,0.20251396298408508,0.008227577432990074,0.18045899271965027,0.3352934718132019,-0.2184552103281021,-0.664878249168396,-0.383871465921402,-0.6768313050270081,-0.47997352480888367,-0.6823202967643738,-0.7222142219543457,-0.7723791003227234,0.14385147392749786,0.4072936475276947,0.597075343132019,0.3274937868118286,0.5063174962997437,0.5598512291908264,0.2411535382270813,0.01766800880432129,0.1624562293291092,-0.03022455982863903,-0.14884649217128754,0.16532550752162933,0.0200483500957489,-0.09541439265012741,0.1161038875579834,-0.1274275928735733,0.25353434681892395,0.30826643109321594,0.2614459693431854,0.4305843710899353,0.06967215240001678,0.03357963263988495,-0.3463435471057892,-0.612395703792572,-0.1740773469209671,-0.32011404633522034,-0.19453099370002747,0.1421481817960739,0.21821363270282745,0.07688585668802261,0.30380377173423767,0.462188720703125,0.18231169879436493,0.557026207447052,-0.026561347767710686,-0.05636950582265854,-0.14046190679073334,-0.13131143152713776,0.16720210015773773,0.06812363117933273,-0.013973466120660305,0.10649581253528595,0.053687624633312225,0.2170730084180832,0.18942895531654358,0.07157100737094879,0.3821675479412079,0.6370146870613098,0.8582585453987122,0.4225744903087616,0.22846946120262146,-0.22427207231521606,-0.12444132566452026,-0.08516774326562881,-0.18193764984607697,0.0641317144036293,-0.031063733622431755,-0.19121985137462616,0.08229712396860123,-0.1247185692191124,0.1225612610578537,0.33435845375061035,-0.3795637786388397,-0.3038822412490845,0.03261152282357216,0.041117433458566666,0.058667685836553574,0.113531693816185,0.09466465562582016,-0.0153640266507864,0.046446386724710464,0.05061229690909386,-0.0769335925579071,0.12515757977962494,0.17366629838943481,0.45844751596450806,0.27773037552833557,0.2967715561389923,-0.057419005781412125,-0.3268180787563324,-0.4370756447315216,-0.08048791438341141,-0.11563326418399811,-0.10668520629405975,-0.08523546904325485,0.06833808124065399,0.27636462450027466,0.43138545751571655,-0.11096629500389099,0.014048834331333637,-0.21272963285446167,-0.008019013330340385,-0.024371730163693428,0.08683514595031738,0.06876295804977417,-0.13637135922908783,0.0684404969215393,-0.14054042100906372,0.13400404155254364,0.1433505415916443,0.22055411338806152,0.04032671079039574,0.40987730026245117,0.001993257086724043,0.0569758266210556,-0.19586579501628876,-0.2503856122493744,-0.4476747512817383,-0.025011815130710602,-0.24858960509300232,-0.3122437596321106,-0.31448790431022644,0.4267027676105499,-0.17797288298606873,-0.46224579215049744,-0.15196572244167328,-0.11944569647312164,-0.06647645682096481,0.061318740248680115,0.05558306723833084,0.022776659578084946,0.13908906280994415,-0.136861190199852,-0.14519105851650238,-0.05783413350582123,-0.03811747953295708,-0.051656343042850494,0.17282040417194366,0.07108241319656372,0.039074722677469254,0.1778241991996765,0.4394688606262207,0.2806740999221802,0.022607438266277313,0.054044485092163086,-0.15590283274650574,0.3982561230659485,-0.008151941932737827,0.036171551793813705,0.10089652240276337,-0.05062447115778923,-0.15545064210891724,0.06854347884654999,-0.35498857498168945,-0.339518666267395,-0.23933625221252441,-0.15240979194641113,-0.15372590720653534,-0.04617711529135704,0.026082517579197884,0.14561152458190918,0.03263944759964943,0.18750841915607452,0.06762665510177612,0.19034074246883392,-0.14638426899909973,0.058266531676054,0.04939423128962517,0.17446763813495636,-0.08805424720048904,0.0716131404042244,0.14382697641849518,0.3465287685394287,0.43327128887176514,0.40019434690475464,0.003879228373989463,-0.059642598032951355,0.1952960193157196,-0.3194197714328766,0.10840621590614319,0.00698566809296608,0.19775086641311646,0.0404459685087204,-0.017921077087521553,0.0399928018450737,0.08872993290424347,-0.0706699788570404,0.10465093702077866,-0.019332699477672577,0.1993436962366104,-0.04121923819184303,-0.14384609460830688,0.09986352920532227,-0.12704302370548248,-0.10303494334220886,-0.16982616484165192,-0.0051766615360975266,-0.02582637593150139,0.04217246547341347,0.12857039272785187,-0.12039000540971756,0.1337808519601822,-0.18042945861816406,-0.06722226738929749,-0.2059282809495926,0.003369730431586504,-0.04754927009344101,-0.17238686978816986,-0.024212965741753578,0.17661960422992706,0.006342885084450245,-0.1081966832280159,-0.05289765074849129,0.0033810415770858526,0.03420306369662285,-0.11692213267087936,0.16517239809036255,-0.08412310481071472,-0.015731342136859894,-0.010778366588056087,-0.11973532289266586,-0.08330807834863663,-0.14457929134368896,-0.06010664999485016,0.12543755769729614,-0.1376463621854782,-0.11940488964319229,-0.056859761476516724,-0.07582665234804153,-0.10155924409627914,0.03708624094724655,0.003516624215990305,-0.07952102273702621,0.1427164524793625,-0.01588435284793377,0.08395053446292877,0.006542253773659468,-0.19243501126766205,0.043193817138671875,-0.04158774018287659,-0.038262251764535904,0.1925269514322281,0.13526736199855804,-0.05019510164856911,-0.19312402606010437,-0.010786574333906174,-0.12364338338375092],[0.08061528205871582,0.09910222142934799,0.15263338387012482,-0.11021221429109573,0.13871116936206818,-0.02302987314760685,-0.19982649385929108,0.0737883523106575,0.01782904379069805,0.18568162620067596,0.034009069204330444,-0.09490961581468582,-0.08969871699810028,0.10045543313026428,-0.12527576088905334,0.1171659603714943,-0.18650949001312256,0.10696085542440414,-0.12857681512832642,0.17332911491394043,0.026594987139105797,0.053929705172777176,0.0459742397069931,-0.06719320267438889,0.05500442534685135,-0.07454964518547058,0.025996893644332886,-0.03964750096201897,0.04206683114171028,-0.08004814386367798,0.08228117972612381,0.07117516547441483,-0.09737518429756165,0.18578487634658813,-0.07351360470056534,-0.05500204116106033,0.20025786757469177,0.1671442836523056,-0.11300106346607208,-0.10037094354629517,-0.09315438568592072,-0.027835270389914513,-0.18381473422050476,-0.058864545077085495,-0.09975995123386383,0.10330969095230103,0.18724097311496735,0.15650194883346558,0.16434986889362335,-0.08405029773712158,0.03370476886630058,-0.07277042418718338,0.14540444314479828,0.016622448340058327,-0.1317416876554489,0.07970986515283585,-0.18088658154010773,0.17160837352275848,0.04600226879119873,0.07091082632541656,0.1544586569070816,-0.05575108155608177,0.0576913058757782,0.10374203324317932,-0.010435424745082855,-0.17961353063583374,-0.09905639290809631,-0.14494559168815613,0.12341564148664474,-0.17208757996559143,-0.0014229267835617065,-0.08705469220876694,-0.059485457837581635,0.05436316132545471,0.015492736361920834,-0.011056356132030487,-0.08158152550458908,0.05241837725043297,0.11758817732334137,-0.193933367729187,-0.09029442816972733,0.19404350221157074,-0.031059177592396736,0.039548829197883606,-0.17380009591579437,0.16536013782024384,-0.14988909661769867,-0.02944156527519226,-0.15546825528144836,0.03577074781060219,0.05596219748258591,-0.06190463900566101,-0.06555408984422684,-0.17647266387939453,-0.11968647688627243,-0.08029647171497345,-0.03858888894319534,0.06914973258972168,-0.052396561950445175,-0.1581440418958664,-0.11279021948575974,-0.08931279927492142,-0.4018734395503998,-0.33091485500335693,-0.30728188157081604,-0.24026137590408325,-0.16631826758384705,-0.16662241518497467,0.08624282479286194,-0.07708827406167984,0.10450630635023117,0.11275435984134674,0.13644446432590485,-0.0356341153383255,-0.04333258420228958,-0.04940345510840416,0.035259176045656204,0.02408364601433277,0.1846737414598465,0.12072049081325531,-0.1673436164855957,-0.012104874476790428,-0.15427951514720917,0.1695985496044159,0.007755455560982227,-0.197793111205101,-0.16156870126724243,-0.313212126493454,-0.4184827506542206,-0.4562247693538666,-0.30557695031166077,-0.09919518232345581,-0.18519896268844604,-0.029449859634041786,-0.037839096039533615,-0.2647305428981781,-0.023330293595790863,0.026637136936187744,0.1548076868057251,0.16269195079803467,-0.04917443171143532,0.05772453173995018,0.04541570320725441,-0.18892550468444824,0.15973706543445587,-0.24679119884967804,0.04927273839712143,-0.09790803492069244,0.020898500457406044,-0.13198059797286987,-0.1948908567428589,0.23055729269981384,0.22485339641571045,-0.1379217654466629,0.04610004276037216,-0.31567758321762085,0.04802873358130455,0.2377852201461792,-0.012620854191482067,0.3515070378780365,0.2574347257614136,0.38222557306289673,0.3349011540412903,0.007288937456905842,-0.16452369093894958,0.14780789613723755,0.06318170577287674,-0.17952683568000793,0.14517132937908173,0.16453096270561218,-0.07390841841697693,-0.15400658547878265,-0.1029241532087326,0.17031064629554749,-0.24466651678085327,0.055974721908569336,0.18697489798069,-0.3213199973106384,0.04291919618844986,0.17903482913970947,-0.2498042732477188,-0.4414405822753906,-0.04023522883653641,-0.16018986701965332,-0.36008933186531067,0.2194782793521881,0.07465443015098572,0.17354319989681244,-0.055225472897291183,0.9261926412582397,0.4170216917991638,0.4160141944885254,0.02639107219874859,-0.023457949981093407,0.17007145285606384,0.05457954481244087,0.07563752681016922,-0.12731865048408508,0.18351884186267853,0.09482461214065552,0.07610940933227539,0.14990994334220886,0.09480316936969757,-0.10770977288484573,0.09203281998634338,-0.4386625289916992,-0.03429954871535301,0.1294531673192978,0.0568963959813118,0.29191213846206665,0.16177919507026672,