{"type":"NeuralNetwork","sizes":[784,80,10,10],"layers":[{"weights":[],"biases":[]},{"weights":[[-0.09618760645389557,0.09866361320018768,0.05420185998082161,0.15555711090564728,0.11423394829034805,-0.14065898954868317,0.0313975065946579,-0.04762021079659462,0.07817661017179489,-0.19458165764808655,0.06976638734340668,0.09477982670068741,0.16917991638183594,0.20364733040332794,-0.12367166578769684,-0.16391439735889435,-0.1724853366613388,0.0895785242319107,-0.05662155523896217,0.1066756322979927,0.1347508579492569,0.18833637237548828,-0.012427075766026974,0.012085391208529472,0.00738131906837225,-0.10064796358346939,0.11126682907342911,0.09893118590116501,0.18650181591510773,-0.19572323560714722,-0.06164294853806496,-0.10593049973249435,0.061520423740148544,-0.11798564344644547,0.1271875947713852,0.09051329642534256,-0.12330494821071625,0.15925456583499908,0.04637556150555611,0.15432538092136383,0.15145497024059296,-0.12478631734848022,-0.10748696327209473,0.18480655550956726,0.19353550672531128,0.10870081931352615,0.09178192168474197,-0.047295257449150085,0.01342553086578846,-0.01422685943543911,-0.11041327565908432,0.15427668392658234,-0.02063709869980812,-0.15288735926151276,0.13081178069114685,0.08829285949468613,-0.08858522772789001,0.1568005084991455,-0.012599666602909565,0.09895974397659302,-0.025805871933698654,-0.15556718409061432,-0.08829092979431152,0.0927664116024971,-0.08754762262105942,0.018828053027391434,-0.060333218425512314,-0.0327184684574604,0.2753104865550995,0.12489254772663116,-0.07303184270858765,0.11450165510177612,-0.031041916459798813,0.25476396083831787,0.116224505007267,0.0007689075428061187,-0.16633467376232147,-0.1200021505355835,0.09611224383115768,-0.021813981235027313,0.15026500821113586,-0.13917599618434906,-0.09938962012529373,0.05202983692288399,0.12201124429702759,0.15042483806610107,-0.16248081624507904,-0.05518094822764397,-0.15836480259895325,-0.1237647533416748,-0.03313644230365753,0.10267002880573273,-0.03511068969964981,0.2683470547199249,0.1049872636795044,0.13052654266357422,0.410494327545166,0.4685741364955902,0.5342354774475098,0.4549100697040558,0.2646197974681854,0.1940281242132187,0.08120961487293243,-0.01802871935069561,0.18315964937210083,-0.12079264968633652,-0.08672168850898743,0.05170878395438194,-0.15848156809806824,-0.051212459802627563,-0.0068743592128157616,0.17051924765110016,0.06534985452890396,0.0015239777276292443,0.04632438346743584,0.07155106961727142,-0.04662762209773064,0.1966855376958847,-0.05274301394820213,0.21376848220825195,0.13984689116477966,0.3779810965061188,0.40432503819465637,0.42421984672546387,0.5192416906356812,0.46749958395957947,0.4471034109592438,0.49629533290863037,0.3423081636428833,0.5016431212425232,0.03725574165582657,0.024440523236989975,0.12452124059200287,-0.06718767434358597,0.09035590291023254,-0.16271255910396576,-0.19362035393714905,0.031278207898139954,-0.08322357386350632,0.16542787849903107,0.10635197162628174,-0.010518630035221577,0.0703372061252594,-0.18160976469516754,-0.024146948009729385,0.05501677468419075,0.31445813179016113,0.17543406784534454,0.11397647857666016,0.2124379426240921,0.5401976704597473,0.4794413447380066,0.10178883373737335,-0.09214342385530472,-0.03770307078957558,0.4940091669559479,1.5569971799850464,0.8423116207122803,0.6928868889808655,1.0433261394500732,0.5249480605125427,0.5020368695259094,0.42552968859672546,0.05152631178498268,-0.24974218010902405,0.18125559389591217,-0.009599877521395683,-0.1818254142999649,-0.048192162066698074,0.1554955244064331,0.1562064290046692,-0.14305073022842407,-0.007203243672847748,0.1463010162115097,0.23881910741329193,0.1407284438610077,0.03256477415561676,0.37329617142677307,-0.022964531555771828,-0.7486198544502258,-0.7988261580467224,-0.3715580701828003,-0.50202476978302,0.14061617851257324,0.02226507104933262,0.5940661430358887,0.3008331060409546,0.4211609661579132,-0.1239156723022461,0.33691489696502686,0.6957086324691772,0.3213896155357361,0.3009609878063202,-0.04842207953333855,-0.16532790660858154,-0.06285329163074493,0.04144557937979698,0.13443656265735626,-0.06518483906984329,-0.038666460663080215,-0.0658116415143013,0.012447498738765717,0.21092045307159424,0.5295036435127258,0.4773457646369934,-0.032208409160375595,-0.17631906270980835,-0.18660449981689453,-0.7821145057678223,-0.5631757974624634,0.009812300093472004,0.2771136462688446,0.09431721270084381,0.22933073341846466,-0.06502581387758255,-0.183331698179245,-0.4259767532348633,-0.1432316154241562,0.5119946002960205,0.43642351031303406,0.3142635226249695,0.08630479127168655,-0.06727281212806702,-0.00569941708818078,0.15552844107151031,-0.0037136790342628956,-0.04816557839512825,0.12187249958515167,0.17975789308547974,0.10022173821926117,0.4656076729297638,0.5696007013320923,0.15142281353473663,0.1778489202260971,0.2710891664028168,-0.4474554657936096,-0.8378465175628662,-0.38402214646339417,-0.08713627606630325,0.48041075468063354,0.4430232048034668,0.7871716022491455,-0.20156553387641907,0.19735343754291534,0.1678968220949173,0.21019601821899414,0.06290802359580994,-0.06263139098882675,0.3114197850227356,0.3390573561191559,0.16347825527191162,0.051793172955513,0.0391603447496891,-0.19764864444732666,0.1456436961889267,-0.03562113270163536,0.09778492897748947,-0.049926336854696274,0.03423680365085602,0.3191877603530884,0.3683716058731079,0.13385534286499023,-0.10786184668540955,-0.7882901430130005,-0.8000731468200684,-0.3446113169193268,0.22257545590400696,-0.16132771968841553,-0.16138285398483276,0.13326404988765717,-0.3131008744239807,0.010186691768467426,0.026792969554662704,0.2980433404445648,0.45565804839134216,0.39387115836143494,0.28412410616874695,0.25171756744384766,0.11091545224189758,-0.04251334071159363,-0.18685312569141388,0.15508124232292175,0.02358727529644966,-0.4066362977027893,0.17814666032791138,0.144380122423172,0.5535902380943298,0.5584763884544373,-0.13843311369419098,-0.3186623454093933,0.5390887260437012,-0.4927671253681183,-0.41187429428100586,-0.3340517282485962,-0.06804690510034561,0.008557272143661976,0.1720317304134369,0.1664469987154007,0.2511250078678131,0.11073615401983261,0.28387609124183655,0.3185507357120514,0.3576003611087799,0.6773360371589661,0.12033288180828094,0.051714736968278885,0.09536747634410858,-0.024809056892991066,-0.0443672314286232,-0.03358684480190277,-0.11683770269155502,-0.2896438241004944,-0.04537835717201233,-0.14951246976852417,0.3415031135082245,0.5696431398391724,-0.3964861035346985,0.001824509701691568,-0.16836358606815338,-0.346666544675827,-0.34711867570877075,0.3628595471382141,-0.024819450452923775,-0.4300316870212555,0.0015443868469446898,-0.02752789296209812,-0.2647324502468109,0.07543832808732986,-0.268909752368927,0.3453112542629242,0.010812211781740189,0.12592697143554688,0.21305213868618011,-0.014685793779790401,0.2139396369457245,-0.0038619181141257286,0.04955940693616867,-0.04722803086042404,0.0420011542737484,-0.3273206651210785,-0.2838139533996582,-0.10436641424894333,-0.02272319793701172,0.004597851075232029,-0.5289284586906433,0.14966444671154022,-0.46462950110435486,-0.05168081447482109,0.9227084517478943,0.6715083122253418,0.20577377080917358,-0.5874714851379395,-0.4349137246608734,-0.6408352255821228,-0.8780609369277954,-0.5750394463539124,-0.3845558166503906,0.7051222920417786,0.2626625597476959,0.14550481736660004,0.017363805323839188,-0.03805423155426979,0.19160443544387817,0.06465211510658264,0.14876873791217804,0.0896977111697197,-0.04530971124768257,-0.1858644336462021,-0.3924766480922699,-0.03304893523454666,-0.5076227188110352,0.30466964840888977,-0.28491634130477905,0.10225855559110641,0.034810010343790054,0.48853757977485657,0.5477286577224731,0.5370113253593445,-0.1766975075006485,-1.5519182682037354,0.029576105996966362,0.15187595784664154,-0.15649718046188354,0.018343951553106308,-0.10580222308635712,-0.41916874051094055,0.2548983693122864,0.451114684343338,0.6089922189712524,-0.014141254127025604,0.17392073571681976,0.1900465488433838,-0.05868319049477577,-0.11475904285907745,0.19466526806354523,-0.03026621788740158,-0.06567301601171494,-0.17638587951660156,0.04240439087152481,0.005374601110816002,-0.08076561242341995,-0.11565763503313065,0.06607858836650848,0.242472305893898,1.0863159894943237,0.15411290526390076,-0.28201934695243835,-0.7456153631210327,-0.24448710680007935,0.07595892995595932,0.23130202293395996,-0.30666834115982056,-0.44688311219215393,-0.1352570354938507,-0.07025374472141266,0.6456946730613708,0.11796170473098755,-0.06002599000930786,0.07746963948011398,-0.1287926882505417,-0.06707178056240082,0.019328637048602104,0.10808205604553223,0.193341925740242,0.0871407613158226,0.41153329610824585,-0.13798634707927704,-0.3142543137073517,-0.025264540687203407,-0.20727574825286865,-0.4335292875766754,0.005496907513588667,0.17268474400043488,0.86431485414505,-0.05324726179242134,-0.24643360078334808,-1.2339142560958862,-0.9809472560882568,-0.3428586423397064,-0.9044069051742554,-0.5439131855964661,-0.3762107789516449,-0.02467481791973114,0.30130401253700256,0.2420230656862259,0.3535689413547516,-0.022264201194047928,0.014688692055642605,0.0935436487197876,0.13707908987998962,0.1756296306848526,-0.016533365473151207,0.11074837297201157,0.03353380784392357,0.3550272285938263,-0.3257664144039154,-0.4467087686061859,-0.21302400529384613,-0.20886468887329102,-0.2659825086593628,-0.25753629207611084,0.46668127179145813,0.30157753825187683,-0.2173633724451065,-0.8496850728988647,-0.561000645160675,0.1041657105088234,-0.20567859709262848,-0.11820153892040253,0.012404607608914375,0.3997042179107666,0.624230682849884,0.5238326191902161,0.23528751730918884,-0.06306098401546478,0.1271044909954071,-0.19142109155654907,0.08754713088274002,-0.10850675404071808,0.17752408981323242,0.38133880496025085,0.7740353941917419,0.22804109752178192,0.15706929564476013,-0.20320679247379303,-0.44600701332092285,-0.8414299488067627,-0.323507696390152,-0.390793114900589,-0.4458216428756714,-0.13109005987644196,0.01482505165040493,-0.23403394222259521,-0.5222160220146179,0.21424251794815063,0.5225182175636292,0.17964328825473785,0.6503564119338989,0.658681333065033,0.6526283621788025,0.4065488874912262,0.3406633734703064,0.04598361626267433,0.19109058380126953,0.09707330912351608,0.17346304655075073,-0.1013304814696312,0.08747372031211853,0.4510694444179535,0.48427814245224,1.172269344329834,0.7851942181587219,0.19825948774814606,0.42641493678092957,0.12796379625797272,0.09515145421028137,0.10208861529827118,0.012742954306304455,-0.4695819318294525,0.48129335045814514,-0.15375208854675293,0.011626031249761581,0.8602448105812073,0.8054583668708801,0.551395058631897,1.0579116344451904,0.6382344961166382,0.6624791622161865,0.3130187392234802,0.1572609543800354,-0.08459069579839706,-0.09152460098266602,0.14735352993011475,-0.08900891244411469,0.18357402086257935,0.06777165830135345,0.3832502067089081,0.5988126397132874,1.079846739768982,1.399166226387024,1.1278091669082642,0.9577356576919556,0.8802681565284729,0.7183331251144409,0.1236703172326088,0.14694525301456451,0.2643716037273407,-0.010199475102126598,0.6539241075515747,-0.0048147994093596935,0.19768314063549042,0.9291933178901672,0.4579116106033325,0.6449899673461914,0.2786449193954468,0.6909272074699402,0.2575235366821289,-0.06957488507032394,0.07823475450277328,0.02854367345571518,0.19948598742485046,0.1062072366476059,0.10800235718488693,0.006932349875569344,0.42078375816345215,0.35769936442375183,0.8514856100082397,1.0611591339111328,1.3724446296691895,1.057327389717102,1.1525347232818604,1.2547626495361328,1.2308539152145386,0.3592427670955658,0.4337405264377594,0.13240750133991241,0.3850157558917999,0.41355863213539124,0.4491237998008728,0.7488917112350464,0.8002610206604004,0.14140263199806213,0.2221929281949997,-0.043581772595644,0.19781829416751862,0.12194859981536865,0.0779406875371933,0.17991355061531067,-0.05185069516301155,-0.1350311040878296,0.20509488880634308,-0.1329939216375351,-0.005771447438746691,0.04615991562604904,0.42802441120147705,0.5672851800918579,0.31058064103126526,0.47775834798812866,0.863811731338501,1.13029944896698,0.5404323935508728,0.482150673866272,0.5372613668441772,0.2113572508096695,0.5401227474212646,0.7648525834083557,0.5821934342384338,0.4772112965583801,0.5872747898101807,0.28901201486587524,0.03575930371880531,-0.05228741466999054,-0.03639160841703415,0.1911858171224594,-0.07097749412059784,-0.18155032396316528,-0.19812248647212982,-0.022324729710817337,-0.01360901165753603,0.13393910229206085,0.15856215357780457,0.19151784479618073,-0.1531737744808197,-0.41790759563446045,-0.22346706688404083,0.21881909668445587,0.3711245656013489,0.6127970218658447,0.40245869755744934,0.09580449014902115,0.946104109287262,0.5016874670982361,0.6800394058227539,0.454462468624115,0.46842965483665466,0.7033922672271729,0.2651294469833374,0.34996911883354187,-0.06579645723104477,-0.18219786882400513,0.24340787529945374,0.1561564803123474,-0.08160346001386642,-0.07431798428297043,-0.18374519050121307,0.08081516623497009,0.04451004043221474,-0.13782155513763428,-0.20130270719528198,-0.1616724729537964,-0.6689306497573853,-0.8890808820724487,-0.9613849520683289,-0.5673325657844543,0.22038377821445465,-0.4397193491458893,0.7160042524337769,0.3871772289276123,0.4976717531681061,0.49657490849494934,1.0080430507659912,0.25503721833229065,0.5936903357505798,0.46205148100852966,-0.01676260121166706,-0.12650151550769806,-0.2172713279724121,-0.26857319474220276,-0.17289038002490997,0.17561732232570648,0.17669735848903656,0.1967352330684662,-0.013982987962663174,-0.19727127254009247,-0.10185349732637405,-0.19333237409591675,-0.4405968189239502,-0.5378108024597168,-1.000407338142395,-1.061227560043335,-1.1145528554916382,-0.27800971269607544,-0.09099595248699188,-0.008908937685191631,-0.2224695086479187,0.8026947379112244,1.0685843229293823,0.5150066614151001,0.42974621057510376,0.20765168964862823,0.48507800698280334,0.010970411822199821,-0.13304390013217926,-0.08692022413015366,-0.19799058139324188,-0.09770908951759338,0.1876855492591858,0.2367171347141266,-0.043997231870889664,0.05522342771291733,0.12327995896339417,-0.1160341128706932,-0.07227952033281326,-0.15955860912799835,-0.09552372992038727,-0.26004043221473694,-0.3405776619911194,-0.8070260286331177,-1.0528886318206787,-1.2515175342559814,-0.6140190958976746,-0.4231773912906647,-0.700232207775116,-0.9416287541389465,-0.7642503976821899,-0.36716702580451965,0.028288546949625015,-0.4893372356891632,-0.764622688293457,-0.27184486389160156,-0.33854925632476807,-0.10610666871070862,-0.09190339595079422,0.09151308983564377,-0.11180810630321503,0.1385510265827179,-0.05356966704130173,0.038893941789865494,0.07451684027910233,0.1866907924413681,-0.1063428670167923,0.17902837693691254,-0.12652207911014557,-0.17255717515945435,-0.2646629214286804,-0.23462682962417603,-0.4032531976699829,-0.5909090042114258,-0.36128944158554077,-0.22925904393196106,-0.3706487715244293,-0.5939977765083313,-0.7479708790779114,-0.23803195357322693,-0.11003607511520386,-0.15070106089115143,-0.22566890716552734,-0.1429949849843979,0.024870682507753372,-0.1655058115720749,-0.21420912444591522,0.022320682182908058,-0.12719029188156128,-0.07456041127443314,0.11741288751363754,0.04374046251177788,0.09902243316173553,-0.08532064408063889,-0.08029266446828842,-0.173451229929924,0.046589504927396774,-0.07413360476493835,0.14096947014331818,-0.0682634562253952,0.015913570299744606,0.17999310791492462,-0.0515265017747879,0.03251062333583832,0.05068213865160942,-0.17486998438835144,0.07463765144348145,-0.20021215081214905,0.03413213789463043,-0.11280426383018494,0.007709749508649111,-0.18702439963817596,-0.00007150656165322289,-0.18651366233825684,0.006785702425986528,-0.18934810161590576,-0.05861297622323036,0.10316885262727737,-0.19205790758132935,-0.01611863635480404],[0.12513315677642822,0.05134239420294762,0.06610430777072906,0.13760928809642792,-0.05408982187509537,-0.004498244728893042,0.12951669096946716,0.0116734579205513,-0.11228469014167786,-0.014988194219768047,0.027162212878465652,-0.13156504929065704,0.07750921696424484,0.06327293068170547,-0.18317586183547974,-0.14474789798259735,0.19226187467575073,-0.05032751336693764,0.027390537783503532,-0.11615057289600372,-0.12637941539287567,0.09881208837032318,-0.11066624522209167,-0.1877017319202423,-0.13135342299938202,0.06519339233636856,0.031244425103068352,0.05915740132331848,0.06436531990766525,-0.09477566182613373,-0.050444092601537704,0.195334330201149,0.1300472915172577,-0.17015013098716736,-0.03962661325931549,-0.03604888543486595,0.114552341401577,0.08016092330217361,0.15294262766838074,0.08031914383172989,-0.09157322347164154,-0.061261214315891266,0.09844911843538284,-0.032328054308891296,0.022843046113848686,-0.06832443922758102,-0.07806112617254257,0.0032159369438886642,0.12359756976366043,-0.10486921668052673,-0.17796015739440918,-0.14897365868091583,0.014184458181262016,-0.013578468933701515,-0.15874405205249786,-0.18874256312847137,0.18254251778125763,0.09455367922782898,-0.04172419756650925,0.1319810003042221,-0.07303634285926819,0.07191000878810883,0.11289384961128235,-0.0033727791160345078,0.08939314633607864,-0.0014772332506254315,-0.10150088369846344,-0.0915045365691185,0.12136877328157425,0.19213588535785675,-0.03747204691171646,0.11894001811742783,-0.04855131730437279,0.20778615772724152,0.21039767563343048,0.04355534166097641,0.007916786707937717,0.2294405996799469,0.13261514902114868,0.08598973602056503,-0.1516917645931244,-0.1407429426908493,-0.17972148954868317,0.12309097498655319,0.09118764102458954,0.0407106839120388,-0.15498194098472595,-0.07280536741018295,-0.19188883900642395,0.11817780137062073,-0.06787697225809097,0.043325457721948624,-0.0052419258281588554,0.05374402180314064,0.18070298433303833,0.2283421903848648,0.10361433774232864,0.23473100364208221,-0.17790690064430237,-0.3669509291648865,0.004455090034753084,-0.009116875007748604,0.22690847516059875,0.2577275037765503,0.16421663761138916,0.192814439535141,0.21954339742660522,0.12056726217269897,-0.17654791474342346,0.15151578187942505,0.08826171606779099,0.10424688458442688,-0.1299625188112259,-0.18387432396411896,-0.167003333568573,0.118715800344944,0.15145376324653625,0.08661004155874252,-0.18578091263771057,-0.1609124094247818,0.11464257538318634,-0.07643429189920425,0.149744912981987,-0.3640129566192627,-0.00817698985338211,-0.0373435840010643,-0.33284255862236023,-0.2971191108226776,-0.2668898403644562,-0.03087136335670948,0.016434822231531143,0.05633293092250824,0.41583240032196045,0.08799827843904495,0.2888990342617035,0.100155308842659,0.15279248356819153,-0.23159465193748474,-0.12955641746520996,-0.11117687076330185,-0.04277212917804718,0.15540513396263123,0.18388207256793976,-0.017101187258958817,-0.0445224866271019,0.20120419561862946,-0.12195871025323868,0.09248224645853043,-0.12522003054618835,0.1254599392414093,-0.155805304646492,0.11702912300825119,-0.13283416628837585,-0.17081722617149353,-0.09752083569765091,-0.23865196108818054,0.13376472890377045,0.25807732343673706,0.15047557651996613,0.12760207056999207,0.5528048872947693,0.43826305866241455,0.593293309211731,0.31214508414268494,-0.001106742420233786,0.0021963126491755247,-0.10571256279945374,-0.1566365510225296,0.12427367269992828,-0.061144229024648666,0.182397723197937,0.15464264154434204,-0.13405254483222961,-0.20483723282814026,-0.07162195444107056,0.027263086289167404,0.38439369201660156,0.3225043714046478,0.10574965924024582,0.27010518312454224,0.14565563201904297,-0.43696874380111694,0.07953376322984695,-0.06949132680892944,0.23308409750461578,0.23649989068508148,0.10230818390846252,-0.2796964645385742,-0.1566435992717743,-0.10602788627147675,0.13321727514266968,0.04057840257883072,0.11209428310394287,-0.020668793469667435,0.18106825649738312,-0.01851636916399002,0.1178436428308487,0.04991365224123001,-0.015173621475696564,-0.05799759924411774,-0.19094492495059967,0.06870875507593155,-0.13563035428524017,0.34235772490501404,0.058432575315237045,0.18402643501758575,0.2763606607913971,0.21891508996486664,-0.2328629344701767,0.20587022602558136,0.12959083914756775,0.291159451007843,0.3583386242389679,0.19767074286937714,0.0925842672586441,-0.11033520102500916,0.10695754736661911,0.18258266150951385,0.665372908115387,0.13787588477134705,0.06215663626790047,0.23608045279979706,0.013172945007681847,-0.020600575953722,0.0054967668838799,-0.1030750498175621,0.1361549198627472,-0.16364948451519012,-0.2123226672410965,0.10151734203100204,-0.03560531511902809,0.2484273612499237,0.103245809674263,-0.08634034544229507,-0.16071449220180511,0.030591931194067,0.04035205394029617,0.08637654036283493,-0.21427516639232635,0.13918191194534302,0.771621584892273,0.2808309495449066,-0.14773955941200256,-0.11265140771865845,0.30307430028915405,0.08136118948459625,-0.2138286828994751,0.4021097719669342,0.4001600742340088,0.2980518937110901,0.0055023557506501675,0.06675868481397629,-0.11671934276819229,0.06551089882850647,0.008308513090014458,-0.024103691801428795,-0.30713215470314026,0.06421258300542831,-0.06730574369430542,-0.040288157761096954,-0.5224899649620056,-0.1654261350631714,0.26760023832321167,0.17352673411369324,-0.02317844144999981,-0.2972654402256012,-0.12845081090927124,0.44221439957618713,0.2667621672153473,-0.1501224786043167,-0.19831392168998718,-0.08937184512615204,-0.535686194896698,0.08170103281736374,0.2902502715587616,0.4450978636741638,0.496346116065979,0.17731861770153046,0.033278245478868484,-0.12103268504142761,-0.14053688943386078,0.02838204801082611,0.18852803111076355,-0.18434183299541473,-0.2821758985519409,-0.19698938727378845,-0.05309049040079117,-0.4906483292579651,0.0857250988483429,-0.3016936480998993,-0.2997691333293915,-0.2592664062976837,0.19389352202415466,0.7497650980949402,0.38860103487968445,0.22239960730075836,-0.05456678941845894,-0.9864292144775391,-0.865675687789917,-0.8389135599136353,-0.05105384439229965,-0.1983702927827835,-0.45147719979286194,0.24448668956756592,0.14896968007087708,0.27426964044570923,-0.013015486299991608,-0.1357690691947937,0.10502132028341293,-0.09466250240802765,-0.1585606038570404,-0.1254558116197586,-0.13890260457992554,-0.21376468241214752,-0.19062311947345734,0.042196158319711685,-0.33811455965042114,-0.475641667842865,-0.11867310851812363,0.013643778860569,0.5329898595809937,0.3180263340473175,0.2729460895061493,-0.306633859872818,-0.924146294593811,-0.9329895377159119,-1.3235516548156738,-1.1574219465255737,-1.1366117000579834,-0.9998904466629028,-0.4515412747859955,-0.5058957934379578,0.016512515023350716,0.12002895772457123,0.1998836100101471,0.011400967836380005,0.09797696024179459,0.1288813203573227,0.15679574012756348,-0.0982033759355545,-0.05039173364639282,-0.17292773723602295,0.19874806702136993,0.3445853590965271,-0.11614745855331421,-0.16015776991844177,0.14368830621242523,0.6892772912979126,0.7605769038200378,0.8302793502807617,0.06875962018966675,-0.8256875276565552,-1.367714524269104,-1.1235240697860718,-1.0472184419631958,-0.6896765828132629,-0.7587843537330627,-0.355349600315094,-0.30822160840034485,0.007490344345569611,0.008105642162263393,0.1716366410255432,0.06824680417776108,-0.18456925451755524,-0.0610213465988636,-0.11176618933677673,0.047226015478372574,-0.03403631970286369,0.05879179760813713,-0.15869012475013733,0.40467971563339233,0.3594109117984772,0.04310841113328934,0.22494903206825256,0.5695412158966064,0.602668821811676,0.7542076706886292,0.3873169720172882,-0.6896933913230896,-1.0498355627059937,-1.340270757675171,-0.5346871614456177,-0.43447649478912354,-0.6232736110687256,-0.8672298192977905,-0.43200355768203735,-0.27722984552383423,-0.0908038318157196,-0.07289395481348038,-0.07289715856313705,-0.21522590517997742,-0.21325817704200745,0.1708959937095642,-0.17482982575893402,0.04059026017785072,-0.01696186512708664,0.1087876632809639,-0.08185481280088425,-0.08949530869722366,0.17842556536197662,-0.2442322075366974,-0.018943089991807938,0.2664324641227722,0.2643064558506012,0.6096381545066833,0.22233846783638,-0.8060482740402222,-1.1163464784622192,-0.22378866374492645,-0.1572226881980896,0.11317696422338486,-0.004876803606748581,-0.28781652450561523,-0.5054671764373779,-0.1774294525384903,0.5290750861167908,0.19824153184890747,-0.10337693244218826,-0.1481492668390274,-0.06534099578857422,0.10546901822090149,-0.03554609417915344,-0.19137294590473175,-0.14671169221401215,-0.3870982825756073,-0.0629994198679924,0.014707016758620739,-0.2218136042356491,0.01963709481060505,0.3628116548061371,0.5389546751976013,0.6709545850753784,0.07045355439186096,-0.4792001247406006,-0.5566125512123108,-0.3134334981441498,-0.14653590321540833,0.3924229145050049,0.052288178354501724,-0.3188250958919525,-0.05968965217471123,-0.008150523528456688,0.08235626667737961,0.645622968673706,0.2566552758216858,0.1723949909210205,-0.15468989312648773,0.1876000016927719,-0.05237223953008652,0.011035829782485962,0.06772708147764206,-0.08451899141073227,-0.1273811161518097,-0.02178986929357052,-0.0721486285328865,-0.07884524762630463,-0.21526558697223663,-0.07867518067359924,0.5556065440177917,0.23959361016750336,0.07014930248260498,-0.3232981264591217,-0.738365113735199,-0.8085021376609802,-0.45304596424102783,-0.4651971161365509,0.2390807718038559,-0.08648842573165894,-0.10812828689813614,0.16410349309444427,0.07761886715888977,0.5598145723342896,0.18483005464076996,0.07394208759069443,-0.1885429173707962,-0.007061283104121685,0.02820715494453907,0.11270862072706223,-0.10349072515964508,-0.07398071140050888,0.07649154961109161,0.049190420657396317,-0.5146597623825073,-0.11956560611724854,-0.2973392903804779,-0.19309985637664795,0.4654652774333954,0.1853519231081009,-0.11565010249614716,-0.9222894310951233,-0.8703114986419678,-0.7708454132080078,-0.2800024449825287,0.18370327353477478,0.03283902257680893,-0.17154882848262787,0.5717166066169739,0.12822988629341125,0.4914320111274719,0.3077056407928467,-0.015055782161653042,0.15895523130893707,0.1284714639186859,-0.06868389993906021,0.12308980524539948,-0.18153274059295654,-0.06613454222679138,-0.27516797184944153,-0.2779254913330078,-0.2941552698612213,-0.05832429602742195,-0.28248414397239685,-0.6129040122032166,-0.1408671736717224,0.22840282320976257,0.41107162833213806,0.3986266255378723,-0.6169145703315735,-0.5137507915496826,-0.10358292609453201,0.013396901078522205,0.6123970150947571,0.5582336783409119,0.4315912425518036,0.2942429780960083,0.5980772972106934,0.43826085329055786,0.05911802500486374,0.4520450532436371,0.1922040730714798,-0.02226010151207447,-0.07715841382741928,-0.03202202916145325,-0.12407488375902176,0.014443967491388321,-0.02398068457841873,0.06711277365684509,0.14297887682914734,0.12640061974525452,0.36851799488067627,0.18426162004470825,0.0797160416841507,0.4581581950187683,0.5119146108627319,0.4580543041229248,-0.16449840366840363,-0.4813883900642395,-0.33920639753341675,-0.38355696201324463,-0.24379052221775055,0.3147270381450653,0.24523192644119263,0.5369752049446106,0.1851404458284378,0.31629931926727295,0.17990891635417938,0.1454034447669983,0.16386553645133972,-0.1760600507259369,0.0967840775847435,-0.1342901885509491,-0.10088588297367096,-0.04703415930271149,-0.03206115961074829,-0.23618070781230927,-0.040013495832681656,-0.05205666646361351,0.2718331217765808,0.1300956904888153,0.36583366990089417,-0.18569350242614746,0.07133866846561432,0.4147822856903076,-0.04928474500775337,0.11057084053754807,-0.3583473265171051,-0.27727532386779785,-0.07904792577028275,0.16492781043052673,0.35213494300842285,0.2532517910003662,0.1324632167816162,-0.15117709338665009,0.26138758659362793,-0.07249857485294342,-0.04423389583826065,-0.13151107728481293,-0.005937424022704363,0.13999974727630615,0.1684924215078354,0.009292080998420715,0.0019723414443433285,-0.1425645649433136,0.07108911871910095,-0.3945891261100769,-0.3964839279651642,-0.0346660315990448,-0.14437155425548553,0.1823454648256302,0.17606765031814575,0.7336956858634949,0.051084067672491074,0.28812161087989807,-0.3999376595020294,-0.7599649429321289,0.2875584363937378,0.2400321066379547,0.34790846705436707,0.23452386260032654,0.18331032991409302,0.02880070172250271,-0.35533949732780457,-0.06040484085679054,-0.0860326737165451,0.10543902218341827,-0.19743478298187256,-0.005329335108399391,0.043703075498342514,0.008519989438354969,-0.12201789766550064,-0.09385964274406433,0.019646871834993362,0.014764499850571156,-0.49427321553230286,-0.013243550434708595,0.13227970898151398,0.16123764216899872,0.05332399904727936,0.1328520029783249,0.008765698410570621,0.011098641902208328,0.3581627607345581,-0.02039724960923195,-0.03428647294640541,-0.08592654764652252,0.20633554458618164,-0.16218201816082,0.2848905920982361,-0.11495085060596466,-0.2875082790851593,-0.06673771142959595,-0.08595548570156097,-0.09335814416408539,-0.05806511268019676,-0.19234776496887207,0.19531434774398804,0.19481714069843292,-0.1646302044391632,-0.09817980974912643,0.06244850903749466,0.29414141178131104,0.04852955788373947,-0.0912851095199585,0.2292337417602539,0.43355000019073486,-0.1770426481962204,-0.2664935886859894,-0.10805920511484146,0.4172564446926117,-0.1049313172698021,-0.19820299744606018,-0.09860648959875107,0.32576680183410645,0.10781345516443253,0.008345486596226692,-0.07802094519138336,-0.18666532635688782,-0.12379554659128189,0.04576210305094719,-0.11479511857032776,0.1483832448720932,0.10742918401956558,0.09891622513532639,-0.13043737411499023,0.1925639510154724,-0.07894036173820496,0.038308270275592804,-0.17576394975185394,-0.11907628923654556,-0.03617949038743973,-0.11859163641929626,0.3195427358150482,-0.2628488838672638,-0.026199936866760254,0.3269166350364685,0.4412136375904083,0.21905489265918732,0.36044442653656006,0.010152608156204224,0.017269043251872063,-0.05019564554095268,-0.19402360916137695,0.04767611622810364,-0.05768667161464691,-0.17432552576065063,-0.18066513538360596,0.141830712556839,-0.03984842821955681,0.18350617587566376,0.10661708563566208,-0.14260125160217285,-0.06339293718338013,0.09398559480905533,0.15294161438941956,0.02761349268257618,-0.09002682566642761,0.04384029284119606,0.05459829047322273,-0.4153609573841095,-0.06523630023002625,-0.15281760692596436,-0.1257573515176773,-0.3530435860157013,-0.04478383809328079,0.07871177047491074,-0.052954643964767456,0.052361972630023956,-0.1644766926765442,0.016663145273923874,0.31004074215888977,-0.13565249741077423,0.07738834619522095,-0.0259629487991333,-0.059444718062877655,-0.004091191105544567,0.1910359263420105,0.11962052434682846,0.0046629286371171474,0.015820205211639404,0.13141942024230957,-0.10836680233478546,-0.05819221958518028,0.14406131207942963,-0.15526199340820312,-0.06795528531074524,-0.00019702213467098773,-0.08862648904323578,-0.278333842754364,-0.04624578356742859,-0.20144285261631012,0.01485135406255722,-0.07657935470342636,-0.25777527689933777,-0.12990012764930725,-0.1618146002292633,0.018260817974805832,-0.13964226841926575,-0.02951822057366371,0.015492737293243408,-0.11632277071475983,0.06748605519533157,0.15561003983020782,-0.11721866577863693,-0.03720899671316147,0.04920409992337227,-0.19953088462352753,0.016116337850689888,-0.07307478040456772,0.1943427175283432,-0.19994999468326569,-0.05713903158903122,0.1794096976518631,0.051364388316869736,0.19454824924468994,0.05595016852021217,-0.1622612327337265,-0.1673964560031891,-0.03127234801650047,0.18390300869941711,0.02151857316493988,0.011577021330595016,0.07611145079135895,-0.1181427463889122,-0.1837303191423416,0.12865403294563293,0.09509821236133575,-0.144796222448349,0.08199771493673325,0.1332918405532837,-0.15994088351726532,0.16124176979064941,-0.1727389395236969,-0.17519621551036835,0.05261586979031563],[-0.1812281310558319,-0.1372489631175995,0.03270681947469711,0.09394951164722443,-0.10658726096153259,0.08751050382852554,0.18192951381206512,-0.005109396297484636,-0.06447191536426544,-0.07311246544122696,0.09593437612056732,-0.04708640277385712,0.193447545170784,0.05492641404271126,-0.06588710099458694,-0.006577036809176207,-0.19664111733436584,0.05933677405118942,-0.07176079601049423,-0.1333862841129303,0.19921299815177917,0.07086078822612762,-0.04092372953891754,0.11381139606237411,-0.19402796030044556,0.05237366631627083,-0.10713407397270203,0.18051911890506744,-0.16959968209266663,-0.11374126374721527,0.13892026245594025,-0.07446743547916412,0.13498084247112274,-0.11023551225662231,0.05862852558493614,0.1972268968820572,-0.1690382957458496,-0.1701989620923996,-0.16031509637832642,0.18773142993450165,0.16252698004245758,0.1180405467748642,0.15182773768901825,-0.06022156774997711,0.03864084929227829,-0.0664527416229248,-0.1533399224281311,-0.05390866845846176,-0.12066340446472168,-0.1070718914270401,-0.0775163546204567,0.17927587032318115,-0.11396796256303787,-0.0361827053129673,-0.004882758483290672,0.006539085414260626,-0.0946272537112236,-0.0655767172574997,0.11192668974399567,0.18575017154216766,-0.10725951194763184,0.19107666611671448,0.10232462733983994,-0.19958409667015076,-0.08853781223297119,0.11773837357759476,-0.22052469849586487,-0.011463441886007786,-0.1009226068854332,-0.09148348122835159,-0.15993455052375793,-0.20819614827632904,-0.19314682483673096,-0.06008955091238022,-0.06382874399423599,-0.18698564171791077,-0.17736990749835968,0.005644624587148428,-0.12243031710386276,-0.1246780976653099,0.05139794945716858,0.14509664475917816,-0.1243889182806015,-0.105849988758564,0.01594069041311741,0.00926881842315197,0.03779161348938942,-0.08299802243709564,0.1366397887468338,-0.026798345148563385,0.05997825041413307,-0.17458927631378174,-0.043135493993759155,0.02588675171136856,0.012535922229290009,-0.19217683374881744,-0.2933403551578522,-0.30871015787124634,-0.2424779087305069,-0.28005367517471313,-0.2771746516227722,-0.15448598563671112,-0.07179635018110275,-0.10599813610315323,-0.12315979599952698,0.15540711581707,0.13800284266471863,0.11357755213975906,-0.019070547074079514,0.001148315379396081,0.18693041801452637,0.182138130068779,0.1798625886440277,0.10829953104257584,0.03281243517994881,-0.014185898005962372,0.10564552992582321,-0.06037156656384468,-0.13255347311496735,-0.10186491906642914,-0.10183928161859512,-0.24790245294570923,-0.3235638737678528,-0.19440540671348572,-0.14236529171466827,-0.30588629841804504,-0.4065231382846832,-0.4680785536766052,-0.3753397464752197,-0.037021808326244354,-0.1425321251153946,0.02997058629989624,-0.2897493243217468,-0.07755789160728455,-0.20439863204956055,0.0939335823059082,-0.12928831577301025,0.15089726448059082,-0.04259640350937843,0.0814114660024643,-0.1303883045911789,-0.10133468359708786,-0.14676889777183533,0.17542608082294464,0.1922030746936798,0.07532590627670288,0.07251349091529846,0.05748099833726883,0.09206176549196243,-0.0860409066081047,-0.3897467851638794,-0.38314908742904663,-0.37502291798591614,-0.46826329827308655,-0.7136459350585938,-0.41404157876968384,-0.638666570186615,-0.569199800491333,-0.4189527928829193,-0.3321461081504822,-0.18200601637363434,-0.11000581085681915,0.19224892556667328,-0.033254820853471756,0.042367637157440186,0.12015695124864578,0.11906605213880539,-0.09312265366315842,-0.03657574579119682,-0.045673880726099014,-0.17100292444229126,-0.1862717568874359,0.04209093004465103,0.0565800704061985,-0.06663612276315689,-0.049069423228502274,0.1556728035211563,-0.24199210107326508,0.005343472119420767,0.016699369996786118,0.029774319380521774,-0.2585025131702423,-0.2833654284477234,-0.535751461982727,-0.2956877648830414,-0.4096517264842987,-0.5233119130134583,-0.191484272480011,-0.36237195134162903,0.004598513711243868,0.1485268771648407,-0.10220768302679062,-0.18257038295269012,0.14803791046142578,0.007108685094863176,0.09854431450366974,-0.18732255697250366,0.04746142029762268,0.04782217741012573,0.06725617498159409,0.2225584089756012,-0.10712786763906479,-0.013983720913529396,-0.04747841879725456,0.07690325379371643,0.41882482171058655,0.6144822835922241,0.2161303162574768,0.3025934100151062,0.19362790882587433,-0.09161671251058578,-0.4823385775089264,-0.021384771913290024,-0.1817832738161087,-0.21762263774871826,0.1752661019563675,0.20268166065216064,0.03248097002506256,-0.17855781316757202,-0.20561809837818146,0.026227394118905067,-0.03979950398206711,0.04525481164455414,-0.07753981649875641,-0.13399440050125122,0.05071695148944855,0.12493603676557541,0.09392964094877243,0.1368512511253357,0.260550320148468,0.36016106605529785,0.14567898213863373,0.533958375453949,0.6771213412284851,0.4041806757450104,0.3230333924293518,0.38637515902519226,0.14539051055908203,-0.09957766532897949,0.448770672082901,0.2935243546962738,0.0965995341539383,0.7209100127220154,0.7580792903900146,0.41875916719436646,-0.000363474857294932,0.20480383932590485,0.38456273078918457,0.03982408717274666,-0.18619580566883087,-0.16443714499473572,-0.04557099565863609,-0.11831992864608765,0.11579561978578568,-0.14970259368419647,0.11580242961645126,0.11005673557519913,0.03502631559967995,-0.11451978981494904,-0.061696045100688934,0.06556402891874313,0.07601607590913773,0.10825768858194351,0.30058911442756653,0.3217873275279999,0.35611653327941895,0.08329897373914719,0.23609000444412231,-0.16261862218379974,-0.07106347382068634,0.4637136459350586,0.33107778429985046,0.14851123094558716,-0.10746613144874573,-0.2086607664823532,-0.07490088790655136,-0.06252239644527435,-0.04254063963890076,0.032617196440696716,0.13107462227344513,0.0819193422794342,-0.19194772839546204,0.15957315266132355,0.018632717430591583,-0.11233771592378616,-0.1883297711610794,-0.1347954422235489,-0.15782861411571503,-0.13536930084228516,-0.053639005869627,0.15418855845928192,-0.025079037994146347,-0.10275112837553024,0.24554292857646942,0.04539076238870621,-0.30394768714904785,-0.2011001706123352,-0.10506944358348846,-0.057257432490587234,-0.10524187982082367,-0.1806471347808838,-0.12530739605426788,-0.36561819911003113,-0.466073215007782,0.018853409215807915,0.08220605552196503,-0.15629875659942627,0.11477886885404587,-0.19497719407081604,-0.10160217434167862,0.23191365599632263,0.061615798622369766,-0.10254467278718948,-0.2454257607460022,-0.31423917412757874,-0.4386621415615082,-0.4506438970565796,-0.340421199798584,-0.04494170472025871,-0.28373560309410095,-0.06025205925107002,-0.2841193377971649,-0.02761835791170597,-0.020590320229530334,-0.0046744029968976974,-0.32118818163871765,0.0409737229347229,-0.657011866569519,0.24658481776714325,-0.19046194851398468,-0.1627856194972992,-0.058702945709228516,-0.107035793364048,0.1209462508559227,-0.18716007471084595,0.03490845113992691,0.0045121945440769196,-0.10266032814979553,0.05988285318017006,0.09905287623405457,0.127727672457695,-0.30538034439086914,-0.1782759130001068,-0.2783914804458618,0.012800130061805248,-0.3455648124217987,0.13777188956737518,-0.007097545079886913,-0.4145297408103943,-0.7238540053367615,-0.43814972043037415,0.08982913196086884,-0.12620367109775543,-0.15458859503269196,-0.6982855796813965,-0.5533811450004578,-0.6734423637390137,-0.22943231463432312,-0.39683690667152405,0.05343589931726456,-0.2272520214319229,-0.009548448026180267,0.1996724009513855,-0.01308493223041296,-0.09009171277284622,-0.012480673380196095,-0.0674683153629303,-0.07423535734415054,0.007236319128423929,-0.3415692448616028,-0.36844930052757263,-0.23630262911319733,0.09988095611333847,0.055968258529901505,0.3966129422187805,0.33841729164123535,-0.5321216583251953,-0.6803446412086487,-0.47481003403663635,-0.17474646866321564,-0.621444582939148,-0.3551463186740875,-0.521274209022522,-0.3424217998981476,-0.581917941570282,-0.04176538065075874,-0.13902606070041656,-0.20942673087120056,-0.277567595243454,0.15115763247013092,-0.09685685485601425,0.05575310438871384,0.1862584799528122,0.10335218906402588,-0.05526378005743027,0.014471699483692646,0.13491348922252655,-0.32057803869247437,-0.05138849839568138,-0.06999193131923676,-0.1432333141565323,0.09692679345607758,0.28254982829093933,-0.1274167150259018,-0.4112963378429413,-0.7084932923316956,-0.1762499213218689,0.039163362234830856,-0.22090911865234375,-0.4198710024356842,-0.28300121426582336,-0.24765175580978394,-0.1173417866230011,-0.2048209011554718,-0.12142039090394974,-0.20843665301799774,-0.3493828773498535,-0.15362632274627686,0.11668543517589569,0.08447972685098648,-0.08050655573606491,0.06899407505989075,-0.03705620393157005,0.11046648770570755,0.13372299075126648,-0.3001841902732849,-0.032779984176158905,-0.287995845079422,0.16912119090557098,0.09321733564138412,-0.13978080451488495,-0.15489408373832703,-0.40259256958961487,-0.4059276878833771,-0.29105430841445923,0.19084779918193817,-0.10927392542362213,-0.07857290655374527,0.4168258011341095,-0.0533541738986969,0.21778827905654907,0.06586319953203201,-0.09593354910612106,-0.12480504810810089,0.14334668219089508,-0.019948285073041916,0.15584388375282288,0.15615564584732056,0.03187783434987068,0.04209599271416664,-0.08906684070825577,0.07605421543121338,-0.06915904581546783,-0.21348346769809723,-0.017035340890288353,-0.2599310576915741,0.19821035861968994,0.2768200635910034,-0.02294035814702511,-0.540178656578064,-0.33518707752227783,-0.6904629468917847,-0.15246184170246124,0.11173427850008011,0.015441364608705044,0.21006624400615692,-0.37202420830726624,-0.22414325177669525,0.07500608265399933,0.22067181766033173,0.09904727339744568,-0.3385031819343567,-0.16409645974636078,0.10073310881853104,0.16655787825584412,0.05430181697010994,-0.1940014660358429,0.03285261243581772,-0.1452331244945526,0.09204378724098206,0.12389873713254929,-0.004477636888623238,0.07324253767728806,0.0759744793176651,-0.023044371977448463,0.29811882972717285,0.1950281262397766,0.10048676282167435,-0.08078514039516449,0.054040271788835526,0.39642101526260376,-0.2738533020019531,-0.22623689472675323,0.2632027566432953,0.08362030982971191,-0.19198927283287048,-0.08817224204540253,-0.35744190216064453,-0.18630807101726532,-0.19059637188911438,-0.013123308308422565,-0.24442915618419647,0.058853790163993835,0.15668059885501862,-0.09183163195848465,0.13329999148845673,0.00498898234218359,-0.18003930151462555,-0.0008883391856215894,0.2203461229801178,-0.15427416563034058,-0.14695438742637634,0.21749812364578247,0.024799702689051628,-0.0023458271753042936,-0.34022659063339233,-0.3770376443862915,0.007389092817902565,0.2017088234424591,-0.12240597605705261,-0.2972181737422943,0.0831359475851059,-0.32412999868392944,0.038512274622917175,-0.22817638516426086,-0.1839551031589508,-0.2746814787387848,-0.09346543252468109,-0.19873808324337006,0.027119681239128113,-0.01502839382737875,-0.13844682276248932,-0.00944007933139801,0.035637177526950836,0.10919663310050964,0.010641314089298248,-0.0643787533044815,0.025477895513176918,-0.05944095551967621,-0.3843953609466553,-0.2515628933906555,-0.20954135060310364,-0.6187219023704529,-0.8026261925697327,0.2689788341522217,0.6179035305976868,0.38455384969711304,-0.23521873354911804,-0.13198372721672058,-0.1693248450756073,-0.418375700712204,-0.34430986642837524,-0.09625649452209473,-0.2138720601797104,-0.26081085205078125,0.026920372620224953,-0.013218129985034466,0.1330249160528183,-0.03245614096522331,-0.11509376764297485,0.17278268933296204,0.17916756868362427,0.17597325146198273,-0.13547474145889282,-0.09916899353265762,-0.0629509761929512,-0.30709514021873474,-0.35254910588264465,-0.12198437005281448,-0.20085172355175018,-0.38458260893821716,0.15299831330776215,0.4525526463985443,0.4223286807537079,0.08182886987924576,0.0948694720864296,-0.4333078861236572,-0.47059667110443115,-0.522164523601532,-0.28233152627944946,-0.5419304966926575,-0.3789892792701721,-0.30391329526901245,-0.08439195156097412,0.01846708543598652,0.045489877462387085,-0.09538818895816803,-0.07517282664775848,0.145938441157341,0.19062234461307526,0.09962304681539536,-0.022024812176823616,-0.026944346725940704,-0.22346360981464386,-0.36595144867897034,-0.22509512305259705,-0.33871880173683167,-0.32566165924072266,-0.22453242540359497,-0.3702610433101654,0.12652641534805298,0.36236223578453064,0.12041463702917099,0.19212087988853455,-0.48531919717788696,-0.4633331000804901,-0.6357234120368958,-0.488563597202301,-0.23165908455848694,-0.2260415256023407,0.009555207565426826,-0.006426921114325523,-0.12310335040092468,-0.10271568596363068,0.09545978903770447,-0.02919747307896614,-0.12190337479114532,0.05535583570599556,-0.12677641212940216,-0.196562722325325,0.007722835522145033,-0.13183878362178802,-0.4345574676990509,-0.3103906512260437,0.08684977144002914,-0.15939752757549286,-0.22483964264392853,-0.038241006433963776,0.15290668606758118,0.08614625781774521,-0.2993444800376892,0.2821064889431,-0.4842771589756012,-0.4572926163673401,-0.6601036787033081,-0.34140247106552124,-0.2675090730190277,-0.30794116854667664,0.01043038722127676,0.18632325530052185,0.019540689885616302,-0.0005867006257176399,0.1355125904083252,0.15817540884017944,-0.0947917252779007,-0.12546002864837646,0.06425604969263077,0.06250288337469101,-0.01776733621954918,0.02646949142217636,0.02328289858996868,-0.06778016686439514,0.18298782408237457,0.06344346702098846,0.0645044818520546,0.13406997919082642,-0.03976832702755928,-0.01786842942237854,-0.13700884580612183,-0.042549699544906616,-0.3525470793247223,-0.47784629464149475,-0.37766531109809875,-0.30147436261177063,-0.47366154193878174,-0.2331111878156662,-0.11145155131816864,0.0829121321439743,0.10571593791246414,0.1698143035173416,-0.1474045217037201,-0.1910482943058014,-0.025143513455986977,0.05439242348074913,-0.016418227925896645,-0.1970352828502655,-0.08149661123752594,-0.10346473008394241,0.10414434969425201,-0.35012000799179077,-0.027008743956685066,-0.1524387151002884,0.10845983773469925,0.40114936232566833,-0.12053833156824112,-0.2896011471748352,-0.3420588970184326,0.47539782524108887,-0.06469208747148514,-0.002958298660814762,-0.0663052350282669,-0.2757270932197571,-0.011340138502418995,-0.244355246424675,0.11418713629245758,-0.007295535411685705,-0.15530838072299957,0.11526847630739212,0.16424083709716797,-0.04027574881911278,0.11776663362979889,-0.04344373941421509,0.1115826815366745,0.18425440788269043,0.11690571904182434,0.05299680307507515,0.05329475179314613,0.25398188829421997,0.021090049296617508,0.17312251031398773,-0.18688297271728516,0.4873778223991394,0.14221249520778656,0.15871375799179077,0.42236775159835815,0.49243998527526855,0.2777998745441437,0.13080230355262756,0.03745591640472412,0.1862349808216095,0.1758161187171936,-0.08172214031219482,-0.009528182446956635,0.0600576214492321,0.19451771676540375,-0.09748930484056473,0.19466009736061096,0.042224034667015076,-0.16776859760284424,0.15575739741325378,0.010649511590600014,0.1554568111896515,-0.11866148561239243,0.08549942821264267,0.12137435376644135,-0.08970239013433456,0.14138033986091614,0.07320071011781693,0.07552643865346909,0.10428831726312637,-0.211672842502594,-0.14237944781780243,0.3021751642227173,0.26556769013404846,0.19756102561950684,-0.1380464732646942,0.17960648238658905,-0.07483973354101181,-0.08374446630477905,-0.09332280606031418,0.06585190445184708,-0.08691851794719696,0.19917379319667816,0.15861259400844574,-0.08338507264852524,-0.15279871225357056,0.1438228338956833,0.12263689190149307,0.01634996384382248,-0.034457769244909286,0.1765460968017578,0.11481846123933792,-0.1424257606267929,-0.028692297637462616,-0.0859294980764389,-0.055222656577825546,0.027609776705503464,0.06746315956115723,0.1460227519273758,0.15072809159755707,-0.12824931740760803,0.024996399879455566,0.06684218347072601,0.015821170061826706,-0.08310835808515549,-0.04691410809755325,-0.18565748631954193,0.14461320638656616,0.029688218608498573,-0.0814913660287857,-0.12200150638818741,-0.1333596557378769,0.025464512407779694,-0.012674102559685707],[0.01255904883146286,-0.05313822254538536,-0.11399494111537933,0.08426055312156677,-0.15228545665740967,0.09955421090126038,0.07611346244812012,0.063291534781456,-0.07962124794721603,-0.12674885988235474,0.014966722577810287,0.036268480122089386,0.039640165865421295,0.1853237897157669,0.08673988282680511,0.06554102152585983,0.1473136842250824,-0.13745343685150146,0.07340756803750992,-0.18524830043315887,-0.02722521871328354,-0.06174248456954956,-0.07127435505390167,-0.0780930370092392,-0.01797531172633171,0.048197682946920395,-0.12165185064077377,0.1933411806821823,-0.009294142946600914,-0.09123898297548294,-0.005959068890661001,0.06050051003694534,-0.1915084421634674,0.05766644701361656,-0.08335524052381516,0.18163582682609558,0.02312716469168663,-0.07572625577449799,-0.023717161267995834,-0.06667015701532364,-0.07938310503959656,0.014870120212435722,-0.03705640509724617,-0.1189279705286026,-0.08687920868396759,-0.10621010512113571,-0.033547647297382355,0.18498000502586365,0.017327379435300827,-0.17567506432533264,0.020824290812015533,-0.058315712958574295,-0.14060507714748383,-0.12375253438949585,0.08949316293001175,0.04705972969532013,-0.09322874993085861,-0.012594428844749928,-0.0013272620271891356,0.017718864604830742,-0.002139017917215824,0.15186463296413422,-0.06865255534648895,-0.057469338178634644,0.16042585670948029,0.16252343356609344,0.1270347684621811,-0.11692142486572266,-0.0998041033744812,-0.21822507679462433,-0.13464534282684326,0.018136058002710342,-0.12571175396442413,0.04150647670030594,0.13154374063014984,0.01173694059252739,0.003226103028282523,0.17689146101474762,0.08401172608137131,-0.06449301540851593,0.13090893626213074,0.044966746121644974,0.009694231674075127,0.18126524984836578,0.022866439074277878,-0.1841128170490265,-0.1383991837501526,-0.13018827140331268,-0.04362013563513756,0.17349852621555328,-0.10356289893388748,-0.006744933780282736,0.08719832450151443,-0.13025248050689697,-0.014594427309930325,-0.20269566774368286,0.024952642619609833,-0.21142493188381195,-0.5962216854095459,-0.2673741579055786,-0.18279823660850525,-0.004576327744871378,-0.11160404235124588,-0.28397274017333984,-0.18566349148750305,-0.07958606630563736,0.13447816669940948,0.020953627303242683,-0.22533345222473145,0.13865883648395538,0.16363230347633362,-0.01646364852786064,-0.015055421739816666,-0.14724397659301758,0.07593130320310593,0.01098571252077818,0.009993991814553738,0.14237359166145325,0.08896105736494064,-0.18768687546253204,-0.1286180019378662,-0.3230908513069153,-0.47905996441841125,-0.4959866404533386,-0.414255291223526,-0.34140515327453613,-0.03976401686668396,-0.5002814531326294,-0.6924569010734558,-0.3850441873073578,-0.5663565993309021,-0.28736066818237305,-0.3853932023048401,-0.29263076186180115,0.1963179111480713,0.11567588150501251,0.0451301634311676,-0.1527654379606247,-0.048788588494062424,0.004901691805571318,0.07403657585382462,-0.11808113753795624,0.1541188508272171,-0.016301706433296204,-0.200656920671463,0.1490829735994339,0.0026497566141188145,-0.12391716986894608,-0.08864998817443848,-0.33582839369773865,-0.4415709376335144,-0.1353214979171753,-0.5785968899726868,-0.6036572456359863,0.15742997825145721,-0.8026146292686462,-0.5642752647399902,-0.5328105092048645,-1.117104411125183,-0.5143054723739624,-0.8045664429664612,-0.46833035349845886,0.03792944177985191,-0.01630569063127041,0.38406914472579956,0.05218389257788658,-0.060069747269153595,-0.15677259862422943,-0.08495554327964783,0.07411231845617294,0.013945630751550198,0.11342590302228928,-0.10161533951759338,0.14172041416168213,-0.2155899703502655,-0.16830720007419586,0.027756333351135254,-0.026753246784210205,-0.2157154232263565,-0.29384052753448486,-0.4589425325393677,-0.6436302661895752,-0.4438573122024536,-0.8899014592170715,-0.889198899269104,-1.464704990386963,-1.2809597253799438,-0.4893837869167328,-0.1689245104789734,-0.4948677718639374,0.11063281446695328,0.05486130341887474,0.25909116864204407,0.35062241554260254,0.15925012528896332,-0.15597045421600342,0.06284932047128677,-0.05242176353931427,0.17457997798919678,-0.1611131876707077,0.05592107027769089,0.13820919394493103,-0.06776300817728043,-0.09442971646785736,-0.10804051905870438,0.030804121866822243,-0.4590912163257599,-0.2738128900527954,-0.6031387448310852,-0.1864972561597824,0.09173382818698883,-0.10391603410243988,-0.04422103241086006,-0.13682128489017487,-0.1948929727077484,-0.15555964410305023,0.23121222853660583,0.4303729236125946,0.22966842353343964,0.371719628572464,0.6053841710090637,0.3389122784137726,0.07258842140436172,0.1616840809583664,0.13041026890277863,0.09489388763904572,0.16395904123783112,0.04507622495293617,0.05719466134905815,0.026903340592980385,-0.08410894125699997,-0.30772480368614197,-0.16576535999774933,-0.09438084810972214,-0.49090155959129333,-0.36399781703948975,-0.44190895557403564,0.10121643543243408,0.07533837109804153,0.34674954414367676,0.6218477487564087,-0.020309429615736008,0.3697628080844879,0.26151150465011597,0.457197904586792,0.5920466780662537,0.45897454023361206,0.611770510673523,0.995578944683075,0.6900455951690674,0.05041683092713356,-0.011188941076397896,0.16088160872459412,0.14742159843444824,-0.06360252946615219,-0.11342527717351913,-0.18929670751094818,-0.20026898384094238,0.15381605923175812,-0.31452587246894836,-0.31332799792289734,0.027620157226920128,-0.29434558749198914,-0.06075596064329147,-0.08681432902812958,0.31390252709388733,0.25033682584762573,0.4977385699748993,0.8202521204948425,1.1622427701950073,0.8681846857070923,0.4536799192428589,0.07099979370832443,0.33398622274398804,0.2385437786579132,0.3235573470592499,0.8779144883155823,0.5325812697410583,0.021427398547530174,0.008563928306102753,-0.1032625213265419,0.025405479595065117,0.11272135376930237,0.005613279994577169,-0.05467391386628151,-0.04311502352356911,-0.4523395597934723,-0.16479742527008057,0.16918693482875824,0.04336531460285187,0.23068679869174957,-0.12230844795703888,0.09333465248346329,0.15809860825538635,-0.4763461649417877,0.40609586238861084,0.7115307450294495,0.37911373376846313,0.5543502569198608,0.9804818630218506,0.6034108996391296,0.2563839256763458,0.10935000330209732,0.7231606841087341,1.011695384979248,0.6041871905326843,-0.14510394632816315,0.04789503291249275,0.17115838825702667,-0.034232717007398605,-0.017818046733736992,-0.13234807550907135,-0.012035722844302654,-0.2663470506668091,-0.23887979984283447,0.3037044405937195,-0.12114652991294861,0.08254057914018631,-0.38138553500175476,0.08694793283939362,-0.28789642453193665,-0.192424938082695,-0.7753337621688843,-0.32683491706848145,-0.5796387195587158,-1.19911527633667,-0.9976861476898193,-0.9954637289047241,-0.5948500633239746,-0.27343177795410156,-0.025392409414052963,-0.5042179822921753,0.22322970628738403,0.2500888705253601,0.013973698951303959,0.08271662890911102,-0.027912156656384468,0.17627450823783875,0.062325794249773026,0.13175980746746063,-0.2693760395050049,-0.008534623309969902,0.138296440243721,0.4360714852809906,-0.12861517071723938,0.25291261076927185,0.0037979569751769304,0.10892851650714874,-0.16699741780757904,0.312909334897995,-1.0401856899261475,-0.6541444659233093,-1.5172924995422363,-2.1524620056152344,-1.8276485204696655,-1.2655342817306519,-1.6685892343521118,-1.1615993976593018,-0.5189384818077087,-0.48364052176475525,-0.3951709270477295,0.19978775084018707,0.06504656374454498,-0.15670545399188995,-0.009734153747558594,-0.1681942641735077,-0.07182283699512482,-0.2148602455854416,0.0940537378191948,-0.09995847940444946,-0.0018265120452269912,0.19260470569133759,-0.4419110417366028,0.48375067114830017,0.2645191252231598,0.30013594031333923,0.6858651041984558,0.23603110015392303,0.3259938955307007,0.07885485887527466,-0.7264692783355713,-0.5774164199829102,-1.2252413034439087,-1.2564117908477783,-1.2963199615478516,-0.708085834980011,-0.2494817078113556,-0.7698119282722473,-0.1373995542526245,0.15115967392921448,-0.09010391682386398,-0.0714559406042099,0.1657932698726654,0.1104554831981659,-0.04042939096689224,-0.02155085653066635,-0.09866809844970703,-0.4789683222770691,0.12168371677398682,-0.27784374356269836,0.2770163416862488,0.4139578342437744,0.4686543047428131,-0.29187193512916565,-0.2622535824775696,-0.244096577167511,-0.13789251446723938,0.005199633073061705,0.10132142156362534,-0.2805681824684143,-0.05493485555052757,-0.9337356686592102,-0.6470595598220825,-0.7091724872589111,-0.17071747779846191,0.008710441179573536,-0.24020926654338837,0.11654147505760193,0.06292912364006042,-0.17902834713459015,-0.0038219988346099854,0.10971611738204956,-0.15224716067314148,-0.02540041133761406,0.049296822398900986,-0.1696070283651352,0.026896990835666656,0.21668000519275665,0.26271530985832214,0.7789652347564697,0.19158509373664856,0.22029714286327362,0.07794134318828583,0.137578085064888,-0.20016005635261536,-0.15907412767410278,-0.7511029839515686,-0.2989971935749054,0.6438678503036499,-0.4628930389881134,-0.6139849424362183,-0.7942702174186707,-1.0290724039077759,-0.13492903113365173,-0.16792376339435577,-0.22303506731987,-0.03787114843726158,0.061097390949726105,-0.15090204775333405,0.15505065023899078,0.1847851574420929,-0.16322734951972961,-0.055292174220085144,-0.1634819060564041,-0.004607669077813625,-0.10184603929519653,0.08283417671918869,-0.17807729542255402,0.2071181684732437,-0.4795394241809845,-0.24009697139263153,-0.3411497175693512,-0.3353734016418457,-0.5185455083847046,-0.3095521330833435,-0.3287428617477417,-0.08004508912563324,0.13613706827163696,-0.3602890968322754,-0.6014194488525391,-0.5661355257034302,-0.1265459805727005,0.19299224019050598,-0.022439582273364067,0.14326073229312897,-0.14563065767288208,0.1025753989815712,0.046306394040584564,-0.2139590084552765,0.057146117091178894,-0.03912747651338577,0.29341569542884827,0.46968284249305725,0.1247878298163414,0.4158991277217865,-0.25419309735298157,0.3324390947818756,-0.09232745319604874,-0.3228375315666199,-0.3314868211746216,0.020588524639606476,-0.038737136870622635,-0.1133076548576355,-0.0004898945917375386,0.2543673515319824,0.17664283514022827,-0.6843834519386292,-0.789905309677124,-0.7799621224403381,0.07438024878501892,0.03605329245328903,0.05172177776694298,0.09064376354217529,0.007960077375173569,-0.07960433512926102,-0.11688284575939178,0.011813143268227577,-0.0221201553940773,0.05592626705765724,-0.14145459234714508,0.6657674312591553,0.1661093384027481,0.3793031871318817,0.08505792170763016,-0.4816613793373108,-0.6068617701530457,0.10622724890708923,-0.04015364497900009,-0.09026862680912018,0.40578344464302063,-0.08204870671033859,0.20671671628952026,-0.09273585677146912,-0.009862951934337616,-0.5476949214935303,-0.5064060688018799,-0.477449506521225,-0.07253493368625641,-0.27359849214553833,-0.03382483497262001,-0.010209599509835243,0.002491777064278722,-0.1959429681301117,-0.08974657952785492,0.08071817457675934,-0.0752159059047699,0.23983719944953918,0.2059650868177414,-0.026439610868692398,-0.13474032282829285,0.35457074642181396,-0.10948574542999268,-0.6132709980010986,-0.038596298545598984,-0.14850832521915436,0.32481950521469116,0.12223132699728012,0.27116116881370544,0.00459926575422287,-0.10000641644001007,-0.18669310212135315,-0.44863539934158325,-0.35189223289489746,-0.2362547218799591,-0.07308484613895416,-0.08118969947099686,-0.018243661150336266,0.03506803512573242,-0.16433101892471313,-0.17573373019695282,0.0403578095138073,0.015812784433364868,-0.06464511156082153,-0.032491762191057205,-0.4731816351413727,-0.0717644914984703,-0.01313081569969654,-0.17181260883808136,0.10471747815608978,0.20811817049980164,-0.12201105803251266,0.05444594472646713,-0.5207533836364746,-0.039197392761707306,0.1653711348772049,-0.8729183673858643,0.3421865701675415,-0.4355607330799103,0.16386592388153076,-0.20579800009727478,-0.0725967213511467,-0.25241124629974365,-0.21614299714565277,-0.20253886282444,0.08625750243663788,-0.18088595569133759,-0.06355627626180649,-0.01988896355032921,0.061171699315309525,0.05262577161192894,0.1375541090965271,-0.18543119728565216,-0.23715218901634216,-0.5394212603569031,-0.2686443328857422,-0.07525055855512619,0.5851479768753052,-0.08134672045707703,0.1514478325843811,0.4216748774051666,-0.16057094931602478,0.020384127274155617,-0.6529790759086609,-0.11731523275375366,-0.11170969903469086,-0.6104189157485962,0.15456201136112213,-0.1717502325773239,-0.052333489060401917,0.01539586205035448,-0.19503138959407806,-0.06131944805383682,-0.17291074991226196,0.013520704582333565,0.16259516775608063,-0.08374408632516861,0.053258705884218216,-0.1304747760295868,-0.07450950890779495,-0.047240499407052994,-0.1668633669614792,-0.4938521981239319,-0.45947781205177307,-0.34188106656074524,0.06486479192972183,0.3307923972606659,-0.3452680706977844,-0.243651881814003,-0.029556388035416603,0.13033781945705414,-0.3957775831222534,0.14628887176513672,-0.05074974149465561,-0.206980898976326,0.13260260224342346,-0.168262779712677,0.43564432859420776,0.163375586271286,0.01350878644734621,-0.22236095368862152,-0.1230655312538147,-0.13006341457366943,-0.1358470618724823,-0.191911980509758,0.12991738319396973,0.11437559872865677,-0.12306108325719833,0.009613843634724617,-0.12265719473361969,-0.1270364224910736,-0.4358123540878296,-0.4278499484062195,-0.1430680900812149,-0.0522783063352108,0.002497982932254672,-0.3571338951587677,-0.5561474561691284,-0.647275984287262,-0.04312257468700409,0.000432012602686882,-0.02263307012617588,-0.1267918348312378,-0.004814555868506432,-0.07621337473392487,-0.09685234725475311,0.022160835564136505,-0.17632214725017548,-0.028169376775622368,0.19124367833137512,-0.001285359961912036,-0.13725067675113678,0.002292148768901825,0.13592103123664856,0.035037122666835785,0.012230382300913334,0.10788721591234207,0.077349454164505,-0.08594705164432526,-0.22690396010875702,-0.15577523410320282,-0.3630184233188629,0.18429912626743317,-0.038284044712781906,-0.20601427555084229,-0.22169415652751923,0.2300899475812912,0.32689353823661804,0.6062402129173279,0.208493173122406,-0.048584844917058945,0.09524992108345032,0.09345009922981262,0.14428772032260895,-0.06111514940857887,0.08803140372037888,-0.015601021237671375,-0.1221502274274826,-0.18817539513111115,-0.17772477865219116,-0.1131984144449234,0.06061242148280144,-0.038982439786195755,0.1754360795021057,-0.050214529037475586,0.09891153126955032,-0.027254581451416016,-0.3050757646560669,-0.220882385969162,-0.3101810812950134,-0.3882247507572174,-0.5478165745735168,-0.2420109510421753,-0.0025572394952178,0.27070167660713196,-0.3914165794849396,-0.34892913699150085,-0.044067490845918655,0.04062836617231369,0.08369386196136475,0.053085342049598694,-0.0033661420457065105,0.047117918729782104,-0.07632764428853989,0.13962781429290771,-0.12525634467601776,-0.10425363481044769,0.19200105965137482,0.03562008589506149,0.11016114801168442,0.02256602607667446,-0.19154323637485504,-0.09867793321609497,-0.16573365032672882,-0.06841342151165009,0.14708784222602844,-0.06916067004203796,0.04931320622563362,-0.28061380982398987,-0.4606139361858368,-0.4224757254123688,0.24828583002090454,0.019989892840385437,-0.3316284418106079,0.1522616446018219,0.07457046955823898,-0.23215751349925995,0.009578200988471508,0.03345832601189613,-0.07973259687423706,-0.02395857311785221,-0.021760260686278343,0.03771432489156723,0.0719425305724144,0.09120505303144455,-0.015901833772659302,0.11699958145618439,0.029481323435902596,-0.11566946655511856,-0.08546643704175949,0.10652445256710052,-0.1651158481836319,0.16714511811733246,0.07559556514024734,0.1423102617263794,-0.10264319181442261,0.09509121626615524,-0.13832125067710876,0.030156046152114868,0.20184725522994995,-0.04411110654473305,0.01001402921974659,-0.14735177159309387,0.17757101356983185,0.16919860243797302,-0.09080402553081512,-0.01200322899967432,-0.13679081201553345,0.10354721546173096,0.14013037085533142,-0.19388575851917267,0.014428775757551193,-0.14090301096439362,-0.10887572169303894,0.024188116192817688],[-0.16948705911636353,-0.13803592324256897,0.11265835911035538,0.049568530172109604,-0.1598367542028427,0.13392306864261627,0.02376161888241768,0.06976933032274246,-0.03257535398006439,0.0011388910934329033,0.06041661649942398,-0.14932851493358612,0.023203469812870026,-0.02804313600063324,0.061227478086948395,0.15517078340053558,0.039326660335063934,-0.005186747293919325,0.004487581551074982,-0.1062806248664856,-0.14150692522525787,0.05305441468954086,-0.13284656405448914,0.15349261462688446,-0.1370576024055481,0.09413964301347733,-0.14213906228542328,0.11442996561527252,-0.1767144799232483,0.05368945002555847,0.19798824191093445,-0.00027121842140331864,0.032007697969675064,0.07961928099393845,-0.06190640851855278,-0.16197846829891205,0.07086282223463058,0.09076426178216934,0.10855130851268768,0.10735634714365005,0.07601015269756317,0.0827716812491417,-0.10911795496940613,-0.031568244099617004,0.20204021036624908,-0.17305628955364227,0.16836126148700714,0.033388618379831314,-0.0036726987455040216,-0.14072275161743164,0.017335359007120132,-0.05824422836303711,-0.19336916506290436,-0.1126173809170723,0.15504297614097595,0.19328203797340393,-0.1652379035949707,-0.15226712822914124,0.1450338214635849,-0.02028757520020008,0.11937877535820007,0.1671178936958313,0.009451436810195446,-0.07628865540027618,-0.09138596057891846,0.0025715602096170187,0.24936631321907043,0.10669206827878952,0.17816229164600372,0.0383259616792202,0.1360282450914383,0.07417718321084976,0.2063301056623459,0.27062734961509705,0.26470276713371277,-0.1033279299736023,-0.07176539301872253,-0.11629928648471832,-0.000847905408591032,0.005917625036090612,-0.06803756207227707,0.19083181023597717,-0.13720481097698212,-0.009171645157039165,-0.09834937751293182,-0.09083183109760284,-0.010660148225724697,-0.1680116057395935,-0.056653108447790146,0.13536332547664642,0.2241254299879074,0.07452808320522308,0.008915882557630539,0.3625554144382477,0.2011108696460724,-0.0004248180484864861,0.45741045475006104,0.5950794816017151,0.5870110988616943,0.7774147391319275,0.36918219923973083,0.31488269567489624,0.16334928572177887,0.036223333328962326,0.21797411143779755,-0.2055007964372635,0.02773643098771572,0.16547128558158875,0.09559393674135208,0.01902870275080204,-0.04837311431765556,0.17438606917858124,-0.1595226675271988,0.14115074276924133,0.006207144353538752,-0.1772974282503128,-0.11580029129981995,-0.06800547987222672,0.2968835234642029,0.2351011484861374,0.3788905739784241,0.5192186832427979,0.38198575377464294,0.4824276864528656,0.4532182514667511,0.40398654341697693,-0.1468602418899536,0.6229357123374939,0.5251002907752991,0.4674297869205475,0.6383122801780701,0.14099739491939545,0.15085138380527496,-0.07390972226858139,-0.22477513551712036,0.07567746192216873,-0.24712516367435455,-0.10627058893442154,0.09079670906066895,-0.19321534037590027,-0.10617329925298691,-0.12397551536560059,0.012433269061148167,-0.13825951516628265,-0.07797780632972717,-0.0224255733191967,0.3219926655292511,0.24069838225841522,0.31981930136680603,-0.07827652990818024,0.3306579291820526,0.636041522026062,0.15234096348285675,-0.03489461913704872,0.1357799768447876,0.26904386281967163,0.7150294780731201,0.7562468647956848,1.0586261749267578,0.050901684910058975,-0.037832193076610565,-0.3841756284236908,0.053941819816827774,-0.286003440618515,0.04957703500986099,0.04031537100672722,-0.13350915908813477,0.13316099345684052,-0.08904758840799332,-0.0873742625117302,-0.028938783332705498,0.12388063222169876,-0.06258261948823929,0.004498627968132496,0.04476875066757202,0.346339613199234,0.5183753371238708,0.06598486751317978,0.3784036338329315,0.6008970141410828,-0.3194396495819092,-0.2932964861392975,-0.13703998923301697,-0.1665799617767334,0.3359963893890381,-0.07287817448377609,-0.23359796404838562,0.06639722734689713,0.0874607190489769,-0.13000337779521942,-0.11324255913496017,-0.46956196427345276,-0.15083901584148407,-0.10356680303812027,0.0954078882932663,-0.15775221586227417,-0.12402530759572983,-0.1851668357849121,-0.034075312316417694,-0.1365022212266922,-0.005242415238171816,0.006204985547810793,0.3431575298309326,0.2203737050294876,0.13465410470962524,0.564227283000946,-0.19372816383838654,0.5925017595291138,0.16680102050304413,0.3202263116836548,-0.017663804814219475,-0.41178324818611145,-0.5578793883323669,0.3833046555519104,-0.07018207758665085,-0.21982815861701965,-0.35560035705566406,-0.19550465047359467,-0.35892269015312195,-0.5097383856773376,-0.03968947008252144,-0.24362994730472565,0.09939037263393402,-0.00822518765926361,-0.08271076530218124,0.04590928927063942,0.08294703811407089,0.15925006568431854,0.19329378008842468,0.4767666161060333,0.6688036918640137,0.6943308115005493,0.37193161249160767,0.00901417713612318,0.412559449672699,0.17783409357070923,1.4525949954986572,0.18860366940498352,-0.0017182346200570464,-0.14126859605312347,0.7371795177459717,0.41220641136169434,-0.3479878008365631,-0.4710366129875183,-0.2536408603191376,0.20393803715705872,-0.03697710856795311,-0.3764871656894684,-0.3285892903804779,-0.344071626663208,-0.17367936670780182,-0.04896564036607742,0.08161324262619019,0.03568336367607117,0.10114974528551102,0.2790413796901703,0.17791765928268433,0.22533315420150757,0.5753600001335144,0.36109450459480286,0.00020689955272246152,0.19089387357234955,-0.08133914321660995,-0.016303520649671555,-0.05585340037941933,0.9329074025154114,0.6033322215080261,0.23031523823738098,0.39015647768974304,0.21114212274551392,0.18609878420829773,-0.24728363752365112,-0.07359401136636734,0.34640321135520935,0.16628579795360565,-0.20122960209846497,0.10075549781322479,-0.017342159524559975,0.16105970740318298,-0.13029633462429047,0.04375836253166199,0.05462981015443802,0.12597937881946564,-0.09547529369592667,0.23628340661525726,0.6936524510383606,0.3573957681655884,0.013598589226603508,-0.2433927059173584,-1.1181588172912598,-0.16913270950317383,0.17748890817165375,0.5360994935035706,0.8587080240249634,0.9220223426818848,-0.08024832606315613,0.8446981906890869,-0.4295482039451599,-0.6170734763145447,-0.6127015948295593,0.4939451217651367,0.15188519656658173,0.33502838015556335,0.39810487627983093,0.14466342329978943,0.19626674056053162,0.1771104484796524,0.10193769633769989,0.1869475245475769,-0.2004954069852829,-0.07419852167367935,-0.1740187704563141,-0.39664074778556824,0.1484149843454361,-0.3271850645542145,-0.5415047407150269,-0.7819938659667969,-0.8610277771949768,-0.5786467790603638,-0.6001821756362915,-0.05234728753566742,-0.35983794927597046,0.03920000046491623,-0.30908480286598206,-0.06863640993833542,-0.7605474591255188,0.11332020163536072,0.40005403757095337,-0.40587884187698364,0.22641202807426453,0.2554892301559448,0.3797895312309265,0.37869173288345337,-0.052154988050460815,-0.15178696811199188,0.015461672097444534,0.07646718621253967,0.1285763531923294,-0.0819021612405777,-0.15148989856243134,-0.38183799386024475,-0.5769849419593811,-0.2527207136154175,-0.8888514041900635,-0.730815052986145,-1.144553303718567,-0.7022484540939331,-1.1581453084945679,-1.4103753566741943,-0.3217378556728363,-0.04178636148571968,-0.0279837753623724,-0.47997766733169556,-0.5728029012680054,0.1258220225572586,0.143589586019516,-0.11036894470453262,0.23719552159309387,0.3479735851287842,0.32046517729759216,0.5058363676071167,-0.0718943178653717,-0.13385385274887085,-0.1806812584400177,0.13395556807518005,0.13910213112831116,-0.1353481411933899,-0.17829571664333344,-0.6144075393676758,-0.820357620716095,-0.812791109085083,-0.7638509273529053,-1.0696529150009155,-1.4099476337432861,-1.0385535955429077,-1.5342340469360352,-1.305071234703064,-0.3741413950920105,-0.43637290596961975,-0.5444389581680298,-0.8202346563339233,-0.34080970287323,-0.1092962846159935,0.5347444415092468,0.20722728967666626,0.11063145101070404,0.3721666634082794,0.6692033410072327,0.7182976007461548,-0.09639424830675125,0.010687733069062233,0.11573337763547897,-0.16731221973896027,-0.07207638770341873,0.1580493301153183,-0.04899933934211731,-0.5259562730789185,-0.994025468826294,-0.4935397207736969,-0.644627034664154,-1.2781460285186768,-0.579362154006958,-1.0861297845840454,-0.9295262694358826,-0.9637503623962402,0.058965180069208145,0.22643834352493286,0.23731233179569244,0.17382259666919708,-0.35200369358062744,0.33943310379981995,0.010186775587499142,0.1407497227191925,0.6832167506217957,0.2776173949241638,0.432768315076828,0.4441843628883362,0.1103016585111618,0.026964878663420677,0.005649784579873085,0.025986460968852043,-0.020641040056943893,-0.07622984796762466,-0.13695819675922394,-0.11321591585874557,-0.4817524552345276,-0.7743045091629028,-0.32296523451805115,-1.0830100774765015,-0.44851914048194885,-0.28909745812416077,0.398893266916275,-0.1607026308774948,-0.32303473353385925,0.3432515859603882,-0.12439844012260437,-0.6683168411254883,-0.22828440368175507,-0.08298806846141815,-0.04237741976976395,0.9037027359008789,0.5015788674354553,0.40658530592918396,0.5615620613098145,0.45939192175865173,-0.0506480373442173,-0.30287471413612366,-0.1885194629430771,0.028375035151839256,-0.046888161450624466,-0.013000979088246822,-0.02177640050649643,0.1257142871618271,-0.0730569139122963,-0.01593373902142048,-0.4480798542499542,-0.5397301912307739,-0.6999362111091614,-0.029615117236971855,0.4895879328250885,0.5221885442733765,0.40586617588996887,0.21700634062290192,-0.31235891580581665,-0.09281269460916519,-0.9250499606132507,-0.19288460910320282,0.362231582403183,0.7504012584686279,0.35656705498695374,0.43647927045822144,0.45726093649864197,0.36639732122421265,0.05037844553589821,0.025532295927405357,0.11549056321382523,0.11732328683137894,0.060709696263074875,0.038845308125019073,0.12367351353168488,0.298923522233963,-0.060873690992593765,-0.14013628661632538,-0.6205399036407471,-0.5090312361717224,-0.18188008666038513,-0.03488804027438164,0.37408798933029175,0.21376681327819824,-0.540810227394104,0.7211441397666931,0.5369741320610046,0.2615555226802826,-0.41315436363220215,-0.311354398727417,-0.27690571546554565,0.10763280838727951,0.2953491508960724,0.45254015922546387,0.3936213552951813,0.3327578604221344,0.39231178164482117,-0.1321708858013153,-0.00969739817082882,-0.041996002197265625,0.004032927565276623,0.007080235052853823,0.14359045028686523,0.3554128110408783,-0.257824182510376,0.25600576400756836,0.10344246029853821,-0.049170441925525665,-0.011410231702029705,0.13893520832061768,0.7946877479553223,0.22682517766952515,0.16417750716209412,0.4285944998264313,0.8542389869689941,0.5121312141418457,0.6545388698577881,0.32711896300315857,0.2191530019044876,0.13562224805355072,0.2269945591688156,0.3028755784034729,0.43013468384742737,0.055613745003938675,0.08294514566659927,0.10067341476678848,0.18904535472393036,0.04156573489308357,0.020500848069787025,0.1231691911816597,-0.005530038848519325,0.2489345520734787,0.3709127902984619,0.12090253829956055,0.7087303400039673,1.1389107704162598,0.9055440425872803,1.1410503387451172,0.8801153898239136,0.7000182867050171,0.49242690205574036,0.6990379095077515,0.37328168749809265,0.45755165815353394,0.8761826157569885,0.3831802308559418,0.2595936954021454,-0.22811301052570343,-0.22241881489753723,0.27864643931388855,-0.04491328448057175,-0.03501393646001816,0.12309583276510239,-0.12542887032032013,-0.18322281539440155,0.055114321410655975,-0.06291995197534561,0.03222169727087021,0.16043119132518768,0.22454090416431427,0.7122256755828857,0.7977561950683594,0.6228910088539124,0.6742146015167236,0.6690205931663513,0.5448369979858398,0.8474805355072021,0.2674265503883362,0.441787451505661,0.12117664515972137,0.2820601165294647,0.18643826246261597,0.17972595989704132,0.32586297392845154,0.1983930617570877,-0.1380763053894043,-0.2917734682559967,0.18386174738407135,-0.1408613622188568,0.09101532399654388,0.1783139407634735,-0.04064810276031494,0.07700010389089584,-0.18820244073867798,0.161977156996727,-0.07935185730457306,0.08919993042945862,0.1840868443250656,0.29078325629234314,0.739308774471283,0.965225100517273,0.7626245021820068,0.2148415446281433,0.7730138301849365,0.4511840045452118,0.36011627316474915,0.4503546357154846,0.4268239736557007,0.662433922290802,0.28646284341812134,-0.006644942332059145,-0.20891137421131134,-0.08723986148834229,-0.5179458856582642,-0.351291686296463,-0.06611959636211395,-0.0012404951266944408,-0.014571706764400005,0.0906962901353836,-0.18477152287960052,-0.10159626603126526,-0.1262480616569519,-0.11990818381309509,0.14824649691581726,0.16576555371284485,0.05250818654894829,0.3134706914424896,0.4588801860809326,0.18627358973026276,0.6133217811584473,0.06043976917862892,0.28890860080718994,0.2608189284801483,0.25197580456733704,0.515295684337616,0.04744021221995354,0.24110834300518036,0.28709882497787476,0.6065922379493713,-0.13377875089645386,-0.35751011967658997,-0.7091302275657654,-0.2669781446456909,-0.13702891767024994,-0.24558643996715546,-0.2216334342956543,-0.07381314784288406,0.019271980971097946,0.055068980902433395,-0.0583324208855629,-0.17458000779151917,-0.09212049841880798,-0.16662782430648804,0.1609402894973755,0.1031414270401001,0.37408116459846497,-0.16234417259693146,0.09981541335582733,0.44977909326553345,0.039246685802936554,-0.1262364238500595,0.48658668994903564,0.09006570279598236,0.40094220638275146,-0.19431690871715546,-0.5761082172393799,-0.07048192620277405,-0.30795326828956604,-0.1711844652891159,-0.3991323709487915,-0.42461463809013367,-0.14361430704593658,-0.32345449924468994,0.1369776725769043,0.12466726452112198,-0.012374430894851685,0.025763990357518196,-0.12498470395803452,0.18482738733291626,0.05660392716526985,-0.1413530558347702,0.13014791905879974,0.12468354403972626,-0.26378095149993896,-0.09276126325130463,-0.10823909938335419,0.0021606169175356627,-0.02015511877834797,0.3554212152957916,0.6430688500404358,0.301874041557312,0.21384325623512268,0.37932801246643066,-0.07489373534917831,-0.26583871245384216,-0.17310750484466553,-0.36712583899497986,-0.5430757403373718,-0.218147873878479,-0.10423053056001663,-0.2199217975139618,-0.09389051049947739,-0.008958806283771992,-0.18887117505073547,-0.058813657611608505,0.08693107962608337,-0.11164212971925735,0.10218292474746704,0.19280993938446045,-0.22717033326625824,0.0474773645401001,0.04763191565871239,-0.41826581954956055,-0.162604421377182,-0.07291058450937271,-0.19420945644378662,0.3947695195674896,-0.012297485023736954,0.17471225559711456,-0.19465436041355133,-0.5195426344871521,-0.06630431860685349,-0.15604525804519653,-0.4708794951438904,-0.02362735942006111,-0.28248852491378784,-0.27677395939826965,-0.1774556040763855,0.05009078606963158,0.18513931334018707,-0.011422106064856052,-0.02589288167655468,-0.055012308061122894,0.08464524894952774,-0.1756603717803955,0.042932040989398956,0.010792115703225136,-0.031277142465114594,-0.1531776636838913,0.038823697715997696,-0.1986314058303833,0.005894835107028484,-0.3526623547077179,-0.09387171268463135,-0.2397094964981079,-0.07147607952356339,-0.34618332982063293,-0.12052954733371735,0.16904371976852417,-0.012218965217471123,0.044213857501745224,0.10224299132823944,0.08576268702745438,-0.26165682077407837,-0.20747710764408112,0.10569767653942108,-0.10323324799537659,-0.039138223975896835,-0.011586188338696957,-0.18192638456821442,-0.06493648886680603,0.17742370069026947,-0.0746695026755333,-0.026158103719353676,0.12560606002807617,0.16859953105449677,0.09476754814386368,-0.1473253220319748,-0.15265196561813354,0.08918812870979309,0.1065317764878273,0.12813860177993774,-0.16294987499713898,0.17660194635391235,-0.12423380464315414,0.06552472710609436,-0.07818064093589783,0.029785776510834694,0.039761241525411606,-0.08037976175546646,0.007994110696017742,-0.005394505802541971,-0.1737508773803711,-0.12682773172855377,0.02454737201333046,0.11790654063224792,-0.06078433617949486,0.10815993696451187,0.10551516711711884],[-0.020153548568487167,-0.16461889445781708,-0.00535864382982254,0.09015688300132751,0.08511216193437576,-0.17270240187644958,-0.0859900489449501,-0.1984732449054718,-0.09171371161937714,-0.07117418944835663,0.07739093899726868,0.12646304070949554,0.022040124982595444,0.005642008502036333,0.008356291800737381,-0.0031152977608144283,0.004747174680233002,0.05331932753324509,0.10219425708055496,0.11561630666255951,-0.027914172038435936,-0.08762717992067337,0.01738479733467102,-0.07706525176763535,0.0713079646229744,0.0013427920639514923,-0.17233017086982727,0.07366257905960083,0.022581109777092934,-0.007271082140505314,0.13162632286548615,0.09751434624195099,0.07818111777305603,0.12413567304611206,0.09517115354537964,0.1411512941122055,0.040071792900562286,-0.004370055627077818,0.06496724486351013,-0.11710222065448761,0.13158375024795532,0.026048628613352776,0.13210396468639374,-0.03745455667376518,-0.16471853852272034,0.05754537880420685,0.0585782416164875,-0.04624803736805916,-0.1357019990682602,0.18557026982307434,0.10778074711561203,-0.0742870643734932,0.16084739565849304,0.10767719149589539,0.05558483675122261,0.008716577664017677,-0.03470490872859955,0.11755352467298508,0.0262045469135046,-0.07397017627954483,-0.0987505167722702,-0.15878534317016602,-0.10730014741420746,-0.08058573305606842,0.09609121084213257,-0.1938377469778061,0.06278206408023834,-0.00341644580475986,0.13608449697494507,-0.01614135317504406,0.07576610893011093,-0.009031361900269985,-0.20877604186534882,-0.11571410298347473,-0.049999840557575226,0.13357658684253693,0.1003957986831665,-0.03294197842478752,0.09187637269496918,-0.03586645796895027,-0.16660116612911224,0.15610802173614502,-0.0023446304257959127,0.017890600487589836,-0.1753034144639969,-0.1486140936613083,0.02338770031929016,-0.0967295691370964,0.05225059762597084,-0.17329014837741852,-0.0004922214429825544,-0.01209548581391573,-0.19562220573425293,-0.14667321741580963,0.13055910170078278,-0.22591547667980194,0.25686490535736084,-0.16578499972820282,0.08150007575750351,-0.4634062647819519,0.23504668474197388,-0.24666862189769745,0.3867243528366089,-0.15514959394931793,-0.041429221630096436,-0.26403361558914185,-0.1473182737827301,-0.12574271857738495,0.036212511360645294,0.09786462783813477,0.0032603100407868624,0.02883833274245262,-0.0423232801258564,0.07476098090410233,-0.17191091179847717,-0.12635613977909088,0.11236943304538727,0.15937481820583344,0.1961745172739029,-0.11635507643222809,0.03241242840886116,0.16871778666973114,-0.28736868500709534,0.0903581753373146,-0.31580111384391785,-0.04757051542401314,-0.10587125271558762,0.2837156653404236,-0.2589864730834961,-0.2318374365568161,-0.11561151593923569,-0.28417569398880005,-0.4560765027999878,-0.22496545314788818,-0.011671585030853748,-0.15644411742687225,0.1150965690612793,0.19566987454891205,0.14667122066020966,0.07522452622652054,-0.040384527295827866,0.01585809513926506,0.18152447044849396,-0.06771980971097946,0.23253926634788513,0.12377595901489258,0.10485697537660599,0.4395315647125244,-0.001385877258144319,0.14916184544563293,-0.21203310787677765,-0.19524234533309937,-0.1210145577788353,-0.13142725825309753,0.027486396953463554,0.04461701959371567,0.3558572828769684,0.209803968667984,0.6650330424308777,0.17057271301746368,0.272082656621933,-0.1871713548898697,0.025401901453733444,-0.11675920337438583,-0.04304620623588562,0.14193430542945862,0.10931417346000671,-0.17488570511341095,0.16991540789604187,0.010759137570858002,0.1859319508075714,0.17952574789524078,0.3018258213996887,0.06518356502056122,-0.07156145572662354,0.39638751745224,0.39439499378204346,-0.03748216852545738,-0.27079689502716064,0.23112013936042786,-0.19446071982383728,-0.1264028400182724,-0.714270830154419,0.3006435036659241,0.6013740301132202,0.41368216276168823,0.7174256443977356,-0.0687275230884552,0.30835479497909546,0.495914489030838,0.12413553893566132,0.020421065390110016,0.012301850132644176,-0.022472718730568886,0.1385268270969391,0.10500433295965195,-0.11081503331661224,-0.12346283346414566,-0.1616731733083725,-0.06887134909629822,0.3663487732410431,0.32991015911102295,0.33659735321998596,0.11135990172624588,-0.1642545461654663,0.6551055312156677,1.044934868812561,0.27483659982681274,-0.6165468096733093,0.2951563894748688,0.2948592007160187,0.19890522956848145,0.007847634144127369,0.06084880977869034,0.5528063178062439,0.08822120726108551,0.5896992087364197,0.14599627256393433,0.22260123491287231,0.3450758159160614,0.4571796655654907,0.17404387891292572,-0.009294436313211918,-0.18632645905017853,0.18007580935955048,0.05019460245966911,-0.02331884764134884,0.12229496985673904,-0.11822524666786194,0.12443394213914871,0.30105844140052795,0.09857993572950363,-0.38055792450904846,0.2809756100177765,0.26317572593688965,-0.7799318432807922,0.4831235110759735,0.3222537934780121,0.05996604263782501,0.16892032325267792,-0.5855671763420105,0.027499772608280182,-0.25772833824157715,-0.12484674155712128,0.09471163898706436,0.14706149697303772,0.19522269070148468,-0.00848292000591755,0.14987550675868988,-0.009935812093317509,-0.089314304292202,0.057341188192367554,0.07060128450393677,0.2212582230567932,-0.11655519902706146,-0.015169119462370872,0.07839508354663849,-0.019508887082338333,-0.1432800590991974,0.21745778620243073,-0.03316792845726013,0.07656197994947433,-0.47505778074264526,-0.4451838731765747,-0.02960154041647911,0.3901432752609253,0.035958182066679,-0.8639744520187378,-0.4478835463523865,-0.3083854615688324,-0.3808474838733673,-0.32454726099967957,-0.07746104151010513,0.11084221303462982,0.012573917396366596,-0.33817580342292786,0.0170137882232666,-0.13128581643104553,0.13064897060394287,-0.1219276487827301,-0.15883983671665192,0.18961749970912933,0.15341365337371826,0.15088102221488953,0.23975643515586853,0.10008268803358078,0.059299588203430176,-0.36509665846824646,0.1415613293647766,-0.20152205228805542,-0.6213339567184448,-0.5163017511367798,-0.2572973072528839,-0.7470945715904236,-0.8371914029121399,-0.9093180298805237,-0.3688019812107086,-0.49864616990089417,-0.5263763666152954,-0.7607420682907104,-0.7056742906570435,-0.6262829899787903,-0.14227142930030823,-0.28296735882759094,-0.11197321861982346,-0.12676197290420532,0.04449230059981346,-0.19350047409534454,0.17977739870548248,-0.034843847155570984,0.11353080719709396,0.0783216580748558,0.3673669099807739,-0.23128864169120789,-0.30070361495018005,-0.2106873095035553,-0.8021959066390991,-0.5111675262451172,-0.8499777317047119,-1.165847897529602,-0.5918741822242737,-1.0445047616958618,-1.0456230640411377,-0.6897717118263245,-0.35027140378952026,-0.5626668334007263,-0.8901605010032654,-1.1559664011001587,-0.9793365597724915,-0.21415160596370697,-0.12820346653461456,-0.3873962461948395,-0.212723970413208,0.08364443480968475,-0.08168036490678787,0.1525677740573883,-0.15268026292324066,0.16088630259037018,-0.10996053367853165,0.1380389779806137,0.1724909096956253,-0.07083874940872192,-0.500945508480072,-0.309381902217865,-0.5350288152694702,-0.5931189656257629,-0.4200412929058075,-0.0985630676150322,0.32966965436935425,0.6910680532455444,0.3906543254852295,0.12341350317001343,0.10444563627243042,-0.6000993251800537,-0.8163339495658875,-0.7751824855804443,-1.0712158679962158,-0.614312469959259,-0.4641279876232147,-0.3509831428527832,-0.11759207397699356,0.002103535458445549,0.019590403884649277,0.07714851945638657,-0.06659448146820068,0.14532771706581116,-0.03861267864704132,0.06326495110988617,0.08613698929548264,0.29962512850761414,0.2923770844936371,-0.060306064784526825,-0.5844748616218567,-0.39313405752182007,0.49331310391426086,0.026012996211647987,0.43747738003730774,0.7764627933502197,0.764342188835144,0.06300050765275955,-0.023124951869249344,-0.36002081632614136,-0.3497735261917114,-0.8795801401138306,-0.7788076400756836,-0.029316497966647148,-0.2842501997947693,-0.38530391454696655,-0.05486041679978371,-0.15945689380168915,0.12426790595054626,-0.1952608972787857,0.15840955078601837,-0.07158037275075912,-0.13014958798885345,0.11027349531650543,0.05567307397723198,-0.10080839693546295,0.03123614750802517,0.24474284052848816,-0.1700853556394577,0.6162927150726318,0.5543301105499268,0.5372083187103271,0.5443050861358643,0.5961084961891174,0.41528359055519104,0.5078480243682861,0.2521197497844696,-0.012006737291812897,-1.0059094429016113,-0.11663734167814255,0.030061710625886917,0.28171077370643616,0.08278727531433105,-0.006506561767309904,0.23529528081417084,-0.010416869074106216,0.06375770270824432,0.04759548604488373,0.11788304895162582,-0.030881348997354507,-0.13398967683315277,0.013696005567908287,-0.009164988994598389,-0.005357422400265932,0.12130995839834213,-0.15326759219169617,0.1958814263343811,-0.057340510189533234,0.09850265085697174,-0.16492018103599548,0.7503806948661804,0.7567963004112244,-0.09357181191444397,-0.47191259264945984,0.11434639245271683,-0.12444885075092316,0.1943819522857666,0.4181465804576874,0.45133525133132935,0.8078899383544922,0.18550078570842743,0.07288392633199692,-0.06211582571268082,-0.1555207073688507,0.13840129971504211,0.1468193680047989,0.06997693330049515,-0.03467731177806854,-0.025512469932436943,-0.23142607510089874,-0.23078399896621704,-0.18560248613357544,-0.3452451527118683,-0.4120357930660248,-0.8695077896118164,-1.0297152996063232,-0.1348024308681488,-0.40313979983329773,0.7268400192260742,0.4168245792388916,-0.00000526517169419094,-0.1993478685617447,-0.09814843535423279,-0.45563697814941406,0.3548395335674286,0.3933013677597046,0.5734192728996277,0.8698632121086121,0.5780889987945557,-0.00204438716173172,-0.04587654396891594,-0.18724901974201202,0.07084103673696518,-0.1772642880678177,0.11951524764299393,-0.1446342021226883,-0.07609873265028,-0.1466211974620819,0.11428499966859818,-0.4480886161327362,-0.3073401153087616,-1.0394624471664429,-1.749395489692688,-1.6296368837356567,-1.4761019945144653,-2.258791208267212,-1.646865725517273,-1.1045687198638916,-0.8011112809181213,-0.40160587430000305,-0.32951515913009644,-0.1970272809267044,0.2000422179698944,0.6224071383476257,0.8313350677490234,0.5158641338348389,0.20274707674980164,0.013091876171529293,0.050390105694532394,0.084821417927742,-0.011291751638054848,0.12352769076824188,0.11008689552545547,-0.022931266576051712,0.23313084244728088,0.020021287724375725,-0.08404108136892319,-0.20448492467403412,-0.5952929258346558,-1.3658593893051147,-1.7533551454544067,-1.8350439071655273,-2.2505698204040527,-2.527789354324341,-2.035564422607422,-1.9072928428649902,-1.4446221590042114,-1.027056097984314,-0.10045453906059265,0.5400293469429016,0.534316897392273,0.9848284125328064,0.8314321637153625,0.9247438311576843,0.10782521218061447,0.11813581734895706,-0.0170931164175272,-0.16948974132537842,-0.050259657204151154,0.19659671187400818,-0.17214557528495789,-0.1624586582183838,-0.12058590352535248,0.21610760688781738,-0.007515626959502697,-0.30533042550086975,-0.4901094138622284,-0.848743200302124,-1.3259462118148804,-1.0201212167739868,-1.2176520824432373,-1.4433085918426514,-1.157076120376587,-1.2841355800628662,-0.8325101137161255,-0.8538804650306702,0.2352655678987503,-0.20419225096702576,0.12834002077579498,0.45966580510139465,0.7206104397773743,0.43041273951530457,0.11236563324928284,0.37293124198913574,-0.011220445856451988,-0.02035043016076088,0.07130018621683121,-0.13782835006713867,-0.17599546909332275,0.08312857896089554,0.153718501329422,0.31334957480430603,0.3398796617984772,-0.050100844353437424,-0.36092573404312134,0.14316360652446747,-0.3561270236968994,-0.09096313267946243,-0.38062784075737,-0.8636202812194824,-0.2224774956703186,0.47321632504463196,-0.4609588086605072,0.23389281332492828,0.35225534439086914,0.11815664172172546,0.369723916053772,0.2312077432870865,0.48279356956481934,-0.022205347195267677,0.2860794961452484,0.022885531187057495,0.2774798572063446,-0.007144266273826361,-0.10128507018089294,-0.138435959815979,0.05038550868630409,-0.05440574511885643,0.08102984726428986,0.2060028612613678,0.1450253427028656,-0.2175360471010208,-0.08352204412221909,-0.0003275376802776009,-0.13247506320476532,-0.3514432907104492,-0.02948586829006672,0.23066946864128113,0.641883373260498,0.0711597427725792,0.5364199280738831,-0.08395247161388397,0.46116718649864197,-0.08412875980138779,-0.008195086382329464,-0.10330870747566223,0.09059812128543854,-0.3817179203033447,0.13907527923583984,0.3882129490375519,-0.27753692865371704,0.12549322843551636,0.16996368765830994,0.0028831821400672197,0.17123353481292725,-0.1464330106973648,-0.13457734882831573,-0.0008259610622189939,0.326192170381546,0.18573273718357086,-0.2132672816514969,0.0356343574821949,0.22207677364349365,0.3509570062160492,0.19152939319610596,0.5628771185874939,0.577155351638794,0.2299174815416336,0.9098909497261047,0.06411632150411606,-0.3733210861682892,-0.3802761435508728,-0.5199699401855469,-0.24854415655136108,0.32893165946006775,-0.05681717395782471,0.10922151058912277,0.3347380459308624,-0.21352095901966095,0.10741955786943436,-0.0632355809211731,0.004621271044015884,0.13042254745960236,0.13426868617534637,-0.17500483989715576,0.12388081103563309,0.005327652208507061,0.5516811609268188,0.21894706785678864,0.8249924778938293,0.6358007788658142,0.4179707467556,0.7736377716064453,0.39593905210494995,0.41274240612983704,0.21630381047725677,0.14823032915592194,0.3610478937625885,0.006141650024801493,0.009658677503466606,-0.08501029014587402,-0.40495631098747253,0.23998920619487762,-0.25360116362571716,0.10400387644767761,0.13585439324378967,0.03707147017121315,-0.11144670844078064,-0.04909120500087738,0.14937512576580048,-0.08271892368793488,0.11951382458209991,-0.1367361694574356,0.10252218693494797,0.31691139936447144,0.44057607650756836,0.3645413815975189,0.9474937319755554,0.8448512554168701,1.210613489151001,0.9783169627189636,0.2721521854400635,0.6074756979942322,0.35052311420440674,0.3619006276130676,0.11956053972244263,0.34760522842407227,0.024481020867824554,-0.2614399492740631,-0.6390036344528198,0.05992540717124939,0.10260222107172012,0.21192552149295807,0.1598927229642868,0.135572612285614,-0.09182986617088318,0.13673269748687744,-0.08070259541273117,-0.12419020384550095,-0.04609355330467224,-0.0030661977361887693,0.03538934141397476,-0.19243378937244415,-0.08254755288362503,0.1379263997077942,0.3618307411670685,0.44538918137550354,0.518966555595398,0.152691051363945,0.5143037438392639,0.20741799473762512,0.34736114740371704,0.13796520233154297,0.3569779396057129,0.01707792840898037,-0.16022978723049164,-0.07717841118574142,-0.10465068370103836,-0.20387433469295502,-0.21407870948314667,0.028698623180389404,-0.050246674567461014,-0.12851259112358093,-0.15464705228805542,-0.1423182487487793,0.1482255458831787,-0.13449211418628693,0.1017492413520813,0.021752042695879936,-0.19226111471652985,0.04802301526069641,-0.10816360265016556,-0.11879867315292358,0.1637336015701294,0.1882721334695816,-0.14438550174236298,-0.1457451432943344,-0.08925867080688477,-0.06163029000163078,-0.18403439223766327,0.01984126679599285,0.2622125744819641,0.09466075152158737,-0.2580530643463135,0.17992796003818512,0.11039341986179352,0.1635025590658188,-0.009294687770307064,-0.18356767296791077,-0.057163141667842865,-0.11264560371637344,0.12028677761554718,0.10247717797756195,0.017703033983707428,-0.11778013408184052,0.17739468812942505,0.15054236352443695,-0.16925811767578125,-0.019101787358522415,0.13862518966197968,0.07305766642093658,-0.15933546423912048,-0.10736298561096191,-0.09108125418424606,0.06794074177742004,0.0024019351694732904,-0.03360742703080177,0.007962686009705067,-0.17326058447360992,0.1617441326379776,0.04548700153827667,0.18099889159202576,-0.012006303295493126,-0.023960459977388382,0.026588791981339455,0.12039109319448471,0.13652175664901733,0.1768951416015625,0.11011704802513123,-0.1521698385477066,0.1991051286458969,0.16921301186084747],[-0.1534019410610199,0.0675278827548027,0.13407088816165924,0.1419956088066101,0.09955418854951859,-0.09560421854257584,-0.16921864449977875,-0.1533328890800476,-0.070640929043293,0.11882869899272919,-0.04151725769042969,0.09117598831653595,0.08217684924602509,-0.09210208803415298,-0.12091802060604095,-0.15416692197322845,0.12777525186538696,0.15967312455177307,0.05962856113910675,0.12635834515094757,0.03028401918709278,-0.1158837080001831,0.19220024347305298,0.1728745996952057,0.058182891458272934,-0.1490129679441452,0.13767391443252563,-0.08703676611185074,-0.1965293139219284,0.034767381846904755,0.15555617213249207,0.1116199791431427,0.1548743098974228,0.16189755499362946,-0.16674809157848358,-0.041457511484622955,0.09461283683776855,0.019574260339140892,0.13819974660873413,0.15576812624931335,0.07225517183542252,0.15675044059753418,-0.1277819722890854,-0.014661149121820927,0.02292913943529129,-0.06656672805547714,-0.12096919119358063,-0.018900632858276367,0.19316287338733673,-0.16119320690631866,-0.07205835729837418,0.1134197935461998,0.04275965690612793,0.13828341662883759,-0.0888521671295166,0.16659142076969147,-0.06104593351483345,-0.13729244470596313,-0.19948218762874603,0.11487741023302078,-0.12001238018274307,0.18411679565906525,0.021123381331562996,-0.15954187512397766,-0.08651164919137955,0.10691162943840027,-0.023633303120732307,0.24545879662036896,0.18500551581382751,0.00815595779567957,0.010824279859662056,-0.003481304971501231,0.09245682507753372,0.21880432963371277,-0.09993640333414078,-0.15410901606082916,0.1239120364189148,0.0030689467675983906,0.0926700085401535,0.18808062374591827,0.008829946629703045,-0.11199155449867249,0.027509935200214386,-0.10810482501983643,0.005936534609645605,-0.04601646214723587,-0.01556460466235876,0.18777374923229218,-0.1388576179742813,-0.21564212441444397,-0.1441865861415863,0.17214997112751007,0.17814603447914124,0.2835746705532074,0.2693658173084259,0.2524249851703644,0.42021259665489197,0.36349567770957947,0.44747209548950195,0.4351474642753601,0.4122784435749054,0.18646810948848724,-0.03562317416071892,-0.052592307329177856,0.1634882092475891,0.1278909593820572,0.26440033316612244,0.29226312041282654,0.2739282548427582,-0.08020298928022385,0.1464691311120987,-0.12748895585536957,-0.1424490064382553,-0.07403071969747543,-0.1754290759563446,0.02891639806330204,0.04045142978429794,0.10658034682273865,-0.07938035577535629,-0.07312952727079391,-0.04038944095373154,-0.2942390739917755,-0.04690689221024513,0.09397534281015396,0.1388653963804245,0.08866313099861145,0.1412854939699173,0.40583428740501404,0.41494321823120117,0.1574842929840088,0.19282805919647217,0.3445824086666107,0.42475202679634094,0.18048614263534546,0.19911324977874756,0.0262948926538229,-0.24164508283138275,0.009818683378398418,0.0760585367679596,-0.13970497250556946,0.061578571796417236,-0.1331164538860321,0.018054628744721413,-0.15737883746623993,-0.14043518900871277,-0.1800989955663681,0.09134078770875931,0.021343639120459557,-0.2666926980018616,-0.7037717700004578,-0.3898361325263977,-0.9683597683906555,-0.5505878925323486,0.08416281640529633,-0.1542460322380066,-0.04413900896906853,-0.6363385319709778,0.25059932470321655,0.16231593489646912,0.4913131296634674,0.2650245130062103,-0.00009335586219094694,-0.2208537757396698,-0.013614361174404621,-0.27371537685394287,0.06388605386018753,0.042386338114738464,-0.14598360657691956,0.16661417484283447,-0.14159083366394043,0.08182670921087265,-0.05946334823966026,0.029283814132213593,0.14253588020801544,-0.37603068351745605,-0.40194499492645264,-0.45644259452819824,-0.7847740650177002,-0.46077442169189453,-0.5185073018074036,-0.4692513048648834,-0.2805897891521454,-0.11061131209135056,-0.1474006325006485,-0.04446779564023018,0.346303790807724,0.4838259816169739,0.4027240574359894,-0.3733517527580261,-0.4475789964199066,-0.37929263710975647,-0.3593722879886627,-0.17240171134471893,-0.38959458470344543,-0.24819013476371765,-0.06295633316040039,-0.1558467298746109,-0.11437580734491348,-0.13603881001472473,-0.18403597176074982,0.0449545755982399,-0.13378386199474335,-0.3628033697605133,-0.7101645469665527,-0.708624541759491,-0.40352389216423035,-0.6362060308456421,-0.23640725016593933,-0.53262859582901,-0.23209787905216217,0.08801153302192688,-0.4065934717655182,0.41787880659103394,0.2765742242336273,0.3497958481311798,0.548503577709198,0.6707997918128967,0.23570255935192108,0.20157895982265472,-0.3079942762851715,-0.17335325479507446,-0.012899532914161682,0.021994609385728836,-0.12948337197303772,0.1425037980079651,-0.017912089824676514,0.01942431926727295,0.08458400517702103,-0.24257276952266693,